<?xml version="1.0"?>
<opencv_storage>
<opencv_ml_ann_mlp>
  <format>3</format>
  <layer_sizes>
    29 220 320 15 1</layer_sizes>
  <activation_function>SIGMOID_SYM</activation_function>
  <f_param1>6.6666666666666663e-01</f_param1>
  <f_param2>1.7159000000000000e+00</f_param2>
  <min_val>-9.4999999999999996e-01</min_val>
  <max_val>9.4999999999999996e-01</max_val>
  <min_val1>-9.7999999999999998e-01</min_val1>
  <max_val1>9.7999999999999998e-01</max_val1>
  <training_params>
    <train_method>BACKPROP</train_method>
    <dw_scale>1.0000000000000000e-03</dw_scale>
    <moment_scale>2.0000000000000001e-01</moment_scale>
    <term_criteria>
      <iterations>1000</iterations></term_criteria></training_params>
  <input_scale>
    1.0712149929435251e+00 2.7530210829063949e-02 1.0617315573169412e+01
    -9.9193152117251113e+00 1. 0. 1.5538620311253653e+00
    -1.8688838983359193e-01 2.1555654759539262e+00
    -8.6179471448346556e-01 1.7552035950060241e+00
    2.2587448433534232e-01 2.1764573137507104e+00
    -7.1725957898032111e-01 2.6884274919726150e+00
    2.7339492343634059e-01 2.8584030698311125e+00
    -4.1726674325206398e-01 5.3670668906684558e+00
    1.4310330461574342e-01 5.4792737741092772e+00
    -1.9145829534253467e-01 1.3230064032157721e+01
    4.7666819490454260e-02 1.3482738311406212e+01
    -7.5820714722399193e-02 2.7792923606011534e+01
    2.2556139812805250e-02 2.8264475979897220e+01
    -3.5983170337124774e-02 5.8219057262548638e+01
    1.7181576851581563e-02 5.8219057262548638e+01
    -1.7181576851581563e-02 1. 0. 1. 0. 1. 0. 1. 0. 1. 0. 1. 0.
    4.6175285908318280e+00 -1.8032079386693514e+00
    4.6049666001623173e+00 -2.1371705038246880e+00
    4.6344597424838314e+00 -2.5224452311959222e+00
    1.6187862116817957e+01 -1.2624863777624427e+00
    1.5991412308846630e+01 -1.2851351692058495e+00
    1.5891884377400560e+01 -1.3025047520348330e+00</input_scale>
  <output_scale>
    1.0526315789473684e+00 0.</output_scale>
  <inv_output_scale>
    9.4999999999999996e-01 0.</inv_output_scale>
  <weights>
    <_>
      -1.0495784880714566e-01 -1.7731198869517081e-01
      5.1815641417841507e-02 -3.1794603330346310e-01
      -6.7777547825565138e-02 3.0000863852593945e-01
      -1.2090204753674640e-01 -4.3463134587565722e-01
      -4.3844667873492353e-03 2.0716690509777810e-01
      -1.1452632951829449e-02 -6.2108533559959567e-01
      2.2203793898072893e-01 -8.3027834187348978e-02
      -3.4193172573703928e-01 2.7752166649415384e-02
      -3.2392623894574923e-01 -1.6140582397214348e-01
      -1.5779097829693875e-01 -3.5972791634253126e-02
      -4.2504166283857350e-02 5.7385984300171222e-01
      -4.8675939433082154e-04 4.0337543600547199e-02
      3.7284516651874981e-02 -3.3361058091155867e-02
      -2.8871412533108420e-01 1.7931208446349409e-01
      -6.5257336000759808e-02 1.9954988209512620e-01
      2.4805332727776418e-02 -6.3567014504037081e-02
      3.4555914978594704e-01 -2.3898243221627846e-01
      -9.5461157110208680e-02 1.1114361649320285e-01
      -8.1758573389554987e-02 -4.1889690472595409e-01
      -1.0744248449296023e-01 1.1303123523480971e-01
      1.6377816797541972e-01 -1.0528039499903147e-01
      9.5704386142727877e-03 6.4503154117536113e-02
      3.1257947011658310e-01 2.4495007679069111e-01
      9.5435430469662283e-02 4.3162444408612705e-01
      -5.7310501792905455e-01 -3.8779521647641833e-02
      -1.9698562124073857e-01 7.5342085874997877e-01
      -3.3254742372736423e-01 -2.7407053855968363e-02
      -2.6668864408772530e-02 1.5793476181682387e-01
      1.3926419373748960e-02 -1.1349894781688440e-01
      -8.4268210451209233e-02 -9.0937941515480507e-03
      2.5966648509570422e-01 6.3965852183983291e-02
      8.5483912620738563e-03 -3.5002503623999197e-02
      -2.7064146257065429e-02 -3.0364776563007523e-01
      3.1142099448576023e-02 8.1797858298731912e-03
      -5.9822751111467487e-01 -8.0597635309304014e-03
      -1.6290085026516402e-01 2.2891820313674474e-01
      2.0124855881545566e-02 -4.9558424241612914e-02
      3.5342186720938223e-02 3.1800207382524276e-01
      6.2591345012158364e-02 3.8352263491980337e-01
      1.6518135764169187e-01 1.7030308428780002e-02
      6.8335335875526967e-02 1.5788294128556943e-01
      -4.1201384921427407e-02 4.6121862240866984e-01
      -5.4232090891439828e-02 -1.5894151964109340e-01
      3.3380233093896969e-02 -8.9598748252336616e-02
      -2.2120957100452210e-01 -1.5669469874143110e-01
      -2.0451453164520891e-01 -1.3025030130376730e-02
      -5.4819171463574089e-02 5.9880186182454477e-02
      4.1319936990810152e-01 6.0640404440474915e-01
      -5.4460053761804197e-02 6.8242612217882692e-01
      -2.8228767973093977e-01 2.6671566041544509e-01
      7.8353616655257460e-02 -3.9665422323330202e-02
      -2.1972535281229549e-01 -1.7621359615893167e-01
      1.9018986325582281e-02 -1.4955931941969225e-01
      1.1638034151117310e-01 -2.7072122430441870e-01
      -3.2599529008843486e-01 3.8439551656282173e-03
      8.2343209240130291e-02 -4.8695311823808529e-01
      1.2119507800953055e-02 -8.9300685921082867e-02
      -8.4257648380352351e-02 1.2243103056867337e-01
      8.3870817726403465e-02 2.7519150382527338e+00
      9.2071992836637070e-02 -8.1389981385404070e-02
      -1.1950905379989900e+00 1.0937040180826727e-02
      -2.3741402141877442e-02 -2.9638784324321837e-01
      5.5838519789233702e-02 -3.6722994818570903e-01
      -3.2388640489396672e-02 -3.1459546342719809e-02
      2.5465789631167307e-01 8.3061022565237300e-02
      3.7830689043771876e-02 7.9938720490114926e-02
      1.9524030704242051e-01 1.8449918796518047e-01
      5.7700795005001686e-02 -2.8650703042098352e-01
      1.1596834044619896e-01 -1.2937715672011227e-01
      1.3873457779621626e-01 2.0123607468871241e-01
      -1.3589100746661181e-01 -5.1262232222361082e-01
      -7.6209821600083716e-02 8.0027715230904528e-01
      -3.1221064225422895e-01 -3.4119710043467427e-01
      -8.6674772029666308e-02 -6.3302747791310759e-02
      2.2467781855861382e-01 -2.3083247419335226e-01
      1.6230297045502631e-01 2.0286963624319646e-01
      -8.9054252204942175e-02 7.3860090521916180e-02
      1.4997657351433633e-01 -1.5886616384533850e-01
      7.5753201997884892e-02 -1.0223408555639402e-01
      -5.6792991601269195e-02 -3.4106325403955272e-02
      2.1008300741262396e-02 -9.4397869521062938e-02
      2.9037542694802870e-01 -6.6653690350271508e-02
      4.5222276156253666e-01 1.8136629909478084e-02
      -8.9339877899599324e-02 -1.3283803091830521e-01
      3.5404891643430375e-01 5.9758527440739111e-02
      -7.3101207421323824e-02 -1.0382537384850465e-01
      1.4835096889114172e-01 -4.5151493329139807e-02
      -1.0087971501938785e-01 -5.2711508197900693e-02
      -1.1402991407525553e-01 1.9578043758647745e-01
      2.2882768193230005e-01 6.7721461345551506e-03
      -9.9485552599669017e-03 2.6831753470202108e-01
      -9.0211877629457815e-02 2.5737128578206991e-01
      -1.3305310783371657e-01 -1.3012026547730990e-01
      -1.8308627886502082e+00 1.2458394543476990e-02
      -4.8498604606020235e-02 -1.3468249609481864e-01
      -2.2326465525178135e-01 -9.2329965806273701e-02
      -1.5535864528136609e-01 -1.0941335419554025e-01
      7.0730056980042866e-02 -9.9127617122042079e-03
      3.3361354399045660e-02 -6.5020327474784909e-02
      3.8711719810301248e-01 1.0965336229662917e-01
      -1.1635736415357942e+00 -2.6490845922662998e-01
      1.6021224927301966e-01 9.2255609109013675e-02
      2.0696965674028728e-01 -3.6920877770465189e-02
      1.6032116684051834e-01 2.1830819960908698e-02
      3.0411731254398666e-01 3.1938020385391702e-01
      -2.8443831150980068e-02 2.7676582594931526e-01
      1.0330068761857989e-02 3.0976896696519024e-01
      -1.2917545384132723e-01 6.3158114711122149e-02
      -1.1441176551724867e-01 6.7186698573336825e-02
      -7.1575238854616183e-02 -1.1360640127215577e-01
      7.5320691070646165e-02 1.9893802304315938e-01
      -5.0426819597350181e-01 4.3581667374018773e-01
      -5.1809718383593092e-02 4.5803418793772414e-02
      1.1163754340530881e-01 1.4072948873304131e-01
      -2.6585503881649236e-01 2.3910489857325878e-01
      -8.0644374302893826e-02 1.4573428216077653e+00
      -4.9418452398255583e-02 -4.2713558428429804e-02
      -2.4995757967292992e-01 -3.4793349220933861e-01
      1.2844905274651078e-01 2.4117656705302445e-01
      2.8973591356556298e-02 3.0190822763521830e-01
      -1.0206978163959360e-01 -2.1748267351015044e-01
      5.0002205911298054e-03 -2.5360021367640589e-01
      3.7119977335586146e-01 3.2613672094810936e-01
      -1.1557755105719977e-01 -8.1828962721188961e-02
      -1.7222232942100429e-01 -6.1867799702142290e-01
      -1.8675333899321959e-02 -3.1881661237803210e-01
      4.7874854337040673e-01 -2.9975783745611223e-01
      -4.7096021503467991e-02 1.0829021673127884e-01
      1.3068027839482346e-01 2.6415653555007607e-01
      3.8972710567911018e-01 -3.9351164546377565e-01
      2.1397482469726739e-01 3.4083667010596508e-01
      1.2945875732856622e-02 2.2305082360948095e-01
      2.9824429781633532e-01 -5.7912784347858882e-02
      6.0972587365784599e-02 5.4309712287744262e-02
      1.0734514555901337e-01 1.3324224194034218e-01
      2.8314528728917560e-01 3.1223677635833286e-01
      -2.8730035824227795e-01 1.6818808548007019e-01
      -4.5248953310046952e-01 -1.6423389696357996e-01
      3.5855087483080311e-01 -2.6094222672939676e-01
      6.8871665637770574e-01 -4.8164270993440067e-01
      1.2932842777233736e-01 1.7357486741020092e-01
      1.9816582747765280e-02 -3.1432367279728179e-01
      -1.2067516054138253e-01 4.4771674744028445e-01
      -1.3619663157056167e-01 4.2612111183019663e-01
      2.6377872704835037e-01 -2.2952302367247293e-01
      -6.1533418172515020e-01 -1.1510197869394216e+00
      -6.7324019025801130e-01 -7.0854950247599735e-01
      -2.0065502345290598e-01 -1.4933701350398307e-01
      -3.2685137011914600e-01 4.4100453574533233e-01
      3.6654619482224149e-01 -4.1179204421706955e-01
      -7.9666905045138547e-01 1.5061613084377906e-01
      -7.3246316839467210e-02 3.5030312658122220e-01
      9.8326494196750353e-02 2.8089411897104610e-01
      5.9271263643646299e-01 3.3417428484851977e-02
      -1.4716054703855783e-01 5.2399151453418769e-01
      -3.4127020377876921e-01 5.0810244567053009e-01
      -2.1156624718442074e-01 4.5595670304138119e-01
      -6.6020200229269854e-01 3.5383868776108762e-01
      -7.4690124598859750e-02 -5.4948067395072586e-01
      3.0075650994234175e+00 -2.9693888784508826e-01
      -4.8433132259752232e-01 1.1038955603543871e-01
      -2.4340027345159290e-01 4.5095906860004020e-01
      -6.6600017001449782e-02 2.2861577950562803e-01
      -1.4999618363816905e-01 3.0619079562414230e-02
      -7.7018222122214292e-02 1.0757608028167398e-01
      3.6168075768406849e-01 1.9761376150847219e+00
      -4.5604636019931760e-01 3.5024955739310970e-01
      -1.9194865799287592e-01 1.6617664550332457e-02
      -3.1154378540679156e-01 -1.3426128311390899e+00
      -1.5267075277611897e-01 4.0057091525129838e-02
      5.2920966894487176e-01 -3.7192600844666363e-01
      -1.4280893751479631e-02 4.5674097957919951e-01
      -2.7951988006150591e-01 -4.9683694090413166e-01
      2.8995812897084344e-01 -1.9299659914468967e-01
      1.2536880292421704e-01 1.6037275052009337e-01
      1.6068699830838709e-01 3.6856420926564459e-01
      -5.8419662037664050e-02 -2.8144251009131116e-01
      -4.4479186682937893e-01 7.2086308377130828e-02
      -1.5247738797085805e-01 1.0046624989562034e+00
      3.0871865440589208e-01 1.8557971653969682e-01
      2.3275983631042141e-01 1.1308347279598155e-01
      9.6035096227209249e-01 -8.9758077460558883e-01
      1.5112775257579644e-01 -5.4231558558737292e-02
      -1.4919527633670465e-01 -3.5011666402944031e-01
      -1.1255156503433948e-01 2.7833709606574775e-01
      -5.7956339490542741e-02 -3.0816705013816753e-02
      -9.9195180422987986e-02 9.1889503447357343e-03
      1.8671490585380923e-01 1.9566746063293561e-02
      8.4747453701339195e-02 3.1311190731900967e-01
      -5.7470035611881620e-01 -3.9879041314903979e-01
      8.8846570104791217e-02 -1.5391705474475839e-01
      7.5682534212134625e-02 1.4306995490180516e-01
      5.4998742861995664e-01 -6.4893575423300986e-02
      -3.0787220138524557e-01 -5.0528473596312087e-02
      1.3803075466518716e-01 -2.0955915640895880e-02
      8.7907607833514576e-02 3.4903322487615213e-01
      -3.9968448458043493e-01 -2.3201283080011673e-01
      -7.1450467310527219e-02 1.6665968590989902e-01
      -1.6493428322751988e-01 3.0165124271654231e-01
      3.8883628323381270e-01 -7.3793731362493106e-02
      -3.3161166900987260e-01 4.6929516601889354e-01
      -4.0330241965323366e-02 -2.5048621387446629e-01
      -4.5705302441151047e-01 -9.9096236635083335e-01
      3.9525828649283321e+00 2.1982808508891569e-01
      1.6491875131267728e-01 -6.1503594124875098e-02
      -5.0778241997851657e-03 -2.1107156528605575e-01
      -2.9761385101708493e-01 2.2705044044187686e-01
      6.2868247385037121e-03 -1.0399054077313359e-01
      3.6424241059108681e-01 -1.1171348218187793e-01
      -7.4344663534683261e-02 4.3629745657747004e-01
      1.7966936940137681e+00 1.5322333564154572e-01
      -1.4176373192265329e-01 -4.4377142965501520e-02
      -5.2186152761174817e-02 1.9371846700912954e-01
      1.2823175151965921e-01 1.7751998629649865e-01
      8.4588993963101058e-02 -4.4460571073423827e-02
      -1.2031167669216731e-02 -1.7891849144725605e-01
      1.8151509840677926e-01 -3.3272296178706617e-01
      1.8105313932529202e-01 -2.4701023317679172e-01
      -4.8935770358632724e-01 1.1135801752856270e-01
      -3.3105482480833122e-02 -1.1588763454233339e-01
      -2.8028087954698060e-02 -1.0865646649612988e-02
      -2.8256530962396588e-02 -4.5946589986601116e-02
      4.7381777842874104e-02 -1.2338997247863182e-02
      6.4482700583730348e-05 5.8660175025603209e-02
      -2.0604132777715528e-02 8.4852535444529219e-03
      2.7722088607348379e-02 -7.0680079589312810e-03
      -4.1831812601907457e-02 -6.1502654005754137e-02
      6.1739404055168201e-02 4.4243376122419777e-02
      9.6898826958284716e-03 2.0403043395114867e-02
      -1.4752270871936301e-02 -2.4265067040677444e-03
      4.0391164217311218e-02 2.6091294769566887e-02
      3.7317174060598972e-02 -3.7038563576631336e-02
      9.3118432264626717e-03 6.3639264550757760e-02
      -3.2776028496432220e-02 -3.9279829126344347e-02
      -1.4703913303329671e-02 -3.0250399911891046e-02
      3.5525172336530228e-02 -3.5340148958849127e-02
      -5.1579700160286686e-02 -3.5461724592858915e-02
      -2.4727158119338531e-02 6.8329275919189789e-02
      2.1932625064371155e-02 2.8390028496727296e-02
      5.5897159258284618e-02 5.3831377698061516e-03
      6.1186837555071448e-02 2.4453241066954651e-02
      -2.8855298265801844e-02 -6.1574538062067969e-03
      -2.8998269584453812e-02 -5.4886039687431151e-02
      -2.0539815377220390e-02 -8.2284735301830485e-03
      2.1289303284209585e-02 -5.7585465436346066e-02
      -8.9039044412591289e-03 3.1080568395409820e-03
      -6.6712254882700592e-02 -5.2397078217291899e-02
      5.7152031950211186e-02 -8.3643766593610325e-03
      -4.4828951251626836e-02 6.8501229302157934e-02
      6.1824226737256342e-02 -1.2925223092868213e-02
      -6.3890511816225723e-02 -5.3222841070340109e-02
      -2.2688187564122081e-02 1.6789049813819897e-02
      2.4466441932820892e-02 4.1245714645754029e-02
      -5.0123329627584770e-02 -5.7148196785752434e-02
      -5.5773714932041522e-02 -6.3318839960109188e-02
      -3.3078021847272397e-02 3.9292158380153173e-02
      1.2611443228944667e-02 6.4977880568369241e-03
      6.9396363485942206e-02 -3.9646441567194282e-02
      1.1323080924039945e-02 1.2392969037200260e-02
      3.9937160644319229e-03 -3.0593398029764393e-02
      2.0915219202127029e-02 5.3232552938010887e-02
      1.0776897712347251e-02 4.5378287900496840e-02
      2.3481532970677770e-02 -3.6830584931953132e-02
      -2.3792241507175221e-02 4.1339206840540405e-02
      4.2686811575516431e-02 -5.0038203208327824e-02
      1.7235492999884670e-02 -5.5293998198313585e-02
      4.9668362947603156e-02 2.0937373852319759e-02
      -1.9645869406996357e-02 -4.3620110678605273e-02
      -6.6037635081975299e-02 -4.5080316845688362e-02
      4.8921293125521383e-02 -6.2577981861883555e-02
      -2.4408440959715071e-02 -2.6123509552264012e-02
      -4.6306864507483295e-02 -7.3722342708208599e-02
      -5.6045379129864660e-02 -1.7014695538076410e-02
      -6.1362130381239569e-02 -4.5088628554995770e-02
      -4.2311135838381558e-02 3.7885866179021482e-02
      -5.1253470325534511e-02 4.4989139609367124e-02
      -1.0785243920826545e-02 -2.0227309315830486e-02
      -2.9259819676489829e-02 6.2401535760816168e-02
      6.7653742163563041e-02 4.1214046124199898e-02
      2.6803939358067654e-02 -4.2979168161703371e-02
      2.5781301765902369e-02 3.4062424592928991e-02
      -3.8876285167984337e-03 -5.8796149752652169e-02
      -4.6562040399436566e-02 -4.5223456332844907e-02
      5.7991932908000275e-02 1.4504737046212319e-02
      -1.8200222470007868e-02 -6.7643348921078469e-02
      -5.5383194259450368e-02 -3.8587539940583927e-02
      -6.9500349255858948e-02 -5.1915959514156534e-02
      -3.0036023111616458e-02 -1.0901283994316747e-03
      -6.2782714704112078e-02 -1.4064694804003472e-02
      1.2213659897637190e-02 3.6770937071218722e-02
      6.3777847424120807e-02 2.8732756464972826e-02
      -5.9981401607995546e-02 4.9595272386809596e-03
      7.0505236095592491e-02 3.4424443758550555e-02
      -3.2991281583784109e-02 -1.3623003130240055e-02
      3.0139872152234820e-02 3.9204712288598131e-03
      -2.6260188655390947e-02 -3.2965311984044239e-02
      4.8481181255348629e-02 6.1594284325897287e-02
      -7.2997477272790059e-02 6.0979394082699152e-02
      4.9962113439785329e-02 -3.3918296771747493e-02
      2.2482577247878836e-02 -2.8556476024992040e-03
      5.4743865366932813e-02 3.6747695789569802e-02
      3.3567873182578862e-03 1.8298330801799836e-02
      -5.7364132414642006e-02 2.4396200148274465e-02
      2.3497058034215056e-02 5.3232449223225932e-02
      2.9391354224338664e-02 -6.0158427338586624e-02
      -6.0015710068070389e-02 2.2962782352891998e-02
      2.3248669005894221e-03 -5.1626050076117279e-02
      -4.5320695230532747e-02 3.5675714475211680e-02
      -4.7167328448348103e-02 2.6378851037173450e-02
      1.5164778578581679e-02 -3.2703667872374692e-02
      4.3374659472589255e-02 1.6271164643416231e-02
      5.3026492600423282e-02 1.9137482606453787e-02
      -9.3933264873980911e-03 -4.9754969581235195e-02
      -1.6366384933195297e-02 8.1699549733108886e-03
      -3.2754579411581518e-02 -2.0498910857494952e-02
      9.4881628610861135e-03 -2.5036116087247970e-02
      1.6826220313819445e-02 6.6105791147091485e-03
      3.5990349739340739e-02 1.8543905008313002e-02
      -4.5144261584814049e-02 3.8872046980121429e-02
      -1.6735405240370562e-02 -6.8108766159174883e-02
      -6.4158344410136042e-02 5.9133917613678061e-02
      1.4772188568196690e-02 5.4980991659886833e-02
      5.4220697376474690e-02 6.7816171860701074e-02
      -4.0522088777719664e-02 -1.7625569788334027e-02
      -7.0969447015180057e-02 2.0931744420676728e-02
      4.4820539283424499e-02 1.9281736313692403e-02
      1.9998867215968226e-02 -6.3070662990324183e-02
      5.9597870531537145e-02 4.0443121360882045e-02
      -1.7415510898417041e-02 -3.4724812918387922e-02
      -7.7583138862393680e-02 -1.6499925181904379e-03
      -7.7420151471034815e-02 1.7215825911586245e-02
      9.9954636256709611e-02 -7.1497995417688753e-02
      2.2051464710592109e-01 2.2091471090375425e-01
      -1.1353422635167811e-01 2.5908880409003565e-01
      2.8241868238202187e-02 -3.1066232520590198e-01
      7.4219407573891047e-02 -1.7674374442013929e-01
      -9.3958346678146135e-02 -9.9756628946881962e-02
      1.2156338632343933e-01 -1.3624395210661253e-01
      -1.0232685826026627e-01 -1.9594907111870452e-01
      -2.1313870584201944e-01 2.5024423121606554e-01
      2.2174465232815643e-01 -6.5786801142701398e-02
      -2.3215169054451704e-02 -3.9017855408385684e-02
      -2.1615965126979206e-02 -5.4489060072810333e-02
      5.6692459927902714e-02 -1.7343723762737559e-01
      3.2358875802373253e-02 -5.4326440225300553e-02
      1.0036330795334811e-01 -9.8602036239946650e-02
      1.5416466444984100e-01 2.4765330539092658e-02
      -2.2862659117311845e-02 -3.9864761485164789e-02
      1.2141095972594022e-01 3.9074465061717184e-01
      -1.9151332322524747e-02 5.2727020684720433e-02
      -9.5992714496061490e-02 -3.6988282717193900e-03
      2.6685313665886109e-02 6.1115888610412665e-02
      -1.3869146779533037e-01 6.3660300013336987e-02
      4.0173232270871946e-02 1.4249995721094066e-01
      -4.4710117187241266e-01 8.6966237831491398e-03
      -2.2148546486554091e-01 -1.6286721169786744e-01
      2.1275296648686362e-01 -4.2914680203445896e-02
      -1.3578812392993295e-01 -9.9010504829878124e-02
      -2.6219790290409778e-01 -1.1442795865815510e-01
      -7.0512996229213837e-02 1.1621979247766226e-01
      6.6604117553425241e-02 8.9933748751526002e-02
      -1.1370334098478345e-02 -8.5402475405307363e-02
      1.8203694438565654e-01 -9.1475094759524450e-02
      2.0859533607144262e-01 -1.6878508716990578e-01
      6.1236470222923285e-02 -8.0972909387750147e-02
      2.1847759298950772e-01 -3.1278066518110770e-01
      -9.9427215790827250e-02 1.2963790284678467e-01
      1.2268405359804546e-01 1.6258240238655942e-02
      -8.3663887937842820e-03 -1.2092016880601959e-01
      -5.6385546634338347e-02 2.0271392899158933e-01
      6.9685295233207795e-02 -1.6753263012841585e-01
      -6.8462407909628736e-02 9.2936941878963439e-02
      5.3617430416608512e-02 3.0938039637343158e-02
      -3.2969520394416313e-01 5.2928050250867248e-02
      -8.0096212581433332e-02 6.5038881061995457e-02
      -8.0102569329015355e-02 -6.7228604103417564e-02
      7.8787346706711128e-02 9.0707659770109694e-02
      -1.9300496002767187e-01 -8.0739956442597544e-02
      -1.3822714058053714e-01 -1.0288382756186053e-01
      3.4237743003636728e-01 3.7508410747444176e-01
      1.6576243817243735e-01 -6.0304409222459769e-02
      8.7614560612001256e-03 -2.0018882649055408e-01
      -6.3258568900707274e-02 -2.3029744906849894e-01
      1.9154703994549889e-02 1.0205518729130118e-02
      1.3487997171799793e-01 3.4702573910581756e-02
      4.5240765177165611e-02 -1.8907198591996238e-01
      7.6573406675195299e-02 4.0854070074097804e-02
      2.2560796668520618e-02 1.1062953005094277e-01
      2.1925365996752022e-01 -7.0920094643197062e-01
      8.6497647680854294e-03 5.5155520891448817e-02
      2.2577521729686896e+00 1.4562355298438198e-01
      -2.7373443221556598e-01 -6.2600163653982674e-02
      4.5355403059238898e-03 1.4090951160341328e-01
      1.5099705047946968e-01 -1.0249323130508947e-01
      -4.1198110902631674e-02 -7.0432814983241165e-02
      7.7175175389433637e-02 -1.3865636880713264e-01
      2.2926599029132486e-01 2.7876061551477782e-01
      1.7353373593258128e-01 -1.6545252817340894e-01
      -1.0886706312179363e-01 -3.9668470141821338e-01
      -3.6672985467176247e-02 5.2085649340685457e-02
      4.5834859047543045e-02 2.3576376078648181e-01
      -3.5201326225541330e-01 1.3524621704317957e-01
      6.7774263335141527e-02 -3.2718595219222928e-02
      -1.1086609127258694e-01 2.9337066498383457e-01
      1.3574174469206888e-02 -6.5311918195647620e-02
      6.9324462377403639e-03 5.5589606586188209e-02
      -6.8026355254690057e-02 -1.8174044394340037e-02
      1.3909741846819290e-01 2.0684010138726176e-03
      6.5365258419585223e-02 -2.6086553289124420e-01
      2.9097652891608222e-01 7.6562323398706861e-02
      -8.4752032986983680e-02 -5.1577864313270223e-02
      -7.1534806930474523e-02 -2.6211795566740687e-01
      -1.7605849314751149e-01 1.0482857485057472e-01
      -5.1348070203815953e-02 8.5473066163026981e-02
      7.7983246877432896e-02 1.5396363839172475e-01
      1.5646757309038578e-01 -1.5109371843941971e-01
      -8.4668898499802359e-02 -1.4315826197410227e-02
      -3.0121637613219261e-03 5.8142165425967719e-03
      -7.0891854355936576e-02 -1.3027932763176681e-02
      1.7123568026784233e-01 8.6038411429284908e-02
      6.7149073055636369e-03 -1.6469979494602749e-01
      -1.6163547636780051e-01 1.0983623684869351e-01
      1.0439048182936182e-01 -1.4846466728393701e-01
      3.7545020436832460e-01 -3.8348698294843706e-02
      1.8119670989944239e-01 1.1646051666545627e-01
      2.7896923124188705e-02 -1.9215918953129098e-02
      2.2416131089647063e-02 -2.4518131693029796e-01
      7.4624751001236639e-02 -2.9923214729205304e-02
      -4.0481640683761803e-02 -5.0419254491237797e-02
      6.4907122629662140e-02 7.7662315802508389e-02
      5.7391147294792333e-01 -6.2126729168740742e-02
      -1.4852845018863969e-02 -8.8270670838938858e-02
      -2.2091309007816616e-03 3.9415613324004983e-01
      3.0312195178945028e-01 1.2582587167707104e-01
      1.0021481451106348e-01 -3.1690322335313603e-02
      1.6992138523605654e-01 1.9042483775846208e-01
      -9.9859363578527954e-02 7.4499049162538647e-02
      -4.3429854699544281e-02 6.1870932073074598e-02
      9.4661281606742032e-02 3.4216219229710750e-02
      2.0473782878943822e-01 7.2129301400488385e-02
      -2.7816398664764547e-01 -2.6900996289014367e-01
      2.1851934924236516e-01 -3.6716458772806948e-01
      -2.5989123397093072e-01 5.3284817233926962e-01
      -3.9708517322391262e-01 -4.6651712371504322e-01
      1.2802091016207065e-01 2.5610839434787985e-01
      -1.0079447604866683e-02 2.9754112712348524e-01
      4.6160668319762016e-01 -2.6859478591777364e-01
      -3.0407668834940021e-01 -5.3739063882047466e-02
      -5.2665509444338598e-01 -3.3367535809462417e-01
      2.0704058006287655e-02 2.6362328747021702e-02
      -9.2474995508319460e-02 6.3798668114819146e-01
      -1.4907974828656265e-01 2.2313730105060194e-02
      -1.6288127684476733e-01 1.0219708132480157e-01
      -4.5843773253362981e-02 2.0528216018241596e-01
      3.3071501433559652e-01 4.3853323504824759e-01
      2.3194974738524429e-01 -1.5705256344712381e-02
      8.4280312518913580e-01 -5.1169866852819629e-02
      1.5942217822478311e-01 4.6304034278153744e-01
      2.7158249676398943e-01 -6.8482344757892155e-01
      -3.0100724709318122e-01 2.8380246813179100e-01
      1.0102797677614701e-02 -2.2433322778679501e-01
      -5.5671525400444233e-01 9.2087961229059545e-01
      5.2358697143771532e-02 -2.1715237201154863e-01
      -1.1469687954262455e-02 4.6636005164723987e-01
      9.5984458409537476e-01 -5.1241698926961414e-03
      -4.9207423562827324e-01 -9.0352090774436322e-01
      -1.9218716858579350e-02 1.2128167679123351e-01
      4.9094534659264713e-03 2.2050617195519032e-01
      -3.6520043505182914e-01 1.8940004004503003e-01
      -3.1053450731759319e-01 2.5041559724988177e-01
      3.0410427978633792e-01 6.4547557434104494e-02
      -3.9593327393656341e-02 2.3879133965363139e-01
      4.7954759803066965e-01 -6.5037723493181321e-01
      2.9618719216793987e-01 -3.9535077084343208e-02
      -5.4589085029118356e-01 3.0297045242123438e-01
      -9.3858604290270806e-03 1.8700484843454035e-01
      1.3971848744005089e-01 -2.1050016336007399e-01
      1.1841319865159348e+00 1.6036948762723746e-01
      4.2260546194141385e-01 4.4588363842126616e-01
      6.6255062171370512e-03 9.1638685606009809e-03
      5.9190102395412736e-01 1.4638800323049761e-01
      1.6316847885313029e-01 -6.1644628204382457e-01
      5.3803709347645258e-02 -2.3472943902860030e-01
      -1.1661625211111236e-01 -4.0135132522296268e-01
      -2.8417478729945117e-01 -5.0067429571863431e-01
      -9.3366955734215329e-01 -3.6300134144438023e-01
      -8.0936896481354718e-03 1.8972727198740061e-01
      6.0740593502981921e-01 6.5834605065130136e-01
      -1.9609165459560057e-01 6.0567301816266594e-01
      1.4827470743872295e+00 -7.1680965978833971e-02
      1.1114293620637893e-01 5.2191561712428343e-02
      -2.9603404879859302e-01 -3.6406666217447753e-01
      -1.1928699023130195e-01 -4.5462141349488844e-01
      1.7343349655827006e-01 -5.2522248152495010e-01
      -2.2561506357131544e-01 7.6793604482276345e-02
      -2.2433237427040589e-01 -7.6054700743463555e-01
      1.1971032959305154e-01 -2.6201118054448286e-01
      8.1893652368291311e-02 5.1595371011893598e-01
      8.8004410767278343e-02 1.1092718494565179e+00
      6.8876552771673705e-02 -1.4747717724976928e-01
      -1.0163365446520083e+00 6.4349729100663623e-03
      -1.4339152536500488e-01 -2.1603691374261982e-01
      -1.3293513434249681e-02 -3.6334919013615810e-02
      -3.3327913459218497e-02 -2.3911312128446824e-01
      -1.6457337123391071e-02 -1.0687684699293985e-01
      -7.1805016110991632e-02 8.8877346269444213e-02
      2.5560991246955622e-01 3.8367402955334401e-01
      -1.5259816033564158e-01 -4.6648189708577514e-01
      1.0605640088670477e-01 -1.2962137751592396e-03
      2.2041757943571061e-01 2.1722364701486790e-02
      -3.5620142567786794e-01 -4.5119903569220277e-01
      -4.8390976408210112e-01 8.8625685190795334e-01
      -5.4036381831928404e-01 -4.7339007042397713e-01
      4.7952824436737806e-01 5.6885522211603791e-02
      1.0072343914668386e-01 -5.8899121895322681e-01
      1.3179328296801807e-01 1.4783596335301161e-01
      -7.7813443889027917e-02 2.1984927088214617e-01
      3.8292319310278189e-01 4.8346134108031333e-02
      5.3922712566590447e-01 -5.4054982150937469e-01
      -9.3260479836854496e-02 3.6203364258659176e-01
      1.5398261599599844e-01 -4.1779607762158832e-01
      1.6026439496335770e-01 -2.9820035471317891e-01
      7.1314253046933285e-01 8.8586072675792632e-02
      -3.7594655921740255e-01 -9.8779726347036378e-01
      3.3625147482653006e-01 1.0103641185699773e-02
      6.5347310250562299e-02 -1.9398580293208678e-01
      4.5003885962295337e-01 2.8203127177737286e-01
      -2.7279135717267428e-01 -1.2323478589526309e-01
      -1.5488222656327744e-01 2.6525554957970909e-01
      5.0572023819376688e-01 -8.5091545748761602e-03
      -4.5401601142212172e-02 -7.2401490096191306e-03
      1.0330759010599799e-01 5.2725964255535773e-01
      8.8463932117616426e-02 1.2780379825549188e+00
      -2.4158210134171329e-01 -2.0718443153037308e-01
      2.3850990545547245e-02 2.1562988079336445e-02
      -3.9216319848312503e-01 -1.5415015290385489e-01
      -2.0829771937003725e-02 -1.2073231605733913e-01
      -1.7986111377684124e-03 -5.7318079822826849e-02
      1.6277602074205622e-01 3.0296928809429546e-01
      2.7713339095917872e-01 -2.3719109679106959e-01
      -1.6936348227321414e+00 -6.6502608489060788e-01
      1.7987233946116202e-01 3.2403273321415649e-01
      4.8263624644064107e-01 -1.7309128248188971e-01
      1.3866577547837108e-01 -1.2824821024958594e-01
      6.5923107346294474e-01 4.1085837404082037e-01
      2.8368664161114049e-01 2.8328655056109653e-01
      -2.0635940380039239e-01 8.7436357009761922e-01
      -2.6818274671668618e-01 3.3207725177292324e-01
      5.6238521733589328e-02 -2.6530810554119943e-02
      -4.2229182480008925e-02 1.8985481121458617e-01
      -1.3671597055147432e-03 -1.3339744527291972e-01
      3.1309284951810623e-02 2.8260856505054237e-03
      3.9065245981922181e-02 -8.8948840454796160e-02
      8.3050858459371213e-02 1.0900236428832571e-01
      2.4952450088347311e-01 -1.2050192141899878e-01
      6.8195827717709198e-02 -5.0352934933187909e-01
      -1.8581676528902380e-01 1.4808727403267055e-01
      -2.4694538050037942e-01 6.2831252950284300e-02
      -2.2200822163145551e-02 6.7810271283248222e-02
      2.7375474632891032e-02 1.7170244515697614e-01
      -8.7067299700359715e-02 3.8176111225204999e-02
      2.1272752977725917e-02 2.6367172279790152e-01
      5.2894683757848192e-02 -1.5278801704456463e-01
      5.0066469599051320e-03 -1.8117429798776230e-01
      6.4645907774270081e-02 -7.9690796478330175e-02
      4.6998235264633308e-02 -3.4507364317704597e-02
      8.6214592352928802e-04 -2.8995977033862724e-01
      -1.5879527815365477e-01 -2.0825491762226501e-03
      3.4145212001890420e-02 4.3762420609297636e-01
      -1.3361697354926103e-01 1.0541304246912478e-01
      -1.6299324330702497e-02 -2.9500505654692075e-02
      2.8067344988724052e-01 -7.9700960180235508e-02
      1.6565933184845066e-01 -2.3602818901079188e-02
      -1.8060742343776796e-03 -1.4718864292050723e-01
      -3.3295730442136889e-01 6.9240558265636173e-02
      2.4449383021146040e-01 1.5232276137903808e-01
      -9.0667676854222196e-02 -1.2292502515777350e-01
      -8.9853039296366843e-02 -2.8512522806685386e-01
      -1.8448425291337042e-01 -1.3196251793637978e-01
      -1.5436255861360315e-01 -2.9109571423581299e-02
      -9.8510283144268768e-02 -2.0499425750812986e-01
      -8.8931966079254369e-04 1.7371098954137246e-01
      -6.4141338955603089e-02 -4.5940264111369457e-02
      2.6241620096028268e-01 4.4829121872608006e-02
      8.6763847921985285e-02 -1.2191915689140082e-01
      6.0728420394781643e-02 3.4029266199984959e-01
      1.8717830629071397e-01 -2.9716998304904676e-02
      2.5188556434352910e-01 1.0982437516812775e-01
      1.2509234673414121e-01 2.7656006107975367e-01
      1.5876273639611915e-01 1.0473779609452978e-02
      -1.3149834846230050e-02 8.2528587206212589e-02
      -1.7736754141455854e-01 -1.7146674708042018e+00
      -7.0087375411885438e-03 -1.4700440112537492e-03
      1.1856841386664642e-01 -2.1441394065341038e-01
      -2.1198562824368102e-02 9.4260199737347491e-02
      -1.4674552009522679e-01 -2.5975554689395070e-01
      2.5373002578694778e-02 -5.1272288083822899e-02
      -1.3602795431230871e-01 9.3236864043076906e-02
      -1.4129284812774534e-01 -3.9832854386542088e-01
      -2.8979821202453704e-01 -1.5152088659221705e-01
      2.3131407734440002e-01 -7.3251412826521603e-02
      -6.6632875048537515e-02 -5.7700360955036924e-02
      1.6686297990751772e-01 7.4974789628845892e-02
      -8.2053485639694154e-02 1.3238142212924317e-02
      5.5764970955933288e-02 -1.8331502204227312e-01
      3.2426247399155783e-01 1.3368195300607036e-01
      1.3745646499435765e-01 1.7176547451541213e-01
      2.5320016187365213e-01 -1.4995073750347124e-01
      5.6647711987992115e-02 4.0254810887474360e-02
      1.1139023130223760e-01 2.3752395557901079e-01
      2.8493571926209754e-01 -1.8549948932816585e-02
      -8.5144213303559813e-02 -2.2824604570071353e-02
      -1.7702238034300266e-01 1.1727537800143670e-01
      6.4095483640133358e-02 -1.4762317937684116e-01
      1.3319278940393012e-01 -1.1947862794934577e-01
      -6.2040049941440717e-03 -1.9291781126406662e-01
      7.7516481042604293e-02 1.1564231479154490e-01
      1.3382777399657167e-01 2.6357321102261281e-03
      -2.2345797367404771e-01 5.0222392749768230e-01
      3.0025684639825762e-01 -9.9306942478595950e-02
      2.2923030142631162e-01 2.4255085706925500e-01
      -1.4589809931814149e-01 -2.0545032019359585e-01
      -1.1280389834403516e-03 -1.1244633096300553e-01
      -3.1082442466752491e-01 1.8654896692500672e-01
      1.1141676270818381e-01 -2.5124860149193484e-01
      2.9960240451504449e-03 4.6753624961477482e-02
      -6.9128714570169281e-02 1.9692876632249921e-02
      1.0914159108867195e-01 -1.8097346876955481e-01
      1.1202304520909462e-01 -3.1067092172913557e-01
      -1.5397139163607360e-01 5.0114862599856475e-03
      -8.5403513055746699e-02 2.8879835763221378e-02
      1.0105207159916500e-01 4.8326687425931332e-02
      3.8894110536639304e-01 2.2232973554239421e-01
      4.1617833612461914e-02 -9.0386871179598260e-01
      1.6396929503309503e-02 -1.2007123304376371e-01
      3.4316244729025044e-02 -9.6116234520230936e-02
      1.2052770042909260e-01 -6.0957384324165018e-02
      1.7719468883674519e-01 7.9917176957598965e-03
      7.0350934418665675e-02 -7.5797704075794475e-02
      1.3971935539569624e-01 -1.8443892947741311e-01
      -1.8551227133730502e-01 2.4034107912256394e-01
      9.6033730583648655e-02 1.8223306030688499e-01
      1.1657033430768066e-02 2.9159370521478650e-01
      2.5517101170866208e-03 -9.1305376334983077e-02
      2.0041223768632474e-01 1.0020081693104872e-01
      -6.0622985149069407e-02 1.7218246141302149e-01
      1.4162821642514326e-02 2.8479229635087228e-01
      8.3644831776252648e-02 -1.0913559375379210e-01
      -6.4425947430570257e-02 2.3461323027676473e-01
      7.6636253193861387e-02 -6.9575535364482008e-02
      1.8065288402936569e-01 -1.4294680714193553e-01
      1.3795770355104517e-01 -1.7086990885101050e-01
      1.3907158100972974e-01 1.2826616062176774e-01
      -2.2431043701548387e-01 1.0619979534016113e-01
      -5.9495684022210331e-02 1.6210687192995965e-01
      -7.7721165106037576e-02 -9.7703479272932742e-02
      -9.5710106387661503e-02 -2.0916183296892790e-02
      -7.7653877976705019e-02 -2.5219024510287121e-02
      -2.8273315361550133e-01 -2.4805679014481313e-01
      -1.8535046443111619e-01 4.9866812908334066e-03
      -3.7444292510423398e-03 -1.9046270540159671e-01
      1.5480304240611067e-01 -1.4196317515014464e-01
      2.2670944714645487e-02 2.1856375122246091e-01
      -3.4281230689848780e-01 -1.2528759814688148e-01
      8.6700130287719307e-02 1.0584913034036321e-01
      1.4705615296776242e-01 -6.1795657130387105e-01
      6.1352196080207096e-02 -1.3847060804422825e-01
      -5.8040202804375003e-02 1.1244693742828649e-01
      -2.0405709829459728e-01 -1.9232280028369006e-01
      7.5281737044109440e-02 7.6085927084678746e-03
      -6.6256311807094598e-02 1.8227555227687273e-01
      4.4225786562710721e-02 1.0988992101307009e-01
      -1.7983503759077862e-01 -1.4797087714539842e-01
      -1.9616628047817478e-01 7.3310728132778988e-02
      2.2187608687925710e-02 1.8676870906832624e-01
      1.8765379340269187e-01 8.1323577853199047e-02
      9.8102194369742796e-02 -1.9122852506079963e-01
      -8.3890199745707426e-05 1.0804071477305914e-01
      3.5007851543336972e-02 -2.1642174326946878e-01
      -1.9416858039737175e-01 1.6789513023762345e-01
      -1.7019616548133923e-01 -1.9359840203419562e-01
      -2.1639846380447209e-01 -2.7487713305120037e-01
      2.3610741375457164e-01 3.0543436874423447e-02
      -5.1334231509113419e-02 2.1078526115127422e-01
      -4.4502622820999099e-01 -1.2160871979138139e-01
      -1.7541351030786259e-01 2.6862328429554289e-01
      8.5324327042426498e-02 4.9176131755579555e-02
      6.3452825795608653e-03 5.2835355880198739e-03
      -1.6733452315059011e-01 -4.8686900655950209e-02
      -2.6411369141404933e-01 -1.2167051441789332e-01
      1.9451484206895428e-01 -1.2859292980571124e-01
      3.4690624721485319e-02 -1.0196371265694521e-02
      3.0242118925558009e-01 -3.1538754363173183e-01
      6.8049561187576730e-03 -1.6478281386952642e-01
      -3.7756180586078930e-01 9.1947099320537240e-02
      5.5375859473349054e-02 3.4529894443454173e-01
      -3.8994155613207584e-02 1.5730680476052294e-01
      7.3900932295073418e-01 2.2389214478551764e-01
      1.8244439069085605e-01 2.7016553411529032e-01
      2.4223412261293073e-01 1.8023609807971283e-02
      1.3753841838184097e-01 3.3873700864253303e-01
      3.4414828334286711e-02 -3.7966239623365799e-01
      9.0398910137359956e-02 -1.4465515910492935e-01
      9.3385457187978638e-02 -1.4269383489821419e-01
      -2.7589730207462276e-01 -1.4729312414572160e-01
      2.3821353563038106e-01 -1.4856216278982859e-01
      8.7760946626266712e-02 -5.0433285126363997e-02
      3.1699776271776720e-01 3.7091795441287678e-01
      -2.8897245227344553e-01 4.6371852499208932e-01
      1.5984112891807953e+00 2.4684350053402468e-01
      6.7016786214018215e-02 -1.1940881279030847e-02
      -1.7318902153660090e-01 -2.6760527394946182e-01
      7.0057505801703349e-02 -1.8314875479552245e-01
      2.6776030099260067e-01 -2.2913902320958468e-01
      2.2786035132841212e-01 -6.4212218454390152e-02
      8.9887197568822158e-03 -5.8100227106541713e-01
      9.6549905560763399e-02 1.7768805818383519e-02
      2.1557208154929495e-03 1.9828552034765032e-01
      6.9037158879990235e-02 5.1809647539679093e-01
      1.3243632203305394e-01 -9.2816297375502080e-03
      -1.9992380548255446e+00 -2.1762555557355040e-02
      -6.6793501913611525e-02 -2.5184923009451327e-01
      -7.5968791506387497e-03 -6.1714285328234295e-02
      -1.1295580951182298e-01 -1.3870920634650577e-01
      2.0434160697099307e-01 -9.1498018829999483e-03
      1.3471070863540173e-02 -4.0560233825589403e-02
      6.8227662581093168e-02 2.7874884051392529e-01
      1.3504202948796069e-02 4.8804533243645996e-02
      1.0082152622352031e-01 1.1919313475342150e-01
      2.3212531369748754e-01 2.8695795844466864e-02
      2.4587361614380993e-02 -1.4139296367047588e-01
      -1.3460490577780140e-01 -5.8405912612738997e-01
      -1.5440787591456581e-01 -1.9574964507798487e-01
      5.2035306771671492e-03 1.2324110070154126e-01
      2.0178037023617018e-01 -2.0710687513796075e-01
      1.1765003692412731e-02 2.9997710012134438e-01
      8.1413640748417282e-03 3.6548948435572992e-02
      1.4097839985289029e-01 -1.1450457177851905e-01
      1.7592121176808184e-01 -1.7735788537685265e-01
      -1.8211010141332554e-01 2.1008346527251284e-01
      6.7172909778711751e-02 -1.1865039433166329e-01
      2.1286557184371677e-01 -1.3302159502798128e-01
      2.9653810874844977e-01 2.1566529737936803e-02
      -1.0207556837677910e-01 5.5631119248429832e-02
      2.8586025991873220e-02 -1.1123086302832250e-01
      -2.5760561379680965e-02 -1.3244781802189316e-02
      -3.5281255439465871e-02 1.0061487373271774e-01
      -5.4595630936565116e-02 8.7674897096560581e-02
      1.1010362250625476e-01 -3.5047124722318516e-02
      1.7270660493108356e-01 1.9040945478974050e-03
      -4.9886360312759122e-02 1.4158842107154596e-01
      -7.3305788704864832e-03 1.9086168922970104e-01
      -1.3728220182986378e-01 4.8349673680493888e-01
      2.0322656638751568e+00 -2.7446071464839311e-01
      1.0058253295144068e-01 1.0012108431612605e-01
      -2.0870047603404562e-01 -6.1848585179575727e-02
      1.3613083731714345e-01 2.5904718933331738e-01
      1.0010507015924430e-01 1.3479388649956714e-01
      2.1204078742609659e-02 8.8760033460373380e-02
      2.5310670011941860e-01 -7.4267421460833677e-02
      -1.4136041984337906e+00 -2.4766132012704553e-01
      1.8875466657521658e-01 1.1678744831567169e-01
      8.8071818109470068e-02 -4.8859150076585908e-02
      -6.8249261684913631e-02 1.1766081615776969e-01
      2.2181649925048288e-01 1.9729493998709885e-01
      3.4122656934801605e-02 2.1636190173278683e-01
      -3.8945367206411674e-02 5.5790552018585671e-01
      -1.1839594032698296e-01 8.6341188012646841e-02
      -1.5526037035494614e-01 -3.2784658762358469e-02
      -7.5283978422978751e-02 2.7120207406040292e-01
      -1.1170735476163944e-01 8.3284698061872026e-02
      -1.6356421428088525e-01 2.5227785612829196e-01
      -1.9080904180071762e-01 -9.3101705512593266e-02
      1.1606304996186942e-01 -1.2244102765745797e-01
      4.0536706495810419e-02 2.2511065863239380e-01
      8.7785968394244920e-02 2.1988627675851366e-01
      1.4132486397146030e-01 3.6197513015208342e-02
      2.4238078600077036e-02 -8.3764318222044012e-02
      -4.8606117643721358e-03 9.7172165411840511e-02
      2.5096145750028653e-01 -5.0002690170898950e-02
      -3.8302272636432344e-01 -5.2561999287975107e-02
      6.3889281196027020e-02 1.4550151369971689e-01
      -9.0725507210951253e-02 1.3212115725662529e-01
      1.7484385970096103e-01 2.3454053191954796e-01
      4.6817355275233723e-02 -1.5657826674657385e-01
      -1.0104814271712536e-02 -1.5320371427236804e-01
      -2.5701036321052684e-01 6.8772102209630842e-02
      1.3976461640728599e-01 1.9429400130618926e-01
      1.9683011786452267e-01 -2.3977882774151540e-01
      6.7754437295325246e-04 -1.9243676890009348e-01
      1.3038554185114126e-01 2.5715234277055288e-01
      3.0848083812828189e-02 -9.1931000316986727e-02
      -2.3458887895223585e-01 3.1288951985209956e-01
      7.1957034080650465e-04 -2.0419607930726061e-01
      -1.8383631517142698e-01 5.2462297745531343e-02
      4.2645752432082951e-01 -6.2101340985724784e-02
      -4.6938321140825350e-02 2.4718351210463224e-01
      2.1717957761660966e-01 -6.1921625669991084e-02
      1.6712700786968793e-01 1.7285963252097727e-01
      1.6874030985842514e-01 -1.1599483032056978e-02
      -3.4760985319792000e-02 6.5098500991018451e-02
      -3.2478079673344172e-02 1.0430806603241060e-02
      -2.0786476755539526e-01 2.5623858093553686e-01
      -3.3041991627570280e-02 1.5819251677533355e-01
      1.4926974279303104e-01 1.0964457275147013e-01
      -1.7498385853550860e-01 -1.4940238694037331e-01
      -1.9833990461957168e-01 4.8736331437362591e-02
      -1.3842331555617979e-01 -2.0787282134606447e-01
      -9.5527363152001443e-02 -2.7450644853492766e-02
      -2.2982762178811925e-01 -4.5501857664761960e-02
      -5.0246210151528126e-01 -1.3490264476822308e-01
      -2.8395186474143592e-02 1.2629876274328624e+00
      -1.1063727773134870e-01 -4.7087009910185072e-02
      3.2538874612430407e-01 -8.2394248221214512e-03
      1.4694907686071859e-01 2.8413343576994959e-01
      8.7504253744463278e-01 2.4660487355267052e-01
      -1.3554819370485055e-01 2.4611748830864807e-01
      -1.5774790578069123e-01 -2.2551286028121026e-01
      1.2609149656661489e-01 2.1100034846826249e-01
      -5.3365722546751079e-02 -6.7519801266451209e-03
      -1.6837440493936234e-01 2.0241165518753793e-01
      3.0837842095340698e-02 2.7699180923880579e-01
      -1.3047459115583887e-01 2.8564137007177977e-02
      9.6374594659889661e-04 5.0017202587382563e-02
      -7.7809896346792348e-02 6.5252907377753980e-02
      -1.5218430821477633e-01 -2.5776969671796196e-01
      9.4785516531854325e-02 4.8018747271325584e-03
      6.2196901678076198e-02 -2.8064802777059761e-01
      -1.8250430238876716e-01 1.8685913267784662e-01
      2.0336976258693251e-02 2.5451895526104423e-02
      3.1832392730844078e-01 7.7458415790490739e-04
      2.7031949913562303e-01 5.8606189534763271e-02
      -4.2994248297822682e-02 -1.1872043210689949e-01
      3.5714900752513420e-02 5.2811520265474157e-02
      -1.7515453578865300e-01 -1.1987630559247277e-01
      -1.4807403928545756e-01 1.8857953883822234e-01
      -7.0282714617011077e-02 -2.2071211678823480e-01
      -6.2753484287773123e-02 9.9711619429701928e-02
      6.2057073025714692e-02 2.1389191520715006e-01
      -1.3811874468417565e-01 -1.3772731754390607e-01
      -1.4134696585840718e-02 -1.6231430939621383e-01
      5.4743513045530212e-01 5.1762997996453480e-02
      -4.1197425199982443e-02 -7.9694558173700830e-02
      1.9914556460320229e-01 -2.3444962407228662e-01
      6.8200753082613911e-04 2.1650058292855659e-01
      -1.8334464474920351e-02 -8.2591659730381836e-02
      1.1867398647804688e-01 1.8691544438672564e-01
      -8.1049752777577033e-02 1.5434105160589121e-01
      -4.0719188638573722e-01 2.3612799030561579e-01
      1.0987267364162393e-02 -6.1173204993241324e-02
      2.9469888189382459e-01 3.4927932983143839e-01
      -1.8470763142145019e-01 2.5112521252281611e-01
      -2.1292511998194047e-01 -2.3807294561354424e-02
      2.2916634486557524e-01 5.7972986450039288e-02
      -5.9728342858015655e-02 -9.9250280500916416e-02
      -4.7624364040038170e-02 1.7807212477647955e-01
      -6.5040026751360086e-02 3.3981360171663325e-02
      2.2932925953304378e-01 -1.6126922861623927e-01
      -9.3120891371177641e-02 -3.4502238155984487e-02
      -6.9867232513087144e-02 1.2787413588543147e-02
      1.9714670382683069e-01 -3.6146267903635350e-02
      1.7005505223354248e-01 -1.0009415480353014e-01
      -1.8797059951135398e-01 1.6427965005116818e-01
      -5.8373008776610981e-02 1.7270403593463067e-02
      -2.6968437419323266e-01 -1.5245977671459687e-01
      -4.5847587147867540e-02 -2.1823746233495527e-02
      -7.3419124267056473e-03 2.1305958500980643e-01
      -1.9727407790294746e-01 -1.4599101208215867e-01
      1.1881541841187454e-01 2.4568995206883337e-02
      -7.9445513937340367e-02 3.4933255440256501e-02
      4.7104460026897271e-01 -1.1905945501080530e-01
      1.8670594765927279e-02 1.0122389728332429e-01
      -1.3059364676284155e-01 -6.6735822294980951e-01
      -1.9360771640154609e-01 -1.8806194697024917e-01
      -4.6425923568692996e-02 -1.3010280854510401e-02
      2.1962962803044456e-01 -1.7504287435693219e-01
      5.3380684114833765e-02 -4.2371184478715990e-01
      2.1579123773990649e-01 7.7778921286527067e-02
      1.3097793835544341e-01 9.1852093160203572e-03
      -2.3116479305222610e-02 -2.9074880776850054e-01
      -2.5456074495737363e-01 -1.5557089257744608e-01
      1.8661156023130493e-01 6.8805833725315443e-02
      1.8025330164817138e-01 3.2660685763202962e-01
      -2.8810681012233658e-01 2.9391140136665922e-01
      8.5623012193462716e-02 -1.7896702978402582e-01
      -3.4180656740009668e-02 3.0958634986949179e-01
      1.5465347043452773e-01 -9.9133139943051396e-02
      -6.7204225123042333e-02 -8.8019445882235578e-02
      -1.8826505439964403e-01 -1.0699937968774414e-01
      4.9238464396885251e-03 1.3385326621381835e-01
      -1.0363007733517761e-01 -9.3850333717947279e-02
      8.7430467370629900e-02 1.1409076384666103e-01
      -4.7195223231799546e-02 -9.3766406197162200e-02
      -1.1745811013579754e-01 -1.3559047450497907e-01
      1.6706318998658060e-01 1.2437153323269640e-02
      2.7807909713426754e-01 8.5186429781246117e-02
      -2.2302985361500716e-01 -9.5107225023016287e-02
      -1.1185528315062018e-02 1.1337308198335450e-01
      1.4576494368160584e-01 3.4497709551718392e-01
      -1.5541472662250763e-01 5.3337170587912909e-02
      5.9821640676701853e-03 -1.9222715612960406e-01
      4.3393103747100766e-02 -5.7114974622180237e-01
      1.0837256180824073e-01 -1.0954782971208053e-01
      -1.7465752989265454e-01 2.3702800851900494e-02
      -1.0041416583737370e-01 8.2332677397811915e-02
      -1.7645728248359382e-01 -3.2010628255445393e-02
      3.8331540097307398e-01 1.5536176420838908e-02
      6.0796348053239876e-03 -6.5341315135379108e-02
      -3.0816963268517084e-01 -1.0267819499380906e-01
      -2.4082556587267934e-01 -1.2445272183911357e-01
      2.3739166114164434e-01 -5.3942627802452750e-02
      1.7975931698927602e-01 -1.3011902958701541e-01
      3.1914408714467046e-01 -2.8991217423377008e-01
      1.2688314951443605e-02 -2.4810310571361968e-01
      -1.9037565132227993e-01 -1.6073828580551802e-01
      2.3420829994933900e-01 2.7710487543097996e-02
      -2.2116635776546902e-02 -7.3712621806767504e-03
      4.5663185657978655e-01 1.8981438653805960e-01
      2.6520184069181302e-01 1.5620135788368958e-01
      2.4559853306683230e-01 2.0209853370375377e-01
      2.8293845466911466e-01 1.0402398130634904e-01
      -1.2179287884760531e-01 -2.0383001278206119e+00
      -7.0740146271764462e-03 -2.0553624762942760e-01
      -1.0353895316930500e-01 -2.4611191550025235e-01
      -2.3913214496799284e-01 8.1532350545607847e-03
      -5.1360794351138594e-01 -2.4023094886546312e-01
      1.7457464421244229e-01 1.3559937140812686e-02
      1.2975731462379844e-01 1.9968058176497153e-01
      -2.7181128018211931e-01 -1.4392818547753303e-01
      3.2064418015557744e-01 1.4330522064222179e-01
      2.5585247059346977e-01 -2.9760124103182860e-02
      -2.6478191388858729e-01 -2.3847462661213775e-01
      8.3919750895115313e-03 -2.1500266662529671e-01
      2.5916099879961030e-01 -2.2297044256397341e-01
      1.8443263641565125e-01 2.6403571041945487e-03
      1.7891430564486585e-01 -4.3834601698655845e-01
      2.4347577020454238e-02 2.1278945184881357e-01
      6.4835371462539898e-02 2.1055828984316718e-01
      2.1309207987433423e-01 8.6337573092174813e-01
      3.0713529482645795e-02 1.6105967050351125e-01
      1.3492911653737967e+00 1.5105943281235287e-01
      -1.4739201628075868e-01 -2.3651110269174833e-01
      9.9744621060321656e-02 -5.6314458283226648e-02
      -2.2775212820798332e-02 -8.5344526488414910e-02
      -1.9522742372779173e-03 -5.6574399429000562e-02
      -3.9717141531978806e-02 -1.0792431891079288e-01
      1.2834118740193950e-01 3.6583434016118282e-01
      1.0572363764928602e-01 -1.6401804654481500e-01
      -3.5743736610233785e-02 6.5077364114073319e-02
      1.7714617931516777e-01 -5.7584045164672325e-02
      2.7298705987984829e-02 8.4498840836276901e-02
      -2.7275273949556023e-01 -1.6179022922660491e-01
      -6.7415395554210708e-02 -2.7891529550498795e-01
      -1.0105803865187349e-01 1.9028608960244522e-01
      -1.5353430171116209e-02 -2.2497561639766139e-01
      3.4434587696059817e-02 2.1749183645189288e-01
      -4.1618351690416833e-02 3.2629852580654803e-02
      4.1403868295045269e-02 -1.4613035115132592e-01
      3.7938063531835237e-01 -3.2697925738939149e-01
      -5.4588536099503558e-02 1.6965560766024063e-01
      -5.8033342026082853e-02 -4.2327022835430633e-01
      1.1803235916126774e-02 -1.8921590839792490e-01
      1.6806158320291523e-01 -1.4729830620230722e-01
      1.1858466084607448e-02 -4.4078816798629289e-01
      -2.9596433771667454e-02 5.2072428964706319e-02
      -3.0112122164283349e-02 -1.1094913071919422e-01
      5.9463405439561391e-02 2.8944832261966074e-02
      -2.6541739386225355e-01 7.0292273718084011e-02
      -3.9779537061002374e-02 6.9887561953399485e-02
      2.4564352038336421e-01 -1.4465707306812262e-01
      -5.8999187932294375e-02 9.0198309667954460e-02
      3.7740991478372100e-02 2.7209007811546376e-01
      -1.3606069236660601e-01 1.3170046438763134e+00
      3.3692866820214756e-01 -2.4956919097437269e-01
      1.3652833490473798e-01 9.8595530509170609e-02
      -2.6500253951447605e-01 3.8794250187367603e-02
      -7.3268078115622998e-02 1.2736148768366490e-01
      1.6870563266858477e-01 7.1361458890495041e-02
      -4.3015941978115342e-03 1.4315643870664069e-01
      2.3435293981848709e-01 2.1953616507338031e-02
      -5.6976373275770154e-01 -2.0271277792036935e-01
      -5.2220739152182283e-02 -1.6821129265544146e-01
      2.1055488506888012e-01 2.9812952374989160e-01
      1.1625627054670193e-01 3.2347030022953471e-01
      2.8821092958609512e-01 2.1000264625865156e-01
      1.8332683753992141e-01 2.1599958819832890e-01
      2.1131361254874822e-04 2.0572415060083205e-01
      -1.9177995094716801e-05 2.3667645526487063e-01
      -1.1374086143102533e-01 6.3472381129981006e-02
      5.5321863709010696e-02 3.0795074396744371e-01
      4.1688314995336845e-02 9.9939402614018444e-02
      4.0860278189425364e-02 4.3082748546950336e-02
      2.3995172456637282e-02 -6.4116726169690655e-03
      2.3559837867492373e-01 1.3068225209620879e-01
      1.1886975440693252e-01 1.9286403703920714e-02
      -2.1007722243576329e-02 1.4051960766515620e-01
      -7.3078063464945178e-02 6.5757768339246681e-02
      1.1507700219063423e-01 -4.0795069609830648e-02
      1.2974278626967514e-01 4.4394553942112565e-02
      -6.4456294630262090e-02 4.4265338955754982e-03
      1.1374284219599380e-01 7.1114670454567513e-02
      5.2659639408133528e-03 -1.3110579048012649e-01
      4.2652903575454478e-03 -1.1073661175607603e-01
      1.4327689475535507e-01 -6.9293551000205678e-02
      -2.2077632652986653e-01 1.5786195894464863e-01
      -5.9653827404894291e-02 7.1617608383184983e-02
      8.7282010806942756e-02 1.5012613510442552e-01
      3.9973651517283007e-02 -6.4635620813916050e-02
      -5.9085445481683242e-02 2.9149072409266080e-01
      7.6814574493027837e-02 -4.8764162543388369e-02
      -4.8904880946876256e-02 3.6763728397827107e-02
      -1.0513945428129821e-01 -7.2503175473657880e-02
      -1.3667740954964372e-01 -1.3034048288256722e-01
      3.9947579837465171e-02 1.7040983098316806e-01
      3.6921898361347566e-01 -5.3773173301897383e-02
      -3.3363465444230039e-01 -3.3885193494987687e-01
      -2.3725203451827587e-01 4.4927134673322391e-02
      -7.1576156977302893e-02 1.4295630799076273e-01
      8.5138826952304014e-02 1.5833993109164536e-02
      -1.8601976010658780e-01 2.1942377027150514e-01
      7.1733053617885803e-02 8.6012323449011857e-02
      -1.2963908154604467e-01 -7.3934754109253278e-02
      4.0219223120874269e-03 8.8928633471205304e-02
      -2.6465348219344941e-02 -1.9514533654328349e-02
      4.7826497831430524e-02 1.3407400355120747e-01
      -7.9652758369199425e-02 3.9331001829695364e-03
      1.7627679875167904e-01 -2.6832214775596802e-01
      1.8413216906083793e-01 -2.2925002677471346e-01
      -1.1234964818047253e-02 -7.7486780022050228e-02
      -9.4215449167324009e-02 -9.4729415401703293e-02
      2.1529365318990759e-01 -1.6620679389051135e-01
      1.4641521536986749e-01 3.5044004123619538e-01
      1.1629775209248330e-01 1.7069138836770442e-01
      -4.7107545433376627e-02 3.0056451478043724e-02
      1.7285932846831534e-01 3.5128306172180962e-02
      -2.4338888573151501e-01 1.3707700199972911e-01
      -1.4958794219414467e-01 2.7952693388673903e-02
      -1.6173118459700885e-02 1.1736448653586026e-02
      1.2836577789232653e-01 -1.4357745594533830e-01
      -1.1404160659435761e-02 -3.1068688440699085e-02
      8.3533513346432303e-02 -1.9539243712705082e-01
      1.6563391034440955e-01 1.9443165459726620e-02
      -1.4330410452129988e-01 -1.0934682249573657e-03
      5.7214113169624409e-02 2.5032526688172763e-01
      1.4394875164007867e-01 1.0598463640425604e-01
      -1.2824291467161491e-03 -8.2662523014695247e-02
      4.6145345301261721e-02 -2.7706592363440913e-01
      -1.6066672454718112e-01 8.1346809446686957e-02
      -6.4376793558510073e-02 1.7765352859197842e-01
      -1.7042245697359179e-01 -2.9339078424178472e-01
      -1.4834292005715885e-01 2.1376062882545663e-01
      -6.8400874580930313e-03 1.8588933630229967e-01
      6.4073070347130723e-02 2.4264661058449716e-01
      -6.4280679843219210e-02 1.9435101237685254e-01
      -3.9326175320347087e-02 -7.3820809020410660e-02
      -1.8381703382031819e-01 -7.6076291407644533e-03
      -1.0780977008633275e-02 -7.7315962710997055e-02
      -1.5372743861493543e-01 2.0422374638850660e-01
      -1.9263263304877758e-02 -3.9191847367249545e-03
      -1.4319551036153130e-01 -3.8971987099693510e-02
      -1.5625960770213659e-01 4.9773623589130636e-02
      -2.4256005799684566e-01 -3.3562036217345587e-01
      2.8040154174639431e-01 7.7500114191205366e-02
      2.1111904954224631e-01 -1.9379045895452904e-02
      5.1866911633659467e-02 6.3425499088004503e-02
      1.9135229137028753e-02 -1.0711590162017913e-01
      -7.6341879994308887e-02 -2.2051546431510048e-02
      1.1737039280419572e-02 2.7178139610093294e-01
      1.0238922598366323e-01 2.1787374689996608e-01
      -1.2391186822546346e-01 -1.1706430983094485e-01
      6.1589188809075240e-02 -1.3802037302195774e-01
      -4.9927444141701263e-02 -1.3806047934281682e-01
      -1.2382531889153274e-02 6.3976130071201315e-02
      -2.1080174442060728e-02 2.8414843642651771e-01
      1.3210044424569936e-01 2.0220748987506486e-02
      -2.0900503680107260e-01 4.8549893926617405e-02
      1.7858834279295441e-01 -1.9148568146183254e-01
      -1.0705370919179158e-01 -7.5503041085293139e-03
      -1.5496894427217573e-02 9.7288624717651512e-02
      -2.6677022126327760e-01 1.4945101241047276e-01
      6.3292970403944313e-02 -3.6201043747854955e-01
      -3.2371809703329001e-02 -8.8872861429069069e-02
      3.2152794184638478e-01 -1.1472574215360706e-01
      -1.1930199683007275e-01 1.4911592243735058e-01
      -3.3865547805592956e-02 1.7550786993723344e-01
      2.1427341279079515e-01 -1.3870254925414549e-01
      6.4977852323734625e-02 -5.9798542223883080e-03
      1.5436401097999702e-01 1.0342609792802293e-01
      -9.9988958281263571e-02 -1.1720800594806671e-01
      -1.5497294729348784e-01 -7.3729907814378159e-02
      -5.0398029248531395e-01 1.3324152997173141e-01
      -8.7449062836848432e-02 -7.6213497058918792e-02
      4.6564901035655963e-04 1.6864944240390806e-01
      4.0343228806087081e-02 -1.9270120268483776e-01
      -1.9010195725298382e-01 -3.0517379139071993e-01
      -7.9059688294486632e-02 -9.1244367970456375e-02
      8.3597329106206958e-02 -5.1846005953256537e-02
      4.8042844590709233e-02 -1.4872942865261884e-01
      -7.6017418626398688e-03 7.7474992412441102e-02
      4.9581349250870203e-02 4.2663522080313244e-02
      -1.1284109094533300e-01 -1.3135840643356428e-01
      -1.6626395318696852e-02 1.3188038669925722e-01
      6.3501414559976807e-02 3.7426647742865166e-02
      -1.1016197121582809e-01 8.3678789616524168e-02
      3.6087030315133863e-02 -1.8330820563046452e-01
      1.8200663025047997e-01 -3.9022839364002790e-02
      1.2185901730620881e-01 5.5053430076881384e-02
      -8.4780206716080914e-02 -7.5655179576171780e-02
      -6.1109671277759368e-02 -1.4355914777980525e-01
      2.2637100248234146e-01 1.0962940217159810e-01
      -1.9558716063869949e-01 -1.9753670060509756e-01
      8.8518154484704872e-03 4.4554543048169505e-02
      -2.6940499123952397e-02 -9.5221005164053112e-03
      2.3609855831663300e-02 -9.9875705446624441e-02
      2.1784607895704397e-01 9.3609032756033980e-03
      -5.4227706519885905e-05 -6.8148626029170970e-03
      -3.1228451440189653e-01 1.4603776819288386e-02
      -1.2806752884162778e-01 2.8072466839765390e-02
      2.0238868201278748e-01 -1.0765180609788817e-01
      -1.4934516033255066e-01 6.6843251676333676e-02
      -6.6001246066299604e-02 1.6810561425610374e-01
      2.8693938708809724e-01 -1.1125090834121634e-01
      5.0435575452361263e-02 2.0791302594706704e-01
      -1.6001973230969638e-01 -4.5423049635466728e-02
      -4.1261839462400340e-01 5.9719472605832595e-02
      1.7884856697488086e-01 -2.5493976525278977e-01
      -2.7739376422813122e-01 2.1432543912687659e-03
      -3.3586102879752527e-02 -1.7624407074539888e-01
      -2.0435605127045614e-01 -1.9402700216969139e-02
      4.4837394162136550e-02 -1.4815336214873873e-01
      -1.1248446762968517e-02 8.7035460835759148e-03
      2.0654711433815884e-01 -1.0423144314057704e-01
      -1.4710481826448868e-01 -9.4785224244890137e-02
      4.5761636169215032e-02 -1.1703210545612681e-01
      -1.7879827631659736e-03 -2.5539136925251343e-01
      -6.5012743182748120e-02 -1.2905960797915741e-01
      -2.0827903598000502e-02 2.6752936749166289e-01
      7.7154571171606123e-02 1.9701691936673826e-01
      1.4437657898319653e-01 1.0792174488621216e-01
      7.5337476006222329e-02 6.8243418417274285e-02
      -1.8682127874984017e-01 -1.4701105014462449e-02
      -1.1318460132898631e-01 -4.8181850420515004e-01
      -1.0400122936078796e-01 -2.2547730678199926e-01
      -5.3243005347339056e-02 1.7187796647115067e-01
      -6.3023319100269232e-02 1.4058987744355150e-01
      3.6561113274207213e-01 -9.7551558076179115e-02
      1.0885889912535547e-01 1.2122057082779121e-01
      5.1551491607907110e-03 -1.8450384873357119e-03
      -1.2228202521653347e-01 1.6237306457506487e-01
      -4.4128987292048123e-02 1.1895703640054966e-01
      9.4329363448400885e-02 1.4542746219264630e-01
      -2.3449999558675302e-01 -1.3263909364369161e-01
      -6.4306664448563880e-02 -1.2237854192929040e-01
      1.8657978591928148e-01 -1.8439392517852876e-01
      1.8239058121291250e-02 -1.2163859584396405e-01
      1.6148201800128500e-01 1.7775121154599444e-01
      1.5163457816506331e-02 2.7140564853249932e-01
      1.5374338101471388e-01 -1.3835892564881000e-01
      -2.2749640544477865e-03 -7.4276585758594540e-02
      4.9290183178021744e-02 2.2966200618662772e-01
      -9.1945584536076513e-02 -5.4272536545488609e-02
      5.6279609140024729e-02 -2.2032462891792354e-01
      7.1937597099277703e-02 3.4000714472661636e-01
      6.3097174621041321e-02 -2.2686113622239093e-01
      1.1517400743287509e-01 -1.0446422676953095e-01
      1.9047208698252355e-02 -8.0153672393218023e-02
      1.7189905768942290e-02 1.2618680004660104e-01
      1.2119367525404431e-01 -1.0374478470849724e-01
      1.2977796222761677e-02 -6.5008672032354442e-02
      1.8821109475072220e-01 -1.0679081138658897e-01
      4.8976689601564330e-02 6.4628922137667050e-02
      1.3521102478410733e-02 -1.4474256020594659e-01
      5.6522192979079726e-02 -1.0869190717072760e-01
      -1.3503702382144434e-01 -8.3954506514381452e-02
      1.1025436607478255e-01 -3.5136803768847168e-02
      -4.8503456734621316e-02 1.4425984405741825e-02
      7.5715409037691046e-03 8.6068671669724123e-02
      -6.4940982403490513e-02 -1.5222921714266988e-01
      -2.7251381751900877e-01 -2.7464393523783431e-01
      1.8621971502669701e-01 1.6201176605601100e-01
      -5.9471608821641153e-02 2.2347856490574444e-01
      5.6116449352248944e-02 7.8394067185808242e-02
      8.9418712706435685e-02 4.7118547058530129e-02
      3.2238603711054226e-01 -4.0732763283761553e-01
      -1.7498570875569255e-01 1.2926839842254606e-01
      1.4549324139100092e-01 -1.4394726802318697e-01
      -6.5781416710078158e-02 1.9966813062493849e-01
      2.0659204392581804e-01 -1.4441546542214573e-01
      -6.8969145070202062e-02 2.1836722528110936e-02
      3.4758939574827263e-01 -1.5117306178714374e-01
      6.1304534511908065e-02 2.0479837680028615e-01
      1.3432569331373592e-01 2.0053084274200964e-01
      -3.3034627869812638e-01 6.7461090259072476e-01
      -1.4322360366218612e-01 -1.6363939181672524e-01
      7.4960646949081722e-02 -1.6614951127920757e-01
      -1.6154773496471456e-01 4.4453690683819241e-02
      -7.0808479774416185e-03 -3.1596363880246314e-01
      5.9569157527708749e-02 -9.7482083822755056e-02
      -8.0993058434743803e-02 1.7280875378270275e-01
      1.4526399013846200e-01 1.9180506815777143e-01
      1.2870042997307979e-01 -2.3057146546796284e-01
      1.7790436150541616e-01 2.2891641533212156e-02
      1.6270799667547631e-01 -4.1967534646507332e-01
      -7.7936108499211912e-02 7.8651178696824878e-02
      3.9848824537226707e-01 1.8239621667284667e-01
      2.0602374141377372e-01 1.2553543071557022e-01
      -1.4154139154862638e-01 5.0644002458539039e-01
      7.7926684228221868e-02 2.0722301774590221e-01
      -4.3022788559561854e-02 9.3602755105902137e-03
      -6.3835517507792872e-02 -1.5389381834293328e-01
      6.3228590410776678e-02 -9.9455557394420607e-02
      -1.4262770968605873e-01 2.6761327352623654e-02
      5.1516559362623518e-02 6.7818994591477083e-02
      -1.7100910032690746e-02 5.6189226343181433e-03
      -2.0286225119666354e-01 1.1074883911232396e-01
      -4.0796323332327140e-02 -5.0010371795158604e-01
      2.7185171904502291e-03 1.0623094916829764e-02
      1.0666207696079130e-01 1.5287998562518959e-01
      -1.2952046674752091e-01 -4.7634161109756150e-02
      8.4604601574448629e-02 -1.1986482718723727e-01
      -1.5423501702302125e-01 4.4800676906765736e-02
      -4.1353037588417345e-02 1.0342742298435964e-01
      -5.0860826159219795e-02 9.1327369100550296e-02
      -6.0360246561752047e-02 1.0471888355560405e-01
      2.6955979480488636e-02 -6.2081285383974970e-02
      8.9099729488593155e-02 1.2235377386633478e-01
      -1.9596329124578930e-02 4.0293573278422888e-02
      9.0493226613699795e-02 -3.3882347954930898e-02
      -6.2913944979370001e-02 5.8046941869809132e-02
      1.1167516284840175e-01 -7.6837495071329864e-02
      -9.8618981854980317e-02 -1.4947010543520731e-01
      -1.2327672205082883e-01 1.1341461314846538e-01
      -9.1338655344772424e-02 -2.2477466228628626e-01
      -2.2653215855317533e-02 6.4380743920972469e-02
      2.5182804254789176e-01 -3.1410574190888545e-02
      1.1829111776042217e-01 6.5520741731756216e-01
      -5.0400837598358322e-03 5.0396967031183543e-02
      1.4356797129295581e-01 7.6797671573722276e-02
      1.0574785219648408e-01 1.2372353775031970e-01
      9.9021326205395846e-02 -1.0425151388005564e-02
      -7.3658422276863728e-02 -9.0888625462602166e-02
      -8.1707045067287973e-02 1.0271011952317391e-01
      1.2385741477975462e-01 -8.3275299348982423e-02
      -1.6376660242290533e-01 -1.3829601774229594e-01
      -1.2295736932579295e-01 1.6097781817620924e-01
      1.7388170627670971e-01 2.7159361583937780e-01
      -1.5347971130558521e-01 -1.6193299296875946e-01
      -2.3695482026541823e-01 -5.2158722921281070e-02
      -2.4463505443908351e-02 -1.0692462401104459e-01
      3.9558567998443206e-02 8.2308833789186422e-02
      -8.2638069709896608e-02 2.0701982855191356e-02
      2.9907330913240746e-02 2.8778033432175626e-01
      1.1403230459451888e-01 -4.1340132526996302e-02
      -1.6612367320714758e-01 -1.6786496327453562e-01
      -4.0626977682674537e-02 -3.4446065009046116e-02
      -3.3697587719536831e-01 -1.4985018882434037e-01
      -6.8151106583972873e-02 -1.2791306336979569e-01
      9.6169569074976702e-02 -1.2557289616849954e-01
      -1.2000996078900815e-01 1.0942849565745285e-02
      -9.2174710114136207e-02 -1.1068568557334042e-01
      -1.4336182142980561e-01 7.9850463560661944e-02
      1.4070763149938703e-01 -4.1713810310709247e-02
      3.1759167383234713e-02 2.9716618348320612e-02
      1.5215393856509882e-01 1.0213849343418903e-02
      -2.3259169407616007e-02 1.4764043650555786e-01
      -9.8533815198332861e-02 -1.1269387707840088e-01
      -3.9540185641593811e-02 1.7717959919295623e-01
      -1.3068564760407186e-01 1.4203854899552429e-01
      5.8013993713759364e-02 -7.9011402807306452e-02
      2.5682265277368523e-02 6.2780224097130716e-02
      2.9027551682633299e-02 -2.5734165374347626e-02
      -7.6216880034605985e-02 6.0600806700464770e-02
      -6.0312535159087563e-02 -1.7844095524397813e-01
      -3.3352288029791184e-02 5.8076836389766989e-02
      -1.8207670757840275e-01 2.7571548871830492e-03
      -4.3045522689358885e-02 1.3909712544324371e-01
      -1.7155381007255485e-01 -7.4964534930495680e-02
      -1.8725281001888669e-01 -1.6047906850075896e-02
      4.1653982938973586e-02 -1.5502438747704694e-01
      -5.8725657030976409e-02 -2.4562368493200176e-02
      3.8282937842447830e-02 -1.0789572008413312e-01
      3.2750316923185342e-02 2.4455151996188557e-01
      -1.6940600390047481e-02 1.6897835883308193e-01
      -2.6115754262447655e-01 2.1469494918954390e-01
      -1.0974425151193248e-01 -8.7650916397075992e-02
      -9.5114214326603219e-02 5.6923265125926235e-02
      -1.1598911766378807e-01 -3.7569660525758442e-02
      -1.1050239506789508e-01 -2.7320535709140042e-02
      1.8716392122251674e-01 -6.8117578245165872e-02
      2.3136372442403824e-01 1.0161203906081898e-01
      -1.1762036768229851e-01 -1.9380048206677819e-01
      9.6604751857161067e-02 -7.2274268952778734e-02
      -1.5020334250737213e-01 -1.9316100544814599e-01
      7.0057651301145787e-02 2.1763206225144233e-01
      -1.4388719181526879e-01 -1.2828437062191411e-01
      5.0960586912588639e-02 1.2132197692693407e-01
      2.4126250957297479e-02 5.3408582882270191e-02
      -6.4276158120404714e-02 1.0438692528888245e-01
      1.5434206004884457e-01 -1.4906858805624780e-03
      -1.3603081463792641e-01 -1.5193622248187627e-01
      -1.4975260153389303e-01 4.7085329825528384e-02
      -9.7438456423896730e-02 -8.9606570237500821e-02
      2.0486845676302942e-01 2.4794908889209386e-01
      -1.2670575149876035e-02 -1.2619485550733252e-02
      -5.7807379325843421e-02 -1.1856281299555894e-01
      1.3181252405268599e-02 1.0874429556538782e-01
      1.5955620501409770e-01 4.7271417477972494e-01
      6.3445840390333047e-03 1.2549251185578830e-01
      1.1220179937567500e-01 -1.2804412728421535e-01
      -2.9595359819879499e-02 -2.1973614403616124e-01
      2.5422484046571662e-02 1.6907572322881470e-01
      -1.6944051272071858e-01 -2.9511348284976410e-02
      3.1007692153920172e-02 -2.2337077437719474e-01
      7.5776006380620237e-03 3.5845057555659927e-02
      1.5625271995693849e-01 3.5869738390235030e-02
      -8.0939100645645162e-02 9.4466837225052711e-02
      8.9683265463530545e-02 1.6614029552101772e-01
      3.2298557130791758e-02 -1.2223136444819266e-01
      7.8122983091866272e-02 1.7266357065821727e-01
      8.8261801890056599e-02 2.0612556935477697e-01
      -1.1479371341696856e-01 7.5724462297450654e-02
      1.5730307328902945e-01 5.1209819874078737e-02
      1.2724157854481971e-02 -7.7680964198329219e-02
      -5.4914953530206721e-02 -2.5917794447298397e-02
      1.2996568675057968e-01 -1.7236835124640887e-01
      1.3605856224755331e-01 5.4983726737649374e-01
      8.5698190383317191e-02 6.2596000391922091e-02
      -9.9599490498901738e-02 -1.4101433487403395e-01
      3.0440178333621878e-02 2.0917355363230927e-02
      -1.3760742168751125e-01 1.2272768827062712e-02
      1.4398912298594305e-01 -3.1385342828510444e-02
      -6.8207005066390049e-03 -7.1241866532733511e-02
      5.0164255168600970e-03 -1.4465787618083867e-01
      1.3393548946790476e-01 -1.0787473680148195e-01
      2.8637231178312652e-02 1.3008674376474424e-01
      -1.5341734728392875e-01 -1.3019209659439063e-01
      8.7980168584782581e-02 -6.7806514890082756e-02
      -2.3411704859589023e-02 5.7945660484435772e-02
      1.3579520746672838e-01 -5.0712563370086366e-02
      -4.9366154623357937e-02 5.2026297360037624e-02
      7.7325420134380082e-02 2.1330814840589121e-01
      1.6709297003658780e-01 6.0653350535383281e-02
      8.8534078331378940e-02 1.4303727709095446e-01
      3.2088466935019280e-02 -3.8000535594125154e-02
      -1.6621546793629460e-01 -4.0174599258587532e-02
      -1.6736861096989117e-01 -7.6629382216096575e-01
      1.6297261837106133e-01 -1.8698870877765814e-02
      -1.3665225358447103e-01 -3.6959556033883761e-02
      -1.9745014413336753e-01 -1.0961648211559005e-01
      -1.7692798478049779e-01 -3.4759831562612406e-02
      6.8713374899426069e-02 3.9675544799163576e-02
      1.5682704283412524e-01 -1.3607993574821889e-01
      -1.6839270440113493e-01 5.5341154557677075e-02
      1.3586013115942092e-01 1.0183053537565469e-01
      1.5915596492540471e-01 -1.8111562318309504e-01
      -1.7064283050126872e-01 -3.0641970789523854e-01
      1.1573849370028490e-01 2.1902258869616323e-01
      3.3614557180503241e-01 -1.9598810651334137e-02
      5.5043373751545409e-02 1.5977591161588828e-01
      5.5521402259962618e-02 -1.1792925014760740e-01
      6.1227389952734732e-02 -8.8142410299914389e-02
      3.4675065649729504e-02 -3.7411637912869838e-01
      -1.2930503646370006e-01 -6.1848349355202559e-02
      1.3645199548873349e-01 1.7448916083754981e-01
      -5.0909269585847440e-02 1.2026601787831029e-01
      2.6862825294445769e-01 9.1474012058573639e-02
      9.3108658806868902e-02 1.6502171574795108e-01
      -3.4593712438942735e-02 1.2370019800589155e-01
      9.4014245620784614e-02 -1.6760376224546414e-01
      8.9169697707826096e-02 1.9638105573357037e-01
      1.3197004511613736e-01 -4.4756199447108923e-02
      -7.1004541394334555e-02 -1.0831181251160056e-01
      6.9675513630932551e-02 -5.3675622663840017e-02
      -6.6043842123829674e-02 -4.3717283442531799e-02
      -6.8923773126966431e-02 -1.1158496494147170e-01
      1.6279618715028277e-01 2.5929885302970399e-02
      1.2811113814026603e-01 -1.4442750020878570e-01
      5.2144601030228041e-02 -1.4124418396564570e-01
      5.5992243861221196e-02 1.5582824359105532e-01
      -4.5139204403685809e-02 2.7662572156870933e-02
      -1.6999447834337147e-01 -3.8186103958900396e-02
      1.4368646148726674e-01 -1.4798542953316753e-02
      1.0016832205694749e-01 1.6732916505986276e-01
      1.0941004400343135e-01 1.3462010372695673e-02
      1.2812073902622692e-01 -1.5051385815869280e-03
      -5.4266210460429301e-02 -1.3840167649612847e-01
      1.5511512015578149e-01 1.2838889047507479e-01
      1.4167408087379865e-01 -1.9040286938738986e-02
      5.1509544063169502e-02 1.4756488319770733e-01
      1.4432398695525017e-01 -4.2733861888650221e-02
      6.6646341251169208e-02 5.0770372069106444e-02
      -1.0493533425711501e-01 -4.3893600222493795e-01
      1.0221460907832754e-01 -1.6616226114870145e-01
      1.7653202922729141e-01 -1.2288559933396961e-01
      1.3211035166345003e-01 3.2856358457377430e-02
      -1.7513296074186068e-02 -5.4720328410383226e-02
      5.7234992061990446e-02 9.1413073697971109e-02
      1.0414608435569302e-01 1.3074247463469685e-01
      -2.1846572393910180e-01 -5.4977601040202974e-02
      -2.1590162616483954e-01 -1.0106330861285096e-01
      2.1025153019377044e-01 1.6028161586365952e-01
      -8.6184687481423369e-02 -6.9741915976675062e-02
      1.4847454240156038e-01 1.0612341926853662e-01
      -1.9045980356993750e-01 -1.2357758831612552e-01
      2.2080224728049971e-01 7.5829088454046720e-02
      2.8131636040565514e-02 -5.2103016095644120e-02
      3.8587767004937795e-02 3.3902556167279545e-02
      1.4167445216452121e-01 -4.0399370890300192e-02
      -1.3210751168056070e-01 -2.3270850832762660e-02
      1.7100723326687745e-01 1.5718074521065070e-01
      1.6167993911860221e-01 -2.8031079815960126e-02
      5.1537156887166424e-02 1.5227917093143092e-01
      -1.4589419963508918e-01 -1.5758256619230354e-01
      2.1171121039108644e-02 -1.0719733692793160e-01
      2.9505880545951789e-02 1.5897854507492815e-01
      6.3323020612528924e-02 -9.5535624476832379e-02
      -1.4823670969744007e-01 5.7211699558285645e-02
      -1.2855666053342349e-01 -1.1975700028372564e-01
      -1.1121261789133775e-01 1.0732647685003488e-01
      -6.1464831702754380e-02 1.5057710518275541e-01
      -3.1768513385311566e-02 -1.5974941248977312e-01
      1.6292986951781524e-01 -4.2350424970864107e-03
      -8.1303296121977550e-02 1.9272673048345348e-01
      -6.1463121696714605e-02 3.0713717020878287e-02
      -1.7317786799913926e-01 8.2478306705147265e-03
      2.1874568371862194e-02 -1.2497194609054265e-02
      -1.6539022551054855e-01 -1.7301509171968707e-01
      1.4815736356125039e-02 6.4825247626146859e-02
      -9.5637444076688505e-02 -8.9006446232666694e-02
      -1.3997245328370669e-01 -1.6392184360387821e-01
      -2.1870107096569627e-02 3.0747075475384245e-02
      -3.6412827150270416e-02 5.2829128109335190e-02
      4.3420666084516286e-02 2.6408190000653513e-02
      -4.8411455457999561e-02 6.4130092191604940e-02
      3.9969459937369514e-02 -5.9153341848648802e-02
      8.3915978102226899e-03 6.3999782530922977e-02
      3.9840191790886985e-02 -9.6925705118413204e-03
      -5.4280832571714843e-02 2.6637070759342733e-02
      -4.2270350230787908e-02 3.8349822334233313e-02
      1.1557980609309435e-02 3.6033143751841501e-03
      5.7087774035151133e-02 9.1975772986374084e-03
      2.8849551198715333e-02 -1.9546239828371594e-02
      9.2906848903635403e-03 -9.3049088717944237e-03
      -4.3760898087130407e-02 5.9117616539108454e-03
      -7.7115329311491024e-02 -3.2903059282759467e-02
      2.9191267080189355e-02 5.0243343276508243e-02
      1.4885178384137773e-02 3.4040497614005537e-02
      -2.1116182619445898e-02 -3.2126568639274627e-02
      2.0339688449481683e-02 7.9178363142208608e-02
      3.6877971915388476e-02 1.3570536435320661e-02
      -6.6997828413725813e-02 1.7161099272210406e-02
      -1.7842865859171077e-02 -3.7734762328431058e-02
      5.3073202528931010e-02 6.3110325570089512e-02
      9.0243953702779291e-03 -1.2482435818076046e-02
      -4.7150508103792906e-02 4.0380528732644451e-02
      4.6481154594424347e-02 2.0242533242371222e-01
      -2.0835853106172982e-02 -2.0552115881076829e-02
      -2.2182576676808834e-02 5.3867815771065482e-02
      -1.3288752091818460e-02 5.7704293766196631e-02
      5.5905757226500472e-02 3.7795077639128358e-02
      -3.0984341390050015e-02 8.6632003438378916e-02
      -2.0065116346351410e-02 6.0737814144982312e-02
      -1.3516908505075172e-02 2.0207664001226085e-02
      -4.0565847553453008e-02 4.5704745242737099e-02
      -6.3149156701894874e-02 -6.0195607781613959e-02
      -1.1947039636640407e-02 4.7441462266343735e-02
      -4.4650721999522372e-02 1.5567388512873374e-02
      -9.4931072640256797e-02 -1.7741547093203362e-02
      1.7561584952173761e-03 7.2496287989190968e-03
      -1.5402335175573920e-02 -6.8073948725108718e-02
      4.6966988144948804e-02 -1.6360902866576064e-02
      -8.1137480719786076e-03 8.1683357955985303e-02
      -6.6209993496727126e-02 4.8580537032502709e-02
      8.1616496468353247e-04 -1.3464615844097640e-02
      3.5232832109719454e-02 4.9216487790733184e-02
      1.4953330999994285e-01 1.0474506538187507e-01
      5.1648988386274984e-02 -7.3672879447408995e-02
      -1.9035294480244547e-02 -2.6309997358234371e-02
      -1.6552066682781003e-02 -4.8294963016236515e-02
      -5.3004134449910131e-02 -8.6084004994091967e-02
      2.0911899623209031e-02 -5.6446901764738593e-02
      7.3334033599329357e-02 -5.2675635537988348e-04
      -1.4954346921678737e-03 -6.7133667955697101e-03
      3.7652518769268244e-03 3.1741025888851110e-02
      2.7967806677474616e-02 -5.6232612282646859e-02
      4.7992873907602067e-04 8.7822451170053578e-02
      -4.6821409526264041e-02 -4.0753789463743598e-02
      -9.8234272126300586e-03 1.2515799994429710e-02
      -1.4840457433567834e-02 -1.2140252060094112e-01
      -2.1248172984706711e-02 -6.6092273424268573e-03
      2.2398357337549347e-02 -1.1475411120683626e-02
      4.0313021130128489e-02 7.0853311587492388e-03
      -6.4955488105820400e-02 1.6579995830654315e-01
      -3.5058511915746216e-02 -1.9496247913726866e-02
      6.6312014959523310e-02 -1.7613541263154234e-02
      -3.7848513518716001e-02 5.5748612195697628e-02
      4.8942234639080158e-02 4.1599899924715356e-02
      -5.5160924902088952e-02 4.9328751968053780e-02
      3.5114848024003685e-02 -6.0531009953800228e-03
      4.1931427176850576e-02 2.2296135595657872e-02
      5.0590491576928596e-02 4.8663158668174375e-02
      1.5101450725994323e-02 2.1157689636096580e-01
      9.2091732775893831e-02 8.6807093321082801e-03
      5.6113684254204141e-02 9.8632774007266170e-03
      -1.4222006499476499e-02 6.9228227521362012e-02
      5.8548117227471330e-02 -5.5326127497000312e-02
      -3.0311173809645452e-02 4.7370992086445594e-02
      -2.1685060732252653e-02 -7.8823550553774963e-02
      -4.3514609215963354e-02 6.9920252221604723e-02
      -2.0387723591356394e-02 -8.7046885686678677e-02
      -5.2479843762155934e-02 -6.9316093419492042e-03
      6.2268692001691751e-02 5.3146737385372476e-02
      -2.9834901596420271e-02 1.0683161257642343e-02
      1.1637562701664481e-02 -4.1073645507011876e-02
      -5.5463053545248428e-02 -9.1545109341899487e-03
      -2.3182921240123031e-02 -5.9164305766363043e-02
      7.7153656545131018e-03 -3.0047843611059555e-02
      3.6970129260713622e-02 -9.1770002853888456e-03
      5.0591228871736386e-02 -4.8466915230643420e-03
      -9.5177701878119293e-03 -3.8442317299540660e-02
      -3.1821727006050252e-02 1.6262056064151251e-02
      4.2712481973033609e-02 2.9144828443147088e-03
      -2.7546107029400621e-02 1.5741577798991126e-02
      -9.0564776232119719e-03 -4.3773287269608108e-02
      5.4997474877780742e-02 9.2289877291901602e-04
      3.9072312907783610e-02 6.0918608245213952e-02
      1.4350737470245938e-02 -2.2737019908461478e-01
      6.2428472941607124e-02 -1.5285116161529307e-03
      4.0464656521042093e-02 -2.2174458852405043e-03
      5.0851108088272756e-02 -2.3499146316246111e-02
      3.6122617848101134e-02 -5.8126752595914218e-02
      3.6161122659580359e-02 -5.3536812486118926e-02
      -1.1199443078799044e-02 1.7625705329524146e-02
      -5.3732527730483176e-02 -4.2406580148215151e-03
      -3.3658675403585858e-02 2.3355123918095907e-02
      4.3645255880208997e-02 -5.1025331343231908e-02
      6.2504903142336837e-02 1.0163191767852867e-01
      6.8648855407635642e-02 -7.4533518836065932e-02
      -6.2082460274370997e-02 4.4180971361536064e-02
      4.9711706020391351e-03 -3.4337985963835027e-02
      -4.0813414996020016e-02 -5.2009508005947468e-02
      -3.3480050661596573e-02 -6.4144434618621765e-02
      -3.6363006768691683e-02 4.1011340220899438e-02
      5.2537768464224116e-02 -4.4358893336204352e-03
      -4.4683229286410907e-02 -4.9257169462482882e-02
      -6.6325717253111455e-02 -7.1653296617990303e-02
      5.2227512323903040e-02 -7.1300828518815126e-02
      5.7254548770431117e-02 -6.3765675583303157e-03
      -5.1668119831798032e-02 1.7256828546862779e-02
      -7.3993744128482225e-02 1.1916387628338364e-02
      1.3419067357130474e-02 5.1801622343411860e-02
      -6.7492274744449354e-02 9.7813074177389617e-02
      5.8833238908578910e-02 -4.2358963586519714e-02
      6.5395583268770208e-02 6.1638612420079175e-02
      -2.2839378538244037e-02 5.5822005792295314e-02
      4.8393454270723092e-02 -4.7778839774919292e-02
      -6.1188437933775312e-02 -3.8165569716314553e-02
      5.4289043757636261e-02 7.0980066201042956e-03
      7.0342749039933580e-02 -3.0624738902267044e-02
      -1.2518255508366721e-02 -3.6262204382158061e-02
      -2.1099647367035408e-02 -5.9957579473935194e-02
      4.9475730185722148e-02 -4.6291884216519780e-02
      -4.1670528754314984e-02 -2.7780488970603010e-02
      1.9044690212327457e-02 -8.0369855207330070e-03
      1.7485550433762562e-01 3.0398496379449500e-02
      -3.5192229980148919e-02 -2.3004858988488586e-01
      -9.0917852419079362e-02 -2.8003126363952337e-02
      4.6447862256042076e-02 -1.1435978364802184e-02
      -2.9224048303330252e-02 -2.9489994657251908e-02
      -5.3503930426786951e-02 4.3870900139763772e-04
      -1.7459746220907200e-02 -5.5898383148249332e-03
      7.1423898618441228e-02 -4.5755612019851837e-02
      1.5315491677836566e-03 -3.2224238173266750e-02
      3.6311644388815421e-02 4.4158994605216731e-02
      7.3730722601313466e-03 2.2457859783342853e-02
      -2.8585183560019017e-02 -3.4810609186619199e-02
      3.2420071483644140e-02 -4.0444610835813702e-02
      5.0894728865550617e-02 1.0647702427606638e-02
      2.8017585495365024e-02 -9.2103051724706411e-02
      -6.4445038936680424e-02 -2.5620006367719265e-02
      -1.5374207955053490e-02 -5.8594755587740811e-03
      -4.9257070320190992e-02 -8.5360394477007745e-02
      -3.0337761777552184e-02 2.6514082396594810e-02
      -8.0273506058434002e-02 2.3651736781689612e-02
      3.6684806509221936e-02 5.0509919822824829e-02
      -4.1233092491282125e-02 -1.4907341868767852e-02
      -5.2633580989131998e-02 1.3831118909789390e-02
      -4.6628998185422717e-02 -3.1242246496725523e-02
      -2.2827002474486290e-02 -2.1535193722704505e-02
      5.9266430279793635e-02 -1.8761253499359726e-02
      5.4893781939896365e-02 -3.8898135353246273e-02
      4.5668944145347223e-02 -1.2997534641567084e-02
      1.8495356833558581e-02 -6.6356907527732725e-02
      2.1039836916394987e-02 2.8427263109706287e-02
      -5.8515242484928568e-03 -1.6899371845432335e-02
      3.1689243532328513e-02 -1.4811300086104143e-01
      -3.6715435824390893e-02 9.1279491466579349e-02
      -1.4797642947723726e-02 -3.4585480084495218e-02
      -2.0749692625275776e-02 4.1896055880617337e-02
      -4.6251709234064464e-02 6.8110924215777607e-02
      6.3378868467280816e-02 9.4835948947142954e-03
      6.3715715870195824e-02 -7.2053877022443272e-02
      -8.0952246686388334e-03 -1.9835255709219021e-01
      3.5512359147700366e-02 3.5537436159932191e-02
      -3.2172625125220428e-03 -7.4326857793214490e-02
      2.8635400235595066e-02 5.4149630781037489e-02
      -2.0695080682375692e-02 -1.5833729448351888e-02
      2.0018216299828730e-02 -4.6323495661484380e-02
      5.7375413901432089e-02 -1.0897183874420830e-02
      3.0683417335249509e-03 -4.4638401953472949e-03
      -2.9830936104426768e-02 4.4360067605941488e-02
      5.8571412434701823e-04 -2.7538710228450408e-01
      -2.0368605245977681e-02 -2.8667547239696712e-02
      -2.1776561863272179e-02 -1.9017960888343385e-02
      -3.5570197203739849e-02 5.4418473105276302e-03
      5.5106827546970834e-02 8.2525731125400337e-03
      5.1835400450383720e-02 6.6925006225729208e-02
      4.6382357636453068e-03 3.2508016731565309e-02
      4.0080190337607159e-02 3.5635666502975893e-02
      -5.1444145608140791e-03 -1.8995289243332679e-02
      -4.9728483368317491e-02 -2.9671073376441492e-02
      2.1578603258679351e-02 4.3253641950192434e-02
      7.0855287745442475e-02 -4.0968233938221681e-02
      8.2219925778275679e-03 3.2802283370381609e-02
      1.2091155518230661e-02 1.6639497957708423e-02
      5.6009461708615871e-02 4.1409298151038956e-03
      3.9368675558585413e-02 5.4110054904396472e-02
      1.7652549612138250e-02 -2.4600731377224037e-02
      5.4374754364983603e-02 -3.4379592068690006e-02
      -1.7337561267325042e-02 4.0719503665960525e-03
      3.3158807911880903e-02 1.6733897561255495e-02
      5.5154260270156449e-02 3.5289602040350344e-02
      5.8760258067559558e-02 4.0846896560466334e-02
      -1.1055535702234493e-02 6.4631650913805946e-02
      2.5328613126173970e-02 2.3674503109486378e-02
      9.0822486073467417e-03 -7.2149909705972824e-03
      1.3229147722917821e-02 2.8288857396443040e-01
      -7.0714321691659216e-03 1.6165662689853779e-03
      6.7515546636994481e-02 7.4582926240487818e-02
      -6.8078376379859338e-03 -2.5096329040773116e-03
      9.0540137986542812e-02 5.5331597039448045e-03
      3.2361518813012816e-02 3.4715023734548184e-02
      3.7394354224404680e-02 -2.7969504247999429e-02
      5.8028579696841324e-02 4.6242031233896322e-03
      1.2625089022377817e-02 2.9199531140712359e-02
      4.7602961182893790e-02 -3.9042731850928707e-02
      4.9785162280278412e-02 -3.8766063850666353e-02
      -3.0705806829278884e-02 -4.4838780033360316e-02
      -3.8904803945382198e-03 4.5629247055635230e-02
      5.3874061787721701e-02 1.0571620231377849e-02
      -4.3935430057586926e-02 6.7126242270953165e-02
      7.9167142587006131e-03 -7.0338720761525295e-02
      6.5947015521011634e-02 -1.4652369988442607e-02
      3.1602983610204992e-02 5.2284951281864153e-02
      -1.4982108002365047e-02 1.6634951868502383e-02
      6.6507576730102463e-02 2.9361985532966851e-02
      -1.0496318354976386e-02 1.0632976211907815e-02
      2.7157570706216404e-02 -9.0893373706908958e-03
      -3.4856079243288436e-02 -5.0376467296779290e-02
      2.1695531626407305e-02 4.9654604350164305e-02
      -6.3790646298900605e-02 -4.9593562340484558e-02
      4.0784349096037217e-02 -1.7541409062476667e-02
      3.4928950350206715e-03 3.7639248440698631e-02
      5.4422743522247137e-02 -5.5984452338407993e-02
      4.4850247641045830e-02 -3.3832073361324419e-02
      -8.3534756486612252e-02 5.1487870531738117e-02
      -3.6648397526538681e-03 5.0480053400280236e-02
      -1.4438978805979533e-02 -6.0942187629354896e-02
      4.7663965605990899e-02 4.9480995090115630e-02
      3.5368998147628394e-02 2.6999762962712122e-02
      5.0400049561418045e-03 3.6029816042818727e-02
      -1.3639919835599307e-02 3.5855623204469535e-02
      -5.0358069396883500e-03 -5.7368508852274479e-02
      5.6468106374924006e-02 -4.5584741250221883e-02
      1.2805697756115959e-02 6.0181761850775770e-02
      1.3457752801651245e-02 5.6726593258190280e-02
      1.8342570253613893e-02 3.7137313237284898e-02
      1.8812308861570481e-02 2.4236525069751186e-02
      5.9226381687997001e-02 7.0375039729104527e-02
      -2.5321297830852265e-02 6.2793979626635188e-02
      4.0742160925703742e-02 3.8334861447785987e-02
      -5.3868731084099793e-02 6.0640543797408020e-02
      -4.5074231754751545e-02 6.1874205356416717e-02
      -3.7472963973497757e-03 4.3425639333649194e-02
      -5.5996993261558603e-02 -6.1890551459520493e-02
      2.9050795611376665e-02 3.6279644242454266e-03
      6.4047039323250426e-02 2.0537008652286391e-02
      9.9201952523449693e-03 -1.0361778716464477e-02
      1.8735816441030222e-02 -3.3906101807169464e-02
      1.7500178483458768e-02 3.7324822845073935e-02
      1.5791630449745270e-02 2.7810154338430391e-02
      2.5882024750488685e-02 -1.2090763995748745e-02
      -4.0463461923178130e-02 -3.6649496010746997e-02
      3.5487436285676854e-02 3.8544679683624787e-02
      4.1128381057527280e-02 4.9447655548273311e-03
      2.9261503997481019e-02 -6.2534874573450472e-02
      1.3652692259920199e-03 -5.8387559895738302e-02
      4.9390543602416737e-02 -3.8650516118332728e-02
      -5.0852093690839088e-02 5.5367890753950939e-02
      2.1037226063585077e-02 1.6093968295954185e-02
      -7.2069742276269708e-02 -4.7249151670983633e-02
      3.0792849750184460e-02 -8.2731442043985238e-03
      5.0797405969565251e-02 -5.6583811505227698e-02
      -5.7145953793581575e-02 -1.6360284486667473e-03
      -3.5639634838464836e-02 -1.7813366747866158e-03
      4.4056769519994092e-02 -1.9191186264327583e-02
      2.5653295622798770e-02 -7.0502375521344210e-02
      4.5035135267234676e-02 2.8993699043654300e-02
      -9.1721645154571735e-03 -1.6080253116738011e-02
      -4.0800757067122828e-02 8.2888695046968320e-03
      -7.6135253750727702e-02 1.4171029118604199e-02
      -3.2350034102835191e-02 -3.3130918964011706e-02
      3.0705600135955396e-02 2.7274467845306835e-02
      -1.5455184678892345e-02 5.6612143386158047e-02
      -3.1662422322311159e-02 4.8665485467240484e-02
      3.9474343620815283e-02 -6.2309989365208387e-02
      1.7283727952455360e-02 -1.9115628051124437e-02
      -9.6598754022460629e-03 -4.7400518983407629e-02
      9.8131762725106233e-03 -7.5381873608014849e-02
      3.6280541664278756e-02 1.5079387887238593e-02
      2.7033306101081643e-02 2.0359637348157256e-02
      -4.3647789253049560e-02 8.8046359718181658e-02
      -2.0065461072562858e-02 4.3304704753827548e-02
      2.8916814050117104e-02 4.9418845153795007e-02
      -5.5152144949698299e-02 -7.5110341983526674e-02
      -4.7001373259997925e-02 -8.3596032891102966e-03
      -5.4465283611084504e-03 -2.4177063973035495e-02
      -3.0062348302651372e-04 6.9338975809332556e-02
      1.9607620581728554e-03 3.4268578823470640e-02
      6.8008019974551581e-02 -9.8457760840983807e-04
      1.9133262448874946e-02 -4.2709674058259234e-02
      -2.3445152256695086e-02 -3.8138308246634993e-02
      -4.8339664679233119e-02 1.9313638372597690e-02
      -1.0206537053703562e-02 -4.9183968343260553e-02
      -1.4112407094469578e-02 -4.7540412667579697e-02
      9.0013337253504865e-03 -3.4799435621755422e-02
      1.5325420772153341e-02 2.6638675459239758e-02
      -5.7620769517525386e-02 4.0969501691286991e-02
      -1.4141969244097769e-02 -2.3014034809351647e-02
      -4.1794666961243912e-02 -3.8811323338119326e-02
      6.5556886615065840e-02 -2.9038911773840497e-03
      4.6263075128483065e-02 -6.8014558122201613e-02
      7.3458775092896014e-02 7.1446407424563679e-03
      -2.9685999818906812e-02 1.5080650071951278e-02
      -2.0421864897693893e-02 -3.1471532457808100e-02
      -6.5593390819477498e-03 4.7019173087065783e-02
      -4.3682587280064383e-02 -4.9803619441966970e-02
      2.1700646949749578e-02 5.2939455038712814e-02
      -2.8651818068715112e-02 2.8674559635204825e-02
      6.0968901430839125e-03 -2.6995731473663770e-02
      2.8787511763838279e-02 -5.6127659469361171e-02
      6.4147919021276770e-02 -2.4838994373233957e-02
      -4.2734955590905344e-02 6.8029608737198502e-02
      -5.8731201467081252e-02 2.3518688526848946e-02
      -1.4234606657103521e-02 -5.1167370115636837e-02
      3.4017184807501107e-02 -5.8161497578584326e-02
      -7.0162478825591068e-02 5.1864119697785691e-02
      5.0085002749148608e-02 8.0461016493685571e-03
      6.9533534470195293e-02 -1.9336878162557119e-02
      -3.1353144547558213e-03 5.3426889641800153e-02
      -2.6476433367656902e-02 -1.5076742111154146e-02
      2.3709871242319953e-02 -7.1277748404060814e-03
      3.1044719340629016e-02 2.5669020767641933e-02
      7.4178632605641859e-03 -1.9427787496277250e-02
      4.0482825636431338e-02 -3.1695264847487973e-03
      3.5799294955987514e-02 3.8569519082506970e-02
      -1.2308010850525363e-02 -3.7350365984453140e-02
      6.2013268161602186e-02 2.3503728640673859e-02
      3.0041070021492384e-02 -5.6110104088252205e-02
      8.3562615535536303e-03 3.8900208284736129e-02
      1.1235951731350280e-02 3.9843189472713501e-02
      3.4335144658121930e-02 1.9326664206601844e-02
      8.3184644490440617e-03 -2.4999145765702379e-04
      1.0328714469597339e-02 3.7543979399150350e-02
      3.0672829811324107e-02 5.0249216427141072e-02
      7.1978015852972768e-02 -2.4643167841388015e-02
      -3.8658225744335160e-02 8.8477853983211646e-03
      -3.4934096568967364e-02 6.1910929467626205e-02
      -3.4355563603843745e-02 6.3245287422538626e-02
      4.6942584697702044e-02 5.4074297792702307e-02
      3.7990632316511150e-03 1.1867017724788875e-02
      -1.4726154343808777e-02 -1.9080633142205015e-02
      -3.4669760624544382e-02 -1.6634395315052529e-02
      -6.0078146549744894e-02 6.5521154301759225e-03
      4.8778371605034655e-02 -3.8576617964648618e-02
      6.3478043031081913e-02 4.2600332993366092e-03
      -1.5023486725823545e-01 -2.6788592327624941e-02
      5.5326515653980383e-02 -4.0257274447781523e-02
      5.1363243328230737e-02 -1.8164835502976113e-02
      -5.0582009082320675e-02 2.6915928196433663e-02
      -9.5709873506653973e-03 2.0368807659706775e-02
      5.6434623138703136e-03 -2.5065750529594858e-03
      5.3309077936248436e-02 -3.0271989553131921e-02
      -5.5075950777206395e-02 -2.7934391338765106e-02
      -5.0004993979498993e-02 -3.4953657517448888e-02
      -6.2847268302830980e-02 -7.1256523321553245e-02
      -6.2462901708976388e-03 6.1845176262050668e-02
      -5.0993812425501849e-02 2.3259618324689833e-02
      -1.9664743683540410e-02 -3.9902995642767071e-03
      5.6777840310058177e-02 2.5820290674104841e-02
      2.2309926761033792e-02 -6.6955446005137573e-02
      -4.3233846603121569e-03 -2.0376732372994048e-03
      -1.4010674734831370e-02 3.4166873902685753e-02
      4.5734828535444532e-03 -5.8331108176608255e-02
      -1.7904665900976554e-02 1.5052666597732205e-02
      -1.3065356263466745e-02 3.9648065211801781e-02
      1.7513829391113685e-02 5.1773592653156790e-04
      -4.9148209311858246e-02 -6.2944361560061779e-02
      5.1501539714872153e-02 -1.5516597476802561e-02
      6.8059189443799198e-02 5.8676659997746336e-02
      -2.9381414555401230e-02 2.4132099907174111e-02
      5.3609570624599734e-03 -3.5287699477103508e-02
      -1.6007101117660575e-02 4.2356481598364464e-02
      3.5373315591795740e-02 -9.1381480445660939e-04
      6.3887392949687509e-03 8.3021932534029421e-03
      1.3278654311970457e-02 2.3004952633336542e-02
      4.3110244083717268e-02 -2.8872227100491452e-02
      -2.3685822758669768e-02 -9.0813458618880117e-03
      1.5895719948906300e-02 -1.4678754094115393e-02
      4.0255035794778030e-02 -4.4304628673752573e-02
      1.0759800753534461e-01 2.1524480435866886e-02
      -3.7422315966474808e-02 6.5527165823523206e-02
      -5.5680945878194839e-02 -3.0319638710140942e-02
      3.8713373636550835e-02 -5.0758107761712572e-02
      -3.8402226662373293e-02 4.4981441071865240e-02
      -2.3208227096986101e-02 3.8195806318011186e-02
      -1.7798823399164766e-02 3.3199487224839438e-02
      2.4941575951730178e-02 1.2579802530422410e-02
      7.1744586329931845e-02 5.6425161953864218e-02
      -4.8658010519815484e-02 -4.7037992627382466e-02
      -4.1926257403514681e-02 -2.8017139473907399e-02
      -1.5320839631981366e-02 -2.4916428701619014e-02
      4.4538178000379014e-02 -5.1936842277462043e-02
      -3.2709284125424245e-03 4.7631675334648987e-02
      2.3983563216611267e-02 -2.1626593469446175e-03
      -4.4599566622046130e-02 -5.0102181133720787e-02
      -5.0152474168551564e-02 4.8356975425563470e-02
      7.3047238951180704e-02 3.5642117210546616e-02
      1.0898370036267228e-02 -1.1210974241784102e-02
      -5.9902917581909888e-02 -2.9014710631971641e-02
      -2.7784850207053579e-02 1.9892880684582951e-02
      -2.2047191353704462e-02 -5.3929899216306539e-02
      4.8281601810850047e-02 3.4876715160661591e-02
      -1.9822970962362987e-02 -2.9830372380459259e-02
      -8.3289382482593308e-03 -5.2341573070612386e-02
      6.2779150474591816e-02 4.5547307507817471e-02
      3.3354675261484210e-02 -4.0631861357083590e-02
      2.7738308396982814e-02 3.4281202321004275e-02
