<?xml version="1.0"?>
<opencv_storage>
<opencv_ml_ann_mlp>
  <format>3</format>
  <layer_sizes>
    29 220 320 15 1</layer_sizes>
  <activation_function>SIGMOID_SYM</activation_function>
  <f_param1>6.6666666666666663e-01</f_param1>
  <f_param2>1.7159000000000000e+00</f_param2>
  <min_val>-9.4999999999999996e-01</min_val>
  <max_val>9.4999999999999996e-01</max_val>
  <min_val1>-9.7999999999999998e-01</min_val1>
  <max_val1>9.7999999999999998e-01</max_val1>
  <training_params>
    <train_method>BACKPROP</train_method>
    <dw_scale>1.0000000000000000e-03</dw_scale>
    <moment_scale>2.0000000000000001e-01</moment_scale>
    <term_criteria>
      <iterations>1000</iterations></term_criteria></training_params>
  <input_scale>
    1.4364931991225054e+00 9.5984884583841890e-01 1.7322430522605412e+01
    -1.7039234521857924e+01 1. 0. 2.6790871044113773e+00
    -7.6054064924045511e-02 3.0266841759691805e+00
    -4.0243854830119569e-01 3.1367727333110547e+00
    7.9755021360414374e-02 3.4108269101758788e+00
    -3.3671067477066807e-01 4.4365724964188962e+00
    1.5095225271695989e-01 4.5683353006986147e+00
    -2.3394142765982640e-01 9.2120663620175698e+00
    4.5101452196169289e-02 9.4927710782933623e+00
    -1.0919218024291569e-01 1.5394311877932592e+01
    6.5235502486096317e-02 1.5394311877932592e+01
    -6.5235502486096317e-02 4.9311260494844227e+01
    2.0287690485824170e-02 4.9311260494844227e+01
    -2.0287690485824170e-02 1. 0. 1. 0. 1. 0. 1. 0. 1. 0. 1. 0. 1. 0. 1.
    0. 4.3130566872316320e+00 -1.8111509869906459e+00
    4.8715000532213617e+00 -2.4792090378953064e+00
    5.0733764482377506e+00 -2.8646019493706145e+00
    1.7225358333811805e+01 -1.0442345065163461e+00
    1.7265934893813437e+01 -1.0985938111182521e+00
    1.7255477656768051e+01 -1.1029058815978776e+00</input_scale>
  <output_scale>
    1.0526315789473684e+00 0.</output_scale>
  <inv_output_scale>
    9.4999999999999996e-01 0.</inv_output_scale>
  <weights>
    <_>
      -5.7622263388117649e-02 -1.1726716891912459e-01
      9.7433292099424501e-02 -6.5570401918209037e-02
      1.6194758956749533e-01 2.7812758336288317e-02
      9.0201085529155706e-02 -2.5361442845939011e-02
      -5.6369908744651975e-02 -8.4165500179132130e-02
      1.0445622325340617e-02 -1.4491836123739255e+00
      2.5352088691859034e-02 7.2960527923236596e-02
      -8.9121000638571993e-02 7.2405481566129706e-02
      -7.9168136559066168e-02 -1.7333592325429532e-02
      -9.3737470017691379e-02 -8.2274209989931402e-02
      -4.4920000162857535e-02 8.1786919253936580e-02
      6.7108698998117666e-02 6.7073613624543879e-02
      3.7114593100602013e-03 -8.8289405179662217e-02
      -1.5696385736480759e-01 6.0979571675163033e-02
      -7.4664802983980136e-02 1.9896544274162029e-01
      -3.3520825660919781e-02 7.0135493043495922e-02
      1.4306882860255185e-01 2.8424945408936569e-02
      -6.5668777415002030e-02 -1.2104729271165071e-01
      -7.3515225190366365e-02 -3.3371260552209507e-02
      -1.1997487601921843e-01 7.7984986044753499e-02
      -8.3239772831860973e-02 -7.3203124455048257e-02
      7.6323517355743942e-02 3.7625721635585324e-01
      9.6532027905347165e-02 1.1960203869131240e-01
      -4.5647392633775628e-03 1.0609848868341146e-01
      2.0910923845729339e-02 -1.5320325760814660e-04
      -5.8745241482113839e-02 4.1431589780740985e-01
      1.5718470843861013e-01 -9.7642690347182190e-02
      1.0124531654759555e-01 1.1640418257218189e-01
      -2.1605687745774076e-02 -1.9035977179846453e-02
      -8.8334619058970540e-02 -1.0015604946180630e-03
      -7.3749364105049333e-03 -3.5687414701792035e-02
      4.7033533388782398e-02 -3.7751647758177215e-02
      -4.6129677060362896e-02 -3.5402183047906816e-01
      -6.8574806328282112e-02 -1.2322742698579160e-01
      -1.2816341808418458e-01 -4.4272525562049907e-02
      1.0816306911248390e-01 1.4754047122946290e-01
      9.8564337693142684e-02 9.2338008592766502e-03
      -7.3651463057520114e-02 2.7176666449371095e-01
      7.1162219000983074e-02 -1.8498715419131481e-01
      1.8885328283345472e-02 1.0868010545358295e-01
      1.2230349787859907e-01 -6.5609864613671964e-02
      -4.8989265262804241e-02 -4.4451811458123636e-01
      -7.8621034369863979e-02 -1.1499662928647496e-01
      -3.4570562263882033e-02 1.2811805567550238e-03
      -2.0336475518361621e-02 -8.6308538607176855e-02
      1.3782374485229522e-02 -4.7238936667064378e-02
      -5.5348124126515755e-02 -7.6464959790236514e-02
      1.7058871607510190e-01 6.2877293686481997e-02
      -1.5258716744866079e-02 7.5145633211132897e-03
      -2.1869888240661056e-01 9.7788103377795269e-02
      1.4679238080477081e-01 -8.2486699311853706e-02
      7.0785125636276067e-03 -3.9990705742001857e-02
      -4.4018609649133171e-02 3.5821960771083806e-03
      1.3606899275334797e-01 2.0024998520042640e-02
      -7.6050919859763907e-02 4.9083874401129254e-02
      -1.5282370309528540e-02 -1.5630762513554150e-01
      1.4836037238383512e-02 -1.3230755079631892e-02
      8.4341997090185736e-02 -5.1630761801129486e-02
      1.4646145794392251e-02 -2.1006535844875046e-01
      5.5846235912264168e-02 1.5466884440381554e-02
      -8.8633357030156501e-01 1.3317725556422408e-01
      6.2260881865043298e-02 -1.8635177448525564e-01
      1.1633359714122944e-01 1.7555693562233138e-01
      -1.0388614653617449e-01 9.5993243996482930e-02
      3.9237382359573308e-01 -7.2474955190460960e-02
      -7.0649512404306947e-02 -7.0521914139499264e-02
      2.7625659677968969e-02 9.3719762826207434e-02
      1.1716196579869162e-01 2.1527391707860064e-01
      1.6297187398669193e-02 -8.9643975065154799e-02
      -1.2194299515543523e-01 4.7658911567948416e-02
      -1.3662048029751614e-01 -9.9318054239859843e-02
      -1.3175234803820551e-01 1.0469428814977264e-01
      -3.7533110436683163e-02 -7.8429340758692845e-02
      -6.2617237170850396e-02 6.0394039868898873e-02
      6.6447356169202540e-02 -3.4142961255571543e-02
      6.8904817648357153e-02 -4.2353493611285785e-02
      9.8423687209412049e-03 6.7541205322880882e-02
      -1.0638443616612467e-01 -8.4458319478653787e-02
      -4.6543304824007176e-02 -4.3486938807508972e-02
      2.8550336737365730e-02 2.4780177291316770e-02
      -1.2244333721801400e-01 -2.9561365243077536e-02
      8.5901677234764939e-02 4.9025762757146665e-02
      -5.3209548879690691e-02 -3.4963360676971540e-02
      8.2673604116048627e-02 -5.9290526173652942e-02
      1.3587140943202253e-01 7.9551180799305607e-02
      -1.1863820590240690e-01 -9.7352657586547611e-02
      8.9894147495824334e-02 -1.0710241388870709e-02
      -1.0188499422975436e-02 3.6412162537392864e-02
      -7.5793442467668060e-02 -1.2710102698757114e-01
      -1.0791148711861072e-01 -9.4138071476176047e-02
      1.5269850059841064e-01 5.5385480700162477e-02
      4.9824285935259234e-02 1.9842468292953119e-01
      9.8475477312294821e-02 1.7167376666795545e-01
      7.6150754773912560e-02 -3.2074379465496447e-02
      -4.1812630319702976e-02 -1.2674388165019915e-01
      -8.5074785018820584e-02 6.4542200087348262e-02
      -5.1816244109681067e-02 -1.2460162656006346e-01
      1.5865677649514315e-01 2.1397770832325980e-01
      -1.0517627222816635e-01 -7.2697532734681797e-02
      1.3888959100294185e-01 2.4457408152230270e-02
      -9.2127170697057711e-02 -6.5159101429772853e-02
      -1.6175914981519515e-02 -1.0112065105478078e-01
      7.9685735294335147e-02 -3.2250020168343961e-02
      9.0215907234628231e-02 -6.2420492283231967e-02
      1.0607962598412976e-01 -9.4956234597031817e-03
      -5.2992149418460026e-02 6.6652397873681019e-02
      5.5798785198131785e-03 7.4031140895904401e-02
      7.9508332265801770e-02 5.9538781416101159e-02
      1.3584775696543752e-01 2.8276181913687776e-02
      -3.4673572642032309e-02 1.4300795036517246e-02
      4.9754119626000196e-02 6.1978204106917220e-02
      -9.3467399748924720e-02 7.2844179911434631e-02
      -5.8387511369893508e-02 7.2499767278882493e-02
      1.4992634695424745e-01 2.1403808050731228e-02
      -8.2953430582251034e-02 6.5630217041587724e-02
      -7.1654807554594718e-02 5.4860040317897762e-01
      3.9140443373775917e-02 -3.7031364307651887e-02
      -1.0959977076117555e-01 -1.0511919198392251e-01
      -7.1669823262808657e-02 6.6345610924923193e-02
      -6.2019322626502569e-03 8.3252741048348997e-02
      -6.0043433003358224e-02 -9.1570831875415707e-03
      -1.1017862243775932e-02 -7.3474478918938144e-02
      3.7317805426372787e-02 7.6583794873869057e-02
      1.8684101391141550e-01 2.8900570421109426e-02
      -4.6418791366415309e-02 -3.0455246954896076e-01
      -2.6867095991538588e-02 -9.3253974832360698e-02
      6.7243614994750539e-02 -8.9352422057505307e-02
      -8.4406235125818463e-02 8.8989786259983217e-02
      2.2354827574275905e-02 4.7544158144003291e-02
      1.4279811613018759e-01 -1.3302012776135524e-01
      2.9764534458205455e-01 7.3942516119986368e-02
      2.8580373753739119e-02 2.8391623874930777e-01
      4.9086304265635858e-02 -6.4628008718681434e-02
      -3.0102587337170330e-02 2.9343863745424068e-02
      -8.6444248208273622e-02 5.8189321071070332e-02
      8.6025268451024109e-02 1.0428158707714423e-01
      -9.8340049730496079e-02 6.4969725915327167e-02
      -6.3523102208309992e-02 3.6138573602970327e-02
      1.0648025806640757e-01 -7.1593409984918269e-02
      1.1509655644081092e-01 -5.2145051915991843e-02
      1.2384114774901414e-01 9.9800703150773551e-02
      3.2458631256974783e-03 -1.3659903588810522e-02
      -9.3201184469358336e-02 2.9697920479777307e-01
      -2.6990698586221849e-02 1.1872014558507812e-01
      7.8242142876677093e-02 -8.5683221114702002e-02
      -1.3761069787409122e-01 -1.4848344938146008e-01
      -8.1688212417988321e-02 -1.5797305245658869e-01
      -4.9815514380402368e-02 -1.3059028757481089e-01
      -1.2207217995577725e-01 3.8747271077864293e-01
      -7.5133157380404436e-02 -3.7858011326132861e-02
      -2.0160978786310588e-01 -6.7758848983145256e-02
      -1.1838724811092401e-01 2.6368849485459783e-01
      -1.2332817180958656e-01 1.6500428339175691e-01
      1.0248132981067083e-01 -2.2060801855119442e-02
      9.1147966731615765e-03 6.4061402824677260e-02
      -3.1949030435337041e-02 1.1777162705329475e-01
      -8.6838494461023916e-02 1.0199841165922405e-01
      -1.1659909749085921e-01 1.9824269261621029e-02
      2.6606695148206273e-02 -1.3049586005508729e-01
      3.1642807482938035e-01 -6.6584899066396780e-02
      -8.4125464300893446e-02 -3.0855745577594358e-02
      -7.4963820429942013e-02 3.6871162084213425e-03
      -9.0435511512389974e-02 1.8890742195709177e-02
      -1.6759871814214844e-01 -9.1838017540935651e-02
      -4.4815116572673674e-02 -9.8955557522824710e-03
      4.4382575204099339e-01 4.5385160406057584e-01
      -1.1581383811306488e-01 2.4194485299590548e-02
      -4.0000201296581556e-01 5.5557944284908130e-02
      -8.3260343788696414e-02 -6.9259440284147100e-01
      -4.5489557871266580e-02 1.4899053158160546e-02
      5.3036986855363633e-01 1.6448717622802585e-02
      -3.1459169040275334e-02 9.2013252579985910e-02
      -4.9075348625854956e-02 -1.3947817932800893e-01
      7.8425141831551679e-02 -4.0237204758486828e-02
      -2.9947332056649295e-01 5.9045279528988664e-02
      7.8851883163594552e-02 9.5367970888578776e-02
      3.3152372318961162e-02 -1.9266680378465444e-02
      -6.1777345151229415e-02 -5.7113128725558360e-01
      -2.6151500363237917e-02 4.1511508750833349e-02
      4.9225030971291932e-02 6.5362421627260511e-02
      1.9313605858694188e-01 -6.4032083468550577e-02
      1.4253452923140300e-01 -6.8230618634172707e-02
      -3.7858265088209504e-02 -1.2442794708256068e-01
      -3.8930066614287176e-02 -1.4875774430376224e-02
      -5.3728765131057121e-02 1.0686069524244136e-01
      3.5502080678617987e-02 -5.2501463708574956e-03
      -4.5299018990124347e-02 -5.4294261488568363e-02
      4.6677456523426492e-01 2.5561751948760935e-02
      7.9704104710889387e-02 -1.5766384793694275e-02
      -4.6443474235946067e-02 -1.6455767624326620e-01
      4.5887632112708070e-02 -6.8419678348048490e-02
      8.2596271000450139e-02 4.0494408292415407e-02
      6.8036631965445649e-01 -6.2854990895757162e-02
      -8.1204068468164747e-03 -4.3578505656781071e-02
      6.3128816811087229e-02 3.7767533245250257e-02
      2.6073707153247716e-03 1.3975470926602684e-01
      2.6657246747511031e-02 -6.1417069972927250e-02
      -8.5301493472398349e-02 -5.1292935395433528e-03
      -1.0754515871379235e-01 1.1553910044438191e-01
      1.0999680470625610e-01 4.3668825426316768e-02
      -1.9749107860521289e-01 7.4912641413738573e-02
      -6.7494360503405307e-02 -1.0367116172653043e-01
      -8.3537064939402508e-02 -2.3636844402477761e-01
      7.4386424936014842e-02 1.8527683814365356e-01
      5.4230570413208286e-02 -4.8466417425590880e-02
      1.7840255961481321e-02 -7.0626389473044088e-02
      -9.5959360410454220e-02 -1.3689565385189653e-01
      -1.3442656111180551e-01 -2.5926200589134146e-01
      5.3298210043850311e-02 -1.0591472655786396e-01
      5.3271972095494190e-02 1.2233925623876990e-01
      -7.1141733810204347e-02 -5.9484496044341036e-02
      -8.6718776102533354e-02 -6.9045958731281207e-02
      -2.1551238718995953e-02 2.8789093961803659e-02
      1.1005109756584221e-01 6.5858223357905338e-02
      -2.3482109848517046e-02 1.7026462568921646e-01
      -1.1488675233567034e-02 -5.1364127347734066e-02
      8.8092150181467474e-02 -1.5729905781864365e-01
      -1.2679151135094416e-02 -8.6887579903567311e-02
      -1.3763100922066837e-01 1.0420231170004693e-01
      2.6179066725932735e-02 -1.2983048829569405e-01
      -2.8028087954698060e-02 -1.0865646649612988e-02
      -2.8256530962396588e-02 -4.5946589986601116e-02
      4.7381777842874104e-02 -1.2338997247863182e-02
      6.4482700583730348e-05 5.8660175025603209e-02
      -2.0604132777715528e-02 8.4852535444529219e-03
      2.7722088607348379e-02 -7.0680079589312810e-03
      -4.1831812601907457e-02 -6.1502654005754137e-02
      6.1739404055168201e-02 4.4243376122419777e-02
      9.6898826958284716e-03 2.0403043395114867e-02
      -1.4752270871936301e-02 -2.4265067040677444e-03
      4.0391164217311218e-02 2.6091294769566887e-02
      3.7317174060598972e-02 -3.7038563576631336e-02
      9.3118432264626717e-03 6.3639264550757760e-02
      -3.2776028496432220e-02 -3.9279829126344347e-02
      -1.4703913303329671e-02 -3.0250399911891046e-02
      3.5525172336530228e-02 -3.5340148958849127e-02
      -5.1579700160286686e-02 -3.5461724592858915e-02
      -2.4727158119338531e-02 6.8329275919189789e-02
      2.1932625064371155e-02 2.8390028496727296e-02
      5.5897159258284618e-02 5.3831377698061516e-03
      6.1186837555071448e-02 2.4453241066954651e-02
      -2.8855298265801844e-02 -6.1574538062067969e-03
      -2.8998269584453812e-02 -5.4886039687431151e-02
      -2.0539815377220390e-02 -8.2284735301830485e-03
      2.1289303284209585e-02 -5.7585465436346066e-02
      -8.9039044412591289e-03 3.1080568395409820e-03
      -6.6712254882700592e-02 -5.2397078217291899e-02
      5.7152031950211186e-02 -8.3643766593610325e-03
      -4.4828951251626836e-02 6.8501229302157934e-02
      6.1824226737256342e-02 -1.2925223092868213e-02
      -6.3890511816225723e-02 -5.3222841070340109e-02
      -2.2688187564122081e-02 1.6789049813819897e-02
      2.4466441932820892e-02 4.1245714645754029e-02
      -5.0123329627584770e-02 -5.7148196785752434e-02
      -5.5773714932041522e-02 -6.3318839960109188e-02
      -3.3078021847272397e-02 3.9292158380153173e-02
      1.2611443228944667e-02 6.4977880568369241e-03
      6.9396363485942206e-02 -3.9646441567194282e-02
      1.1323080924039945e-02 1.2392969037200260e-02
      3.9937160644319229e-03 -3.0593398029764393e-02
      2.0915219202127029e-02 5.3232552938010887e-02
      1.0776897712347251e-02 4.5378287900496840e-02
      2.3481532970677770e-02 -3.6830584931953132e-02
      -2.3792241507175221e-02 4.1339206840540405e-02
      4.2686811575516431e-02 -5.0038203208327824e-02
      1.7235492999884670e-02 -5.5293998198313585e-02
      4.9668362947603156e-02 2.0937373852319759e-02
      -1.9645869406996357e-02 -4.3620110678605273e-02
      -6.6037635081975299e-02 -4.5080316845688362e-02
      4.8921293125521383e-02 -6.2577981861883555e-02
      -2.4408440959715071e-02 -2.6123509552264012e-02
      -4.6306864507483295e-02 -7.3722342708208599e-02
      -5.6045379129864660e-02 -1.7014695538076410e-02
      -6.1362130381239569e-02 -4.5088628554995770e-02
      -4.2311135838381558e-02 3.7885866179021482e-02
      -5.1253470325534511e-02 4.4989139609367124e-02
      -1.0785243920826545e-02 -2.0227309315830486e-02
      -2.9259819676489829e-02 6.2401535760816168e-02
      6.7653742163563041e-02 4.1214046124199898e-02
      2.6803939358067654e-02 -4.2979168161703371e-02
      2.5781301765902369e-02 3.4062424592928991e-02
      -3.8876285167984337e-03 -5.8796149752652169e-02
      -4.6562040399436566e-02 -4.5223456332844907e-02
      5.7991932908000275e-02 1.4504737046212319e-02
      -1.8200222470007868e-02 -6.7643348921078469e-02
      -5.5383194259450368e-02 -3.8587539940583927e-02
      -6.9500349255858948e-02 -5.1915959514156534e-02
      -3.0036023111616458e-02 -1.0901283994316747e-03
      -6.2782714704112078e-02 -1.4064694804003472e-02
      1.2213659897637190e-02 3.6770937071218722e-02
      6.3777847424120807e-02 2.8732756464972826e-02
      -5.9981401607995546e-02 4.9595272386809596e-03
      7.0505236095592491e-02 3.4424443758550555e-02
      -3.2991281583784109e-02 -1.3623003130240055e-02
      3.0139872152234820e-02 3.9204712288598131e-03
      -2.6260188655390947e-02 -3.2965311984044239e-02
      4.8481181255348629e-02 6.1594284325897287e-02
      -7.2997477272790059e-02 6.0979394082699152e-02
      4.9962113439785329e-02 -3.3918296771747493e-02
      2.2482577247878836e-02 -2.8556476024992040e-03
      5.4743865366932813e-02 3.6747695789569802e-02
      3.3567873182578862e-03 1.8298330801799836e-02
      -5.7364132414642006e-02 2.4396200148274465e-02
      2.3497058034215056e-02 5.3232449223225932e-02
      2.9391354224338664e-02 -6.0158427338586624e-02
      -6.0015710068070389e-02 2.2962782352891998e-02
      2.3248669005894221e-03 -5.1626050076117279e-02
      -4.5320695230532747e-02 3.5675714475211680e-02
      -4.7167328448348103e-02 2.6378851037173450e-02
      1.5164778578581679e-02 -3.2703667872374692e-02
      4.3374659472589255e-02 1.6271164643416231e-02
      5.3026492600423282e-02 1.9137482606453787e-02
      -9.3933264873980911e-03 -4.9754969581235195e-02
      -1.6366384933195297e-02 8.1699549733108886e-03
      -3.2754579411581518e-02 -2.0498910857494952e-02
      9.4881628610861135e-03 -2.5036116087247970e-02
      1.6826220313819445e-02 6.6105791147091485e-03
      3.5990349739340739e-02 1.8543905008313002e-02
      -4.5144261584814049e-02 3.8872046980121429e-02
      -1.6735405240370562e-02 -6.8108766159174883e-02
      -6.4158344410136042e-02 5.9133917613678061e-02
      1.4772188568196690e-02 5.4980991659886833e-02
      5.4220697376474690e-02 6.7816171860701074e-02
      -4.0522088777719664e-02 -1.7625569788334027e-02
      -7.0969447015180057e-02 2.0931744420676728e-02
      4.4820539283424499e-02 1.9281736313692403e-02
      1.9998867215968226e-02 -6.3070662990324183e-02
      5.9597870531537145e-02 4.0443121360882045e-02
      -1.7415510898417041e-02 -3.4724812918387922e-02
      -7.7583138862393680e-02 -1.6499925181904379e-03
      -8.4110835524751140e-02 2.8815430532940403e-02
      3.7635846892846811e-02 -5.0598725860623042e-02
      1.3614029118372614e-01 1.3687637517100879e-01
      7.6182548400715630e-02 4.7668161278657764e-02
      -6.3752078915079669e-02 -1.4331308230094836e-01
      4.2980402960031770e-02 6.2384233724703564e-01
      -4.9228421715996500e-02 2.3716135526828799e-02
      3.8716282467881331e-03 -5.4173680765956723e-02
      -4.9534226613081503e-02 -1.0693502707603278e-01
      -1.0313206997889572e-01 1.1848845387000499e-01
      2.6753883665906864e-02 3.9808471856489502e-03
      7.0978269995132709e-02 3.2758280876168361e-02
      -2.2367919807223705e-02 -7.2901238192082897e-03
      4.6338110595584174e-02 -5.8102936552451689e-02
      -1.5666009910986180e-02 2.2176241151036172e-01
      9.6774827757737159e-02 -5.9417190442706450e-02
      8.3370865611897757e-02 -2.2415244048997838e-02
      -4.2677066798526918e-02 -4.5980235206223949e-02
      7.3044825287297666e-02 9.8610546345381106e-02
      -4.2085501110578800e-02 -2.7371853207460689e-02
      -7.5425494442944710e-03 2.0753078415537054e-02
      -4.1288025451105478e-02 3.2758361892743082e-01
      -4.6384829230147390e-02 -3.4259148863299616e-02
      -2.4402956388219219e-03 6.2696656109316976e-02
      -7.8038688674347224e-03 3.5034524707746387e-02
      -4.6490827058947172e-02 5.3803626922821837e-04
      -4.1058000505658785e-03 -8.7378319949126773e-02
      -8.4545837805314786e-02 1.1783651312396271e-02
      -3.2624691670907771e-02 -2.8701413148906056e-02
      8.5047191640966593e-02 1.1177515204259617e-01
      2.1192679896435355e-02 6.8646897112376398e-02
      -4.5404890774039829e-02 -1.2054021046866131e-03
      3.8177443883711630e-02 2.3887595145448970e-01
      4.6522844649214475e-02 -6.3142954198462400e-02
      -1.9664035116574420e-02 -4.8296843219711179e-02
      6.6290727072110492e-02 3.6530204465112012e-03
      -7.3657468821176283e-02 6.2099327304054312e-02
      8.1150417753847237e-02 1.0195443811996101e-01
      -4.5444701298654869e-02 1.5540176456915691e-01
      -6.1459815354065438e-02 1.3228886914442675e-01
      1.2577119046767476e-01 -1.0872885248029936e-01
      -6.1679855716453715e-02 -2.3833330797117427e-01
      3.5797517737213423e-02 2.4996607137005904e-02
      -1.5841081061253851e-01 -6.3754827331325079e-02
      -7.8100494447460186e-02 2.7492899355458716e-02
      -3.3657293619749402e-02 -2.5078889206001105e-02
      -2.1680561560572364e-02 2.5920851510726674e-02
      -3.7550563389646539e-02 5.1036085167293140e-02
      -5.2693610850613165e-02 -2.9024398460727692e-02
      5.8270271919774949e-03 2.6082114196998300e-02
      2.4620235015256980e-02 -2.8410841087390839e-04
      -1.1701860642313308e-02 -3.8306985557068074e-02
      -9.5745472060228404e-02 -8.5922173485911038e-02
      -2.9570644552113869e-02 -2.6429559227382935e-03
      6.4339882358833742e-02 2.5485526027135968e-02
      -4.6155295454754670e-02 7.6986142682474668e-01
      3.5050694114179458e-02 2.9146028083547526e-03
      4.5674290739291114e-02 6.6918859135184389e-02
      6.6271768052318408e-02 1.3514904106769340e-01
      4.3159056522425805e-02 4.1789799178599735e-02
      6.7176980773462858e-01 9.3041459344186422e-02
      -1.3543115954448076e-01 -4.2846876543470330e-02
      -4.2208020016014793e-02 1.3032675273271579e-01
      9.1331670866079309e-02 -5.6959788562040765e-02
      -7.6530463309102056e-02 -4.6534108601307772e-02
      6.5773645264474837e-02 -2.8474027480180443e-02
      1.3625216221447689e-01 1.0453488310208084e-01
      4.5772264135684478e-02 7.4351336762112303e-03
      -6.8060242125126638e-02 -1.9534057628558180e-01
      -5.5695819310873758e-02 6.7652950766799447e-02
      -2.8418588373199275e-04 4.8635144482775138e-02
      -1.2656182596869034e-01 -4.9327993967164738e-02
      1.2236055266829179e-02 -9.3784543865246484e-02
      -5.9636337272447368e-02 1.1737873716733058e-01
      -1.9869202113234202e-02 2.2577665496364377e-02
      2.6066332881929281e-02 1.6674678474291531e-02
      -3.4027762749242976e-02 -2.1144633533576502e-02
      1.5905562170880511e-01 -5.8173643413454559e-02
      4.0414738456196052e-02 -1.0954238283999196e-01
      8.6114058198484500e-02 1.0069459106215865e-02
      -8.5672896109683053e-02 -4.3955659397489105e-02
      -2.9979412342774786e-03 -7.6822928765283391e-02
      -1.6556091046074264e-01 3.3316642513389325e-02
      -7.8100317075099109e-04 -5.0445901287559311e-02
      6.0925255732490885e-02 9.3044855171412630e-02
      1.0924594860877092e-01 -9.3033822475793795e-02
      -1.0157557340750517e-01 -2.9973527510899628e-02
      4.2136896181706525e-02 6.9259354126353771e-04
      -1.1309014675858652e-01 -9.5444044010656023e-02
      1.3418564059452714e-01 -1.0890695075630057e-02
      -2.8170265612140751e-02 -8.0272347211814823e-02
      -4.6181297212980116e-02 -4.6706175977971909e-01
      9.1135728767152382e-02 -9.1062015517373085e-02
      -4.1180088227194989e-02 2.0904094156396963e-02
      1.0654282741687812e-01 6.4958699507044271e-03
      4.8007620665102635e-03 1.4908079982359775e-02
      -4.7244698567468789e-02 1.7374887534132774e-01
      5.3655914888680482e-02 -5.2088516286874775e-02
      -2.1665596259862779e-02 -4.9317524399761961e-02
      6.1031207954459980e-02 8.2848554015761411e-02
      -2.0627473681226013e-01 -6.4232644840049688e-02
      -1.2184318789475533e-01 -5.7787876371792612e-02
      -1.1290075418566668e-01 4.2484305425646622e-02
      1.5398115781877819e-01 1.7932314244796271e-02
      7.0260170051270290e-02 4.0048415953874920e-02
      8.9824421384496408e-02 7.2333817830982014e-02
      -2.1829984836380566e-02 -5.9814225630145837e-02
      2.8806122309626300e-02 4.5017484157079055e-02
      8.1191854979538430e-02 5.0556354349492613e-02
      1.1069792677065557e-01 2.1984529274048089e-02
      -1.5998708994503028e-01 -1.7765831667275491e-02
      -1.8190444952089116e-02 -4.3024429648467803e-02
      -1.8458363303057432e-01 1.5201883822242765e-01
      -2.9440857436516205e-01 -1.6937953512481416e-01
      -2.0877911547316583e-02 1.4210928666237668e-01
      1.3477415284696995e-02 6.9868036460263616e-01
      4.0641706926518237e-02 -8.6048336658508848e-02
      7.1573898587173487e-02 4.3999569968587615e-02
      -1.1027448594520477e-02 -3.1504585068207927e-02
      5.5693753077822171e-02 -5.5845116102493451e-02
      5.5273405692364504e-02 9.0240172619365455e-02
      7.7205961543869829e-03 -6.8664550935633381e-02
      7.1599966133566756e-02 5.8597561115592646e-02
      -1.8954358660976103e-01 -2.4388013085395199e-03
      9.5987200595537350e-03 1.1222184082144490e-01
      1.3379596858574996e-01 1.8634256758554249e-02
      3.3803228017195847e-02 -1.0811339796391851e-01
      1.6376845844581306e-01 -4.6957852515273568e-02
      4.2248325063443531e-02 -1.2084966042325049e-01
      -1.7035255058966217e-01 -3.3288347162189640e-03
      1.9940392780315624e-01 1.1946211831115938e-01
      -1.5806723262781938e-01 -9.1556674969445584e-01
      2.8101142406686399e-02 4.7983158170910124e-02
      1.2154819205885035e-01 4.4067179255026324e-02
      -1.4911593197076578e-02 -5.3664527007484336e-02
      -9.3983947471053837e-03 -1.5188313683043270e-01
      1.1664209317818552e-01 7.8980827150867877e-02
      -1.1177488870779026e-01 1.4529112290138856e-02
      -1.6458626816039740e-01 1.0818215905998675e-01
      -4.2384957465634233e-02 -7.6582636024292577e-03
      1.4786271255885175e-01 -2.4033619838409893e-02
      6.8177289437883117e-03 -2.0182533342411917e-02
      8.1076960156735378e-02 -6.1591420301222299e-01
      -3.8526451693446221e-03 1.0884622314241718e-01
      -1.0125690842775416e-01 1.0253014429131221e-01
      -1.4183434829145833e-01 1.7889220119523534e-02
      1.2607238935987661e-01 9.8900962515791571e-02
      1.4835110780509603e-01 -3.1024399467800223e-01
      1.4916585357301265e-01 3.5468450167699998e-02
      1.3638182757697448e-01 -1.5767255251645107e-01
      3.0148989312275467e-02 1.5526387829635191e-01
      2.8044502432311569e-01 4.0950609096414314e-01
      1.8588536410383785e-01 1.0964630264967147e-01
      4.8087920749874640e-04 -9.6439545354229841e-02
      -2.2449354655437087e-01 -1.1877689802097414e-01
      -1.5082895942416658e-01 -9.0464869740442280e-02
      4.4644493193412314e-02 1.4911680127512756e-02
      5.1195177489964418e-02 2.0601586715491760e-01
      -6.5168610393080237e-02 9.0132517340572343e-02
      -5.6484484005538411e-02 -2.6663668672206868e-02
      -1.2706339626016280e-01 8.8654735547059119e-02
      -1.2224833732933091e-01 -2.2243116715691821e-01
      1.0459103252796523e-01 -1.5463170414900163e-01
      1.5185537307136962e-01 -1.6113956431066084e-01
      -3.0740851068977604e-02 5.7615576478732451e-02
      1.0975901215806891e-01 -2.8011994769416977e+00
      1.2861687292770904e-01 -1.2137232266179307e-01
      -1.1443191114442079e-01 1.7585098163974575e-01
      5.9224355528503012e-02 -2.8405552612159829e-01
      -2.3057341233277691e-02 -1.6399808766367158e-01
      -1.5973358103753499e+00 -2.0229162820938618e-01
      -6.3299214670415729e-02 -4.4177418326295542e-02
      -1.2328253905982726e-01 5.3997258476159923e-02
      -2.1969110444664045e-02 -1.1413234060755076e-01
      3.3776930065995453e-01 4.3661697365666767e-02
      -9.8428517937244345e-02 5.1411362017573809e-03
      1.0372174889080631e-01 2.9451590571192201e-02
      -8.1154353947053240e-02 3.1150885894844643e-01
      -1.3019021249054357e-02 7.6551067478254062e-02
      2.3730845446489635e-01 5.2964027376409269e-02
      5.0340317854679649e-02 -8.3064915564727296e-02
      3.5476732369871256e-03 -1.1389629495975778e-02
      2.3896149497490114e-02 -3.5234327125394670e-02
      1.4734007883726669e-01 -1.6310430058903450e-01
      4.9897470816446396e-02 -2.8459609753711679e-01
      -2.4950478908967344e-02 5.8034458713018752e-02
      -1.5898795056725931e-01 6.6570840381593596e-02
      3.9968175937356021e-01 3.6611128596722893e-02
      8.5110848627895072e-02 -1.3001542838260141e-01
      -1.2099489130944410e-01 1.7459852122254457e-01
      3.8080397809529862e-02 -6.3392841207925321e-02
      -1.2150051173108936e-01 -1.5387187704505143e-01
      -2.5025277229930176e-01 8.2760150742253891e-03
      -3.4963571624044058e-02 -1.9147090017568130e-02
      -2.5831642058262699e-02 -1.1230896311326330e-02
      1.4957028048497144e-02 9.6712247499094642e-02
      1.0269174627327161e-02 -5.3578324250676330e-02
      -1.4251573108003961e-03 -1.2839291413952900e-01
      5.4816739402345438e-02 -1.7357935070521559e-02
      1.8694781719004058e-01 -1.8759751737300982e-02
      -2.1579729128172198e-01 -1.1834217010916684e-02
      -3.1564011596305806e-02 8.3523239145830475e-01
      3.9151686263188032e-02 2.0622722938473906e-01
      3.7267525421557451e-02 -1.7930871594669995e-01
      9.8829588118314771e-02 1.2644193186729896e-01
      -1.0040271142198125e-01 -9.5757422973793221e-02
      -8.0725708812481881e-02 -3.3603076717317742e-01
      1.3595736778442477e-01 2.3257435989169034e-01
      6.5390785610685967e-02 2.0956566876969587e-01
      9.1853277394910483e-03 2.4743886772211024e-02
      -3.8242009997577647e-01 -5.6309835272084850e-02
      7.9063373451155119e-02 2.5093778382613424e-01
      1.6802772479852479e-01 -1.1565330435885263e-01
      -1.3217960855715150e-01 -3.7023231461160433e-02
      1.7066386291414096e-01 2.1369832270209935e-01
      6.1485055082088388e-02 4.5120393871081459e-02
      -4.0308299271443592e-05 2.0355380075233831e-01
      -1.7771552401374785e-01 6.4367658202240854e-03
      -1.7504077888812322e-01 3.3791759442551500e-02
      -1.1104852198516914e-01 1.5999656811335042e-02
      -8.1984485490200709e-02 -4.6405437638104778e-02
      -7.7613390392154175e-02 7.2850561123323472e-03
      -1.0144012862850788e-01 3.6324066504662439e-02
      4.1098062687650927e-02 2.3579906192678728e-02
      7.1744163631712432e-02 9.3473803392308194e-03
      4.6090520500268434e-02 -1.4140604124158643e-01
      -1.2044026087081999e-01 -1.4174289006580455e-02
      3.9243473127250544e-02 3.6715213752733636e-02
      2.3884778905507446e-02 8.1645163111658564e-02
      4.4190738505865058e-02 1.0219412124866628e-01
      4.2538642428819488e-02 7.0083927564406198e-03
      -7.1162926180507430e-02 1.3780866646717625e-02
      5.0268342407725000e-02 -7.3701201314225447e-03
      1.0369282239127647e-01 -7.5212331266426943e-02
      -2.3372694154591592e-02 -2.5806526658049306e-01
      7.6417361564384917e-02 1.1228694272910223e-02
      -1.9569616080774582e-01 -1.3886069010686306e-01
      1.9279142234996365e-02 4.2718287159870513e-02
      5.3887091937624816e-02 1.0502827319229542e-01
      -3.7813137899840879e-02 3.2493049075569845e-02
      8.6827829694296477e-02 5.9248953868824811e-02
      3.4923195613806322e-02 1.7520201852879291e-01
      8.8552759558054757e-03 2.8457775079396820e-02
      9.2499092095843852e-02 -4.1279330532410431e-02
      2.2439525060177413e-02 1.4753294799486526e-02
      9.3494181062747483e-02 6.5704501442181984e-02
      -1.1433097122837477e-01 -1.6684183522110960e-02
      -8.0680215190454999e-02 -1.5933460027475474e-01
      -9.1084735851495957e-02 -4.9981937276674715e-02
      2.5386047107739961e-02 2.6970342956238388e-02
      3.0106790427919385e-02 -9.0260453767598420e-02
      -6.1208484100640989e-02 7.3122344059934674e-02
      -4.4144274552588417e-02 1.5335655452865576e-01
      4.8238976138550403e-02 1.1205329474157261e-01
      5.7365399105449043e-02 2.4493777923215495e-02
      -1.1762985066262333e-01 3.0845284107824108e-02
      9.2181421569643193e-02 4.8221311419458908e-02
      8.5203802446264087e-03 -1.2416714352940932e-02
      4.5306578928740036e-02 1.7312433768403895e-01
      -5.3635554146959689e-02 -7.3389647061457867e-03
      -1.7111794842850650e-01 -1.0891637063473318e-02
      -2.9423712405987748e-02 -2.7029155424804680e-02
      1.2641432978241615e-01 1.1682048701941512e-01
      4.6676579920703024e-02 -9.7192888830955823e-02
      2.4599620781785590e-02 5.2779989692685825e-02
      -8.3852871388903169e-02 -3.1556702054079684e-02
      3.7529742402399494e-02 -4.2128497966769353e-02
      -1.7402555260666183e-01 4.3681494754044481e-02
      -4.5588220155674569e-02 -7.3755285567552592e-02
      1.6561341255666193e-01 -5.5160621837988283e-02
      -6.3602881104161402e-02 -4.2459988457301444e-02
      -3.3418368581791973e-02 -2.0198098886581688e-02
      1.0681267565390819e-01 3.7462961879210471e-02
      -1.1072780481987229e-01 -6.8170043821728407e-02
      3.7902431802461570e-02 -7.4089554583081266e-02
      8.7832261737299647e-02 5.8858516842343001e-01
      1.1767218928662489e-01 1.0885864243590842e-02
      -8.9843504675997258e-04 2.8834069857765529e-02
      8.8807652317601252e-02 1.0388826632268509e-01
      3.3190734099555447e-02 5.1309238004632655e-02
      -4.1497885113200189e-01 -7.1409603260570539e-02
      -1.3930036816605362e-01 9.8389499190947666e-02
      -1.6179958465726413e-01 1.6747958955925446e-01
      3.7647713553977211e-02 -9.6371245254001286e-02
      -1.1823840584643794e-01 -1.6689803271548079e-02
      -3.7137403684200154e-02 -5.8570715633780898e-02
      5.9166323721429638e-02 6.1865535128831700e-03
      -1.8643575184521623e-02 -4.4869492334915398e-02
      -9.6217906596308064e-02 5.8931380590898329e-02
      1.1458634180132857e-01 1.7978574748468631e-02
      1.0703301289462025e-01 1.1688465849324464e-01
      9.8742127283275513e-02 -5.2519619178016647e-02
      3.8105905472400427e-02 -4.8003436404173705e-02
      -2.8283456182775765e-02 9.4090804993664234e-03
      7.0194369273959500e-02 -1.1524641712699167e-01
      -3.8306603968813510e-02 2.6466520751447752e-02
      -1.0447385003466525e-01 5.1242876373702576e-02
      1.6025952977110333e-01 -2.1275201126239460e-02
      9.4988658935612494e-02 -1.0528358053379160e-01
      5.6252845872757889e-04 -7.0201329569239274e-02
      4.4370504805462799e-02 -6.1473293420590769e-02
      -5.8829719757691835e-02 -3.5205451001148962e-02
      -1.1060735572872195e-01 8.6575958531396990e-02
      -4.1090726315693459e-02 -7.4205598529277911e-02
      -1.3545734429989453e-01 -6.9777058233792558e-02
      7.0439127199822815e-02 9.2876854973300685e-02
      3.7896489999668152e-02 -5.5109731405680908e-02
      1.1011884314465860e-01 -3.4476877511775715e-02
      1.1609430785944891e-02 3.4206892665408543e-02
      1.0235098473583332e-01 -9.1300020314980645e-03
      -1.5098069586643914e-01 5.3435450121984182e-02
      -3.6526551724263528e-02 1.7793135023981514e+00
      5.1884538339739189e-02 -1.7809547761336929e-02
      -2.6324092261724288e-02 4.5631999049151314e-02
      8.9800788790176375e-02 9.1043041327661681e-02
      1.5021516723126465e-02 -1.5824143271909553e-02
      -1.0970069660072439e-01 1.4897984758704574e-01
      -1.1222067607322574e-01 -9.6836192944296504e-02
      8.2566296044066637e-02 1.1763552344182129e-01
      3.5986841921854647e-02 9.1774921410073349e-03
      5.7315369322717991e-01 2.6090956049950285e-02
      2.8987200456534794e-02 2.0846885095411740e-02
      -5.6454928531390509e-02 -3.3215411941409381e-02
      -8.0625592087068418e-02 3.3213849345023701e-02
      -2.2218612379553324e-03 1.6119962483614378e-01
      -9.3937231302437252e-03 -5.2342711880570346e-02
      4.1490462597132717e-02 -1.2708295098893752e-01
      -1.2366987610578151e-01 -3.4856260569394573e-02
      -1.4870668269910747e-01 -6.4771992151481453e-02
      -8.0116495142512623e-02 -4.7876926086728062e-03
      3.9355695935994299e-02 -1.1361995940068665e-02
      1.0596889783188783e-01 -3.3818451328272901e-02
      7.7149734754165020e-02 4.5745025081944269e-03
      -1.4841860477365115e-01 -2.8935652611349071e-02
      -3.7488962368484716e-02 1.2004800486334627e-02
      6.2041493486353690e-02 -3.9019765962547909e-01
      -1.5604410388935456e-02 -1.7897381405303791e-02
      1.0877201590357823e-01 6.8603783884180189e-02
      6.2651296606561324e-02 -7.6321535203765251e-02
      -6.3072472750368577e-02 -1.7588536220496297e-02
      1.5075140268578376e-02 -8.7360486744009740e-03
      4.6970451360857764e-02 5.1938013605287145e-02
      -6.6570549246887309e-03 -6.6315298868783012e-02
      -1.7980468229476368e-01 4.0359084904228307e-02
      -5.8459468939845612e-02 1.6639357847029770e-01
      -1.3665805835284093e-02 3.4281605865495446e-02
      6.4547450132988640e-02 -7.2266328412109240e-02
      2.5957301572854603e-02 -8.5455674201530385e-02
      -4.2821166124839501e-02 1.5037310954111077e-02
      -8.3166457598214741e-02 -5.7588710173199715e-03
      4.3594448666075196e-02 7.6682529382865364e-02
      -6.1794144114009845e-02 -8.4104348658667338e-01
      1.0194233504250577e-01 1.3609216054645041e-02
      2.3175015985646235e-02 1.0396883120075754e-02
      -6.5936624538098884e-02 -6.8871174590862283e-02
      -2.5909176153283892e-02 -6.6194438656390764e-01
      7.1386449170371097e-02 2.5477122704436923e-02
      -7.1504318217789110e-03 4.3611840697763173e-02
      -5.8673873652096718e-02 -1.7640910611917564e-02
      -1.5828959097713390e-02 -9.8841883353164448e-02
      1.1618318580147434e-01 -7.8851778832850175e-02
      2.8247463078779518e-02 -7.6055378637943816e-02
      -9.1768147882664054e-03 -2.9396933269762326e-01
      -6.5255700117690857e-02 -2.3957850496899934e-02
      -1.2406991475633970e-01 8.1896879293297652e-03
      4.2367143906758484e-02 6.5900219677422572e-02
      -4.6571957532282854e-02 1.5309135968559748e-01
      3.6949943489830411e-02 2.1387025788883995e-01
      5.5417033146064970e-02 8.1549820935148051e-02
      1.3526194581200365e-01 -4.4116943716520474e-02
      1.3970444985529332e-01 1.2603400526317504e-01
      4.7684758901352910e-02 -2.1429044719112486e-01
      8.0431157504076631e-02 4.6254676503328908e-02
      9.2897747856205727e-03 6.9783593540564071e-02
      -8.7246953202087696e-02 1.3529572465306118e-02
      1.0964605737932019e-01 -3.1202306488585735e-03
      -1.8623567097874954e-03 1.1747929866218566e-02
      1.9177085407169048e-02 4.3147209675082357e-02
      -1.1421147006507557e-01 1.4218690924092542e-01
      9.1192553379343504e-03 8.9032514256970299e-02
      -1.0929733375265711e-02 -4.1585612429685765e-03
      -3.1502211031045911e-02 -6.1571123332752414e-02
      9.5138839147879323e-02 -8.0964343354160730e-03
      1.2603673766855783e-01 -4.1298360503091984e-02
      1.3985359288815302e-01 1.7672624681315245e-02
      2.8018995221163138e-02 -9.2150603808781306e-01
      4.1021246364696208e-02 2.3603048174716052e-02
      -6.8702943084819737e-02 -8.0121204624580000e-03
      3.5294829896758251e-02 -5.0103872140668429e-02
      6.3299660671702548e-02 1.5816520083899731e-02
      -1.7932952124988444e-01 -1.7770299641446864e-02
      -5.8175418657774182e-02 -9.9536272886838043e-02
      -1.8077536132050043e-02 -6.1586930998743395e-03
      -3.4441094671086414e-02 -9.9520803690448176e-02
      2.9266152628856701e-01 4.6247442381053057e-02
      -1.1023098498706788e-02 -7.1473169369608319e-02
      3.4535188031949812e-02 1.0533578952832141e-01
      6.0886361908287459e-02 4.1561612073955567e-01
      5.7886611113384195e-02 2.6720034004648917e-02
      1.0764913426811842e-01 4.2136162201350136e-02
      1.0110083557629949e-01 -1.3335792566154180e-02
      -1.5978495441484847e-02 -1.1101186061965129e-01
      4.1497555434492933e-02 2.0430603604670514e-02
      -7.4826624398270827e-02 6.2972530713758884e-02
      7.5950042283904354e-02 -6.4206161732333678e-02
      3.6809363690574623e-02 9.7085798267296144e-02
      -5.0659527403763137e-02 4.9309642116015025e-02
      1.5454580479035526e-01 -5.9873900223181210e-02
      2.0971476532219285e-02 -4.8549943913148312e-02
      -6.5267108012076858e-02 1.1366338773159693e-01
      4.6937404535968624e-03 4.4851759113139740e-03
      4.1691248989441003e-03 -8.5317701533709600e-02
      -3.5805837089855785e-01 1.1878857998257419e-02
      4.7596605249774328e-03 -2.8276579481451822e-02
      -1.1458407118966715e-02 -6.8828870489234556e-04
      1.3264091714502654e-02 1.0375257457266124e-01
      -1.4828055572948232e-01 -1.1646591559114567e-04
      6.0242028413776225e-02 5.3719826138413224e-02
      8.0986100493853352e-02 -1.0503200042076744e-01
      4.3394142322570765e-02 5.1400491454193110e-03
      -8.0017246680369580e-02 8.8168253624653636e-02
      -7.5031165115336182e-02 7.0980409186983007e-01
      -6.6189852189103643e-02 1.0393086058379980e-01
      -5.5453080319185014e-02 -1.4762989533871601e-01
      5.9905856440510011e-02 2.0996667637600084e-02
      -5.2330299083216708e-02 -2.9974177889941882e-02
      6.7838554666913966e-03 1.6389345658726434e-02
      1.2017837247156854e-01 2.2719135045451663e-01
      3.4258140769160651e-02 -2.7263729379576662e-02
      8.4842921193601123e-02 3.0112565256506563e-02
      -2.6685380868438791e-01 -1.7199267441129078e-02
      2.8135175043520522e-02 1.0557230206227404e-01
      -2.5468029260011623e-02 4.2294555505082730e-02
      -1.1310596570184676e-01 2.7847813721216755e-02
      -2.3106025067277942e-02 9.9029733411419824e-02
      -4.8504798425212277e-02 1.7310690823890793e-02
      4.0524733631233448e-03 8.8679544942807401e-02
      -4.2978297236580837e-02 -6.5903678657003001e-02
      -9.4442113318185580e-03 1.7856629266907779e-02
      -6.1423726312375811e-02 4.4359024073584732e-02
      -1.9095779048145772e-04 7.9849108968966714e-02
      -7.4172803465846759e-02 5.3700385512208161e-02
      -9.0692596821943500e-02 -1.1120163004568651e-01
      1.0502371668075874e-01 -9.5109671935045839e-02
      5.6681106811931842e-04 1.0490777635011013e-01
      9.3549669264025567e-02 2.5038716213480673e-02
      4.1661632464061599e-02 9.4624970778872788e-02
      -5.3788747329939268e-02 7.5283470457140440e-03
      -4.2758020331262407e-02 4.0962879273273280e-02
      -5.2943501878757022e-02 -5.5869567269807116e-02
      1.3554314897140568e-02 1.2583062569831618e-02
      4.6739162871796351e-02 2.4890608519827724e-02
      -5.4553940208802283e-02 9.5544984229299600e-03
      4.9775553586382811e-02 8.4718656552596291e-02
      9.9872597782864111e-03 -1.7302291524273671e-02
      -4.5751091946700587e-02 -8.1248602498270914e-02
      2.9456605985258240e-02 -4.4759650995482778e-03
      4.6319745952626043e-02 6.0197686526494328e-02
      -2.1987077175933331e-03 -5.3136191799953020e-02
      -7.0161600386104174e-03 -5.3989003523352751e-02
      2.4052715089169129e-02 1.1563865559347521e-02
      6.2649407172494453e-02 4.2030985450021985e-02
      -9.7014550933119503e-02 1.0167876810601659e-01
      6.5438252532485611e-04 -1.0061185734026218e-01
      -3.3594167133170726e-02 4.9815933636534492e-02
      7.5369002857658199e-02 -1.0163146631426159e-01
      -1.1747450080371671e-03 9.5826075864930832e-02
      1.0520170104179656e-01 -9.6709020354702156e-03
      1.6966623514493590e-02 9.4083109556135205e-02
      3.9667592996075265e-02 3.2365917036635668e-02
      -5.5772983697760292e-02 8.3700549761941568e-03
      -2.5213399344616073e-02 2.1443870923569513e-02
      -5.7950313158938914e-02 1.8730549081599401e-01
      -3.5228285240445065e-02 5.6989810909303128e-02
      3.6524995517639651e-02 3.5019788286969021e-02
      -7.0178118308712567e-02 -1.2711065722807183e-01
      -3.2712992666820012e-02 -4.9131375092447235e-02
      -1.0469670042725411e-01 -1.6243344464226123e-01
      -2.9263030503419080e-02 -2.3438466069254171e-01
      -7.4767377945111721e-02 -1.2982476662159967e-02
      -8.2350946569098457e-02 -4.1281066568135127e-02
      -8.3755201933034262e-02 -2.4475866931360055e-01
      -9.2687846804242954e-02 -2.0623847508897834e-02
      1.1597531123809791e-01 -1.1827570937849672e-02
      1.0494958784211852e-01 6.0690436918172101e-02
      6.2690366605587564e-02 4.9128068484070121e-02
      -7.5469650514971690e-02 6.8316138511463842e-02
      -2.7480572271672346e-02 -4.5591024062212014e-02
      7.9879739710061293e-02 -3.8164916832829729e-02
      -4.5359042469753530e-02 3.5427249990541677e-02
      -2.8784372859937492e-02 5.8636024634156611e-02
      8.8541312652102286e-02 1.0684791973104740e-01
      -4.4869882056187596e-02 1.1540058298787917e-02
      -6.1245781723936334e-02 1.0431079661611409e-01
      2.8082359613451915e-02 4.4244632808799624e-02
      7.3126250701868165e-02 2.2954587770446941e-01
      7.4198451581060379e-02 3.6792001838698629e-02
      -2.5047069475297168e-03 -1.4904798347512771e-01
      -3.5549337273072357e-02 1.3570330119983548e-01
      3.3100397264225076e-02 2.0756621806124149e-02
      8.7608677896994946e-02 2.5451345088846129e-02
      1.0469741774573445e-01 -2.6614043033266969e-02
      -1.4035221181441359e-02 5.0341611342797722e-02
      1.1892288469540085e-02 5.7462272359908396e-02
      -7.0519601609738428e-02 -2.0478447864395385e-02
      -5.9466942417329471e-02 5.2781240282922248e-02
      -8.1111735302101848e-02 -1.1007467129590541e-01
      3.5012678406359963e-03 1.8299763259746204e-02
      1.7981405145453745e-02 7.3077901301137477e-02
      -1.2187587766152183e-01 -9.9013640468122818e-02
      4.4983143530421356e-02 -6.7360890935987044e-02
      4.9569174865181642e-02 4.9780841419794844e-02
      -3.3968150967477372e-02 -6.7271909262774085e-02
      3.6335681723420332e-02 -9.4184825328406926e-02
      -1.4095117063355166e-02 2.4048568327772683e-02
      4.8941192907487503e-02 1.1575646332154545e-02
      5.3846731090769151e-02 2.5693219728262350e-02
      -1.7600633044023334e-01 9.7016983001500370e-02
      -1.1791525532403230e-01 1.2384223452751632e-01
      2.4365183238700933e-02 -3.7186205026513215e-02
      9.4964089753138539e-02 1.0901914184720930e-01
      -2.3930559399090966e-02 1.0984621866805569e-01
      -4.9532842886942728e-02 -3.6030593407804852e-02
      4.8009360620872243e-02 -1.1509486689599684e-02
      1.0179877481203746e-01 -1.0741671946284415e-02
      -7.0686953876706510e-02 5.5809139703542468e-02
      3.4429531926574213e-02 -2.6525011002881828e-02
      4.6625811739096225e-02 -9.5248123521683797e-02
      -1.2213778658232022e-02 -3.8624942711659623e-02
      -8.5598637303975156e-02 -1.2971613347903738e-03
      5.5987392415458921e-02 -1.0042171383207260e-02
      5.4554034520106189e-02 -1.7335871207069117e-01
      -6.5172071499145140e-02 -1.7772027861278031e-01
      -1.2499863967042404e-02 2.6900979725784233e-02
      -1.4494924276278254e-01 -1.6792632147481567e-02
      -3.9879734062661584e-02 3.7937464232613578e-02
      1.0015467028782163e-01 -1.0163239236564967e-01
      -7.2770607653049227e-02 -7.3391027076173995e-02
      -2.5418920029069265e-02 -7.8251156427871262e-03
      -5.1928730894554354e-02 7.5257888339632321e-03
      -5.9539246560845638e-02 -3.9727700336034434e-03
      1.6837954722215453e-02 -4.4667919570554611e-02
      1.1929930355198045e-02 -4.1336642428925638e-02
      -4.3200581456299195e-02 -4.7899721600412268e-02
      -5.2134012118073746e-02 2.4795977784815085e-02
      5.3881046633107235e-02 -8.0179725111598474e-02
      4.3651647417263933e-02 -8.3243932804254447e-02
      1.2622094616958809e-01 1.0481480396639766e-02
      6.2738036425997248e-02 -3.9432192385565534e-03
      -4.4696690271473966e-02 -7.4272003819026294e-02
      -4.7810610467062413e-02 5.3672810614587355e-03
      6.9453419899650176e-02 1.8627077242695158e-02
      1.7506182107437102e-01 1.0393120506985762e-01
      -7.7428476911872102e-02 9.0152566311107615e-02
      5.6310835416471430e-02 -8.1683509115698008e-02
      4.8148649618622655e-03 2.0100080061714262e-01
      -8.3133770289008611e-04 -2.3047614635782355e-02
      -1.1106284858991875e-02 -7.2470999879360870e-02
      -4.8511914366682514e-02 -4.7245550671999606e-02
      -6.9161552345032920e-02 2.6219745976330266e-02
      -7.9163719768715834e-02 1.8726337655285259e-02
      -1.5558064674534619e-02 4.7856066146811954e-02
      9.4944866831119992e-03 -7.4363652653256535e-02
      -1.2420430950318388e-01 -9.9558245852183744e-02
      6.8421334444712517e-02 -5.8965455154534711e-02
      9.0396919879762214e-02 4.3682255156713812e-02
      -1.0411098658426477e-02 -4.7323963216596127e-02
      2.9195031909013836e-02 -1.7540859068185866e-02
      3.9505858234244996e-02 8.7553090903664699e-02
      -2.6302654022562270e-02 -7.8740978339706308e-02
      -2.5790320863793851e-02 6.4516393763110400e-02
      4.4138853372134343e-02 -4.6276293936942964e-01
      5.3875136420853099e-02 3.0801135832535919e-02
      -6.6605045802921398e-02 5.1669739044969661e-03
      -3.5591337778109393e-03 4.0937439094109525e-02
      -7.3431103584427934e-02 2.7438363352686607e-01
      -1.3067320186885710e-03 -5.5207208807641649e-02
      -3.8740342224469794e-02 -1.0975314037122309e-02
      -8.7263547152501605e-02 -3.4532555390475402e-02
      1.3607034212251116e-04 -8.1971011197229618e-02
      1.0325403003911707e-01 2.1885815176725335e-02
      6.9878461707818626e-02 -8.3448276402168925e-02
      -1.8527540517850910e-02 -1.2975946859498005e-01
      -3.2798530836606415e-02 -1.1485303620763049e-01
      -8.9666991493711296e-02 -8.3183878252802407e-02
      6.8510589255390372e-02 6.2407036462397529e-02
      -1.2747556657206097e-03 8.1912862898875630e-02
      6.7106118898723546e-02 2.9132146403266379e-01
      4.8185997323017316e-02 2.3705160247119517e-01
      6.6070811033898016e-02 2.7798453001478908e-02
      7.3187544001304922e-02 1.1993152427008170e-02
      -4.0050616571068967e-02 9.9518388654574463e-02
      -7.5213546532805903e-03 -7.7819321418718446e-02
      -1.0690682150030884e-01 -1.0181568372795640e-02
      -1.0472076837526953e-01 8.3811624829076392e-02
      5.7865506761896245e-02 -4.1262707186378797e-02
      7.9772423990619443e-02 -1.0893124061197688e-02
      -1.6450526798590763e-02 8.7842321358734474e-02
      -5.9669178478571498e-02 2.6965687501923474e-02
      1.3322935979061177e-02 5.5007718315615864e-02
      9.4735755822701606e-02 -2.4977404108018464e-02
      -1.1207433680119597e-01 -9.9627678235517284e-02
      6.2245166346952825e-02 -6.6988003892365311e-02
      1.0482087561050042e-01 -1.1319455308847276e-01
      -4.8063160513382469e-02 1.9074406185943377e-02
      -4.2940758141944181e-02 -3.7293878510244538e-01
      -1.0862251151400094e-02 7.6462886349234274e-02
      -8.4506451109674467e-03 4.0005209755968628e-02
      7.9781058608585170e-02 -4.2968219643058643e-02
      -6.3965363720198502e-03 5.8193900350222136e-02
      2.5618813938878682e-01 4.9122910347300548e-02
      -7.4803265719088463e-02 -1.0488287229597650e-01
      9.0258915581397467e-02 1.7466652907764235e-01
      2.9579403724946600e-02 4.5690948189298485e-03
      3.7264066657415875e-03 2.6009888187579693e-02
      -4.0886351732535658e-02 -5.6613204439576056e-02
      1.3228894237909214e-01 8.5982211562704386e-02
      5.9899129251830815e-02 -5.2804125514906777e-02
      -7.7623161725941719e-02 -6.5674922091055535e-02
      4.3159233533514779e-02 5.6694527910331445e-03
      -4.7634716578076532e-02 3.4132929447950266e-03
      -4.9686501678799996e-02 3.9027699692566628e-02
      -8.8652493738572580e-03 -1.0508380069505797e-01
      -1.6475424553583300e-02 7.8964971585389565e-02
      -3.2430316737858546e-02 -8.0940822550255337e-02
      7.0908368102380839e-02 6.3486065666496422e-02
      -5.0238734934139356e-02 -5.6127144626432514e-03
      1.3271564678027933e-01 -9.3344460725368547e-02
      -1.3419215991140047e-02 -8.0051255074388206e-02
      -3.2609370278337067e-02 3.1908313719465987e-02
      -4.3241484904013645e-02 -1.0387602778177038e-01
      -3.4122573217672855e-02 -1.1933456820365393e-01
      1.4286458437199939e-01 -5.8147893762153097e-02
      -1.3632490578831756e-02 -1.2690532717063979e-01
      -1.6274599698648425e-02 3.9630295010048049e-02
      -4.8889626850756623e-02 3.3475787534786777e-02
      2.6053358905646713e-02 -5.7769313805350657e-02
      -4.4121420551627918e-02 1.2827043557337275e-01
      -5.9088241166784315e-02 -2.1185599802856541e-02
      2.6377353825833193e-02 -6.3775843248912348e-02
      -5.0797971836065825e-02 -2.7507300896092266e-03
      1.2560647284442082e-02 -1.8495900560733411e-01
      -6.9061251664231216e-02 1.7000763256371471e-01
      -1.2605040651662491e-01 -9.3264670803347174e-02
      1.0380330820148108e-01 7.7276885335002349e-02
      -7.9989776587303663e-02 6.2987362828984456e-02
      -9.3319108537744638e-02 7.5504941875947043e-02
      7.1100711731870256e-02 8.2505904880583125e-02
      -1.4156741626983826e-02 2.1408133776979140e-02
      9.6689018745477237e-02 -1.4934425808561423e-03
      1.5641161259750042e-01 -1.6842120169494802e-02
      -8.0202243020896846e-02 4.3667694021317323e-02
      -6.5454627848281391e-02 3.2087086302837943e-02
      7.2496602741095692e-02 8.0328624514242761e-02
      -1.2732385280826049e-03 3.9686299496589757e-02
      5.8085130443476962e-02 4.8563290840770448e-02
      3.5124261172659946e-02 3.3973041076930241e-03
      -9.0858088526262940e-02 4.3848815068530167e-02
      1.1325069967086826e-02 1.9253887333245491e-02
      5.8407149031564742e-02 1.5672864657532808e-02
      5.8339266753637244e-02 7.3723460948711489e-02
      -4.2827634980905235e-02 2.3033818041078791e-02
      2.9186748956620656e-02 -4.6180137101204999e-02
      5.5895374751953719e-02 2.6510834181794164e-02
      7.0304701394823407e-02 1.8308060568281551e-02
      1.1274579690184725e-02 3.1881991685397709e-02
      -3.8945261194588125e-02 6.8330258256754831e-02
      1.7182533924663866e-02 -5.0474586182171953e-02
      2.5604898602677967e-03 -1.8722500851769755e-02
      -3.7800637812432154e-02 4.0964449978742622e-02
      1.1754655825686143e-01 2.9233261524419255e-02
      -4.1166557182775072e-02 -1.0853286969650494e-01
      -6.3475014341204686e-02 -6.4641152446003908e-02
      -1.9301939737086916e-02 -4.5800806382857391e-02
      -4.2853262994884102e-02 4.5441402706657447e-02
      -2.3547060074633575e-02 2.9155710818873436e-02
      4.1596325421450177e-02 1.8817568847329401e-02
      -3.3073702493425269e-02 1.2619571729109777e-02
      -1.3682005999093720e-02 -2.1209060944271642e-02
      1.5144456614638828e-02 -4.9993668732941289e-02
      -9.2106649317752823e-02 2.2655224888184260e-02
      6.3661580587656988e-02 -3.0522474478163558e-01
      -4.5189433794711034e-02 -7.8409079085261277e-02
      -6.1989229399630184e-04 1.7738267527254870e-02
      2.0281673360781658e-02 -3.7513661791760369e-02
      -5.0852013680878286e-02 -5.2746846548214224e-02
      -9.7288263305013584e-03 7.4840766735075795e-02
      -3.2208696846849967e-02 2.1372588060744747e-02
      8.1644669768836817e-02 -1.0418392642551896e-02
      -5.4622522327661252e-02 2.4048110498364621e-02
      6.6289367302198435e-02 5.2979337399253881e-02
      -2.4204823640960656e-02 -1.8568025849911535e-02
      -6.5324253459871071e-02 8.7143515405398664e-02
      -4.9769537487020142e-02 3.9271656345255283e-03
      -1.9795900528982613e-02 3.5207521986665262e-02
      -7.2708206671669370e-02 -6.1778713321477260e-02
      2.7797882271793240e-02 -3.3341976049918919e-02
      -2.9130996787871632e-02 -1.7119633950453952e-01
      -5.8409029383981757e-02 3.1455751040858196e-02
      2.6755349645172316e-02 -5.8040465943165115e-02
      -4.1917361134000457e-02 -1.3927716925325248e-02
      -1.3468586930813525e-02 1.3264112671819039e-01
      3.2855293045275839e-02 2.8661306353381488e-02
      2.0197443110348420e-02 9.4382996665525742e-02
      2.1137900882422397e-02 6.1130324576983842e-02
      8.9126236451354032e-03 4.6144355334518578e-02
      -6.7485882708497966e-02 1.7704171027346689e-02
      -4.7580772743762406e-02 1.7317420871506197e-02
      -4.0313731711467101e-03 5.4289234439183029e-02
      2.4808292399399304e-02 2.9311505978581856e-02
      4.5248469960742693e-02 -5.0023182917404194e-02
      2.7375402393501433e-02 -5.4048332713723286e-02
      -2.1432939775113669e-02 -3.3852607180708864e-02
      6.2355142255982286e-02 5.1672053442122286e-02
      3.6389562283230564e-02 1.6597998052999142e-02
      1.0058719649967827e-01 -4.8499481610938554e-02
      -2.0527279317892989e-02 1.6429380823778518e-02
      -1.0760471237866542e-01 -9.5662111574281311e-02
      -6.0578390249014416e-02 -1.6876883885979539e-02
      -6.5626770590011776e-02 -4.8618999464537696e-02
      -1.4698770904312706e-02 4.7629058853131977e-02
      7.2903951181375378e-03 4.0383054714605293e-02
      3.6266319630116561e-02 -1.3115993980802337e-01
      -1.9285601460211400e-02 5.5002239924139698e-03
      3.7537880053504370e-02 -6.1804789982252530e-03
      -5.1781867492220732e-02 -1.9605444686224691e-02
      -7.6298689302127493e-02 -9.4756652494332530e-03
      -5.5748226042041930e-02 1.6607560027666043e-01
      -7.4028111993981900e-04 2.3998938121009776e-02
      5.9406923490181781e-03 -6.6747738443128202e-02
      5.0016864254212035e-02 2.4770390397403429e-03
      -4.5322670210210754e-02 -5.4740438679390199e-02
      4.5483796149405939e-02 8.8986373673373716e-05
      1.7810825853502445e-02 -1.8073115235770220e-02
      7.5362197842463299e-02 4.7236437243295355e-02
      3.6723173535190293e-02 2.1946645780588699e-02
      -4.9717492141028621e-02 -4.0112636746490772e-02
      5.7663280893357788e-02 8.0727733065496438e-02
      -3.9576287463035154e-02 3.1337025427797136e-02
      -3.0155899894584591e-03 -1.4184931126291815e-02
      2.9679834948117875e-02 -1.1258235856396839e-02
      5.6692275632537287e-02 -5.2186534152978276e-02
      -1.9048206430326725e-01 2.4749911942857031e-02
      6.5680332150352683e-03 8.4202190282978345e-02
      1.1333196189254647e-02 8.9763128597820877e-03
      -7.1454672474505238e-02 6.4159042161658714e-02
      5.9207665097053601e-02 -4.4201750008299352e-02
      -4.6270046386009981e-03 5.0293899386827509e-03
      -3.3612148385343064e-02 4.3330131268988339e-02
      -6.3778818036043627e-02 5.5096672954209301e-02
      3.1973248079089321e-02 -5.9604810305417720e-02
      -2.5032968504169539e-02 1.0471744654950485e-01
      7.7224713935489311e-02 -5.1804698131615798e-02
      1.9307145516326962e-02 1.0799247675725491e-02
      2.0805237119471007e-02 3.6811337937266972e-02
      4.9966753905916511e-02 -4.9765523630376299e-02
      7.0630447493499116e-02 3.8828048257667142e-02
      5.3309382103578051e-02 7.1111973526283540e-02
      -8.3389446261670275e-02 -5.6442281658687303e-02
      -6.4253248298498395e-03 -3.3411046315091589e-03
      -5.2038184819520203e-02 2.3706275103153367e-02
      -2.1129108013458586e-02 3.7969747050979420e-02
      4.1371961972035479e-02 1.0297895191436703e-01
      -2.5689700184486887e-02 -4.8865463353558049e-02
      -1.2929118508030296e-01 -1.0806469366406717e-01
      7.3103449312643322e-04 1.2279361947900698e-02
      5.4956679727046542e-02 8.7378024556600646e-03
      4.0847952449516806e-02 -5.8030140812809709e-02
      -3.6514235205639047e-02 6.6886141087715956e-02
      1.5469509913210371e-02 -4.9030881061494806e-03
      2.3502871234910832e-02 -6.3949581501402813e-02
      -5.1220742428163456e-02 5.7155747764796254e-02
      3.4157930019223633e-02 -3.7848541327865678e-02
      6.5679204966954161e-02 5.3079206788887362e-02
      1.0880097547814670e-02 -8.9844435490118460e-02
      1.5466441940170764e-01 -6.2895545798043184e-02
      -2.8397704018583826e-03 3.8556545937040894e-02
      3.2551566089211940e-02 -3.4578606753090060e-02
      9.1953847252705823e-03 -4.5401828937016379e-02
      7.8681060114664261e-02 5.4193695833579407e-02
      -8.0812900893763487e-02 -7.5146754222354992e-02
      -7.3568436300057022e-03 -2.2463410157449511e-02
      9.9626624680389658e-02 -1.8343463637895543e-02
      1.1670695538328736e-02 -6.6266416090345018e-02
      4.2760530609756799e-02 -2.3194800213286678e-02
      -1.5526350994724731e-02 1.1474942355698441e-02
      3.6001288981240380e-03 5.0414998091539646e-02
      -4.7985883749137384e-02 -2.6721773987509211e-02
      9.3390836277947128e-02 3.5102293054896172e-03
      -7.0567364024783927e-03 1.0264803117484940e-02
      3.1435959822632163e-02 1.4714530611242116e-01
      4.6534545583266432e-02 1.2773562099135949e-01
      -1.8170286267258588e-02 1.4009389747200240e-01
      -6.0652712510927444e-02 3.5321850054097020e-02
      -4.8755067529867642e-02 2.8788366853914952e-02
      2.0110089817707209e-02 1.0721247935224315e-01
      -2.8325908405791630e-02 -3.9573641982238818e-02
      -3.2912082502184060e-02 -5.4525073470053982e-02
      -1.3497300137863566e-01 5.4823677379783895e-03
      5.0418108554769928e-02 -2.9902098330727656e-02
      -2.1706774153351018e-02 7.1939246190483057e-03
      2.8363550458608600e-02 -3.7468654328959142e-02
      -2.5066848870494287e-02 2.4534977949527612e-02
      -1.6827761540243451e-03 -1.1206123548450467e-02
      5.9222862742717867e-02 -6.0999004651102591e-02
      -3.9757837981952156e-02 -5.8816886809111785e-03
      2.4787719388996547e-02 -3.8189597839086299e-02
      6.3170474326714118e-02 2.6643392140199973e-01
      4.6684147794343656e-02 4.4198138812907968e-02
      6.1907029109648124e-03 -1.7305259433075811e-02
      -4.4019410669922501e-02 -4.4246325441911850e-02
      -1.7061301433381155e-02 -1.1233900604667214e-01
      2.7024322612376004e-02 -3.4237706078116187e-02
      -6.4245323767712817e-02 5.3928555076487326e-02
      3.4578740526814360e-02 5.1011391522924922e-02
      1.9294357700273251e-02 -2.9288445407660509e-02
      -1.2964336121850824e-02 7.0411105281763503e-02
      -4.8284389198345191e-02 -3.2713833028240276e-02
      -2.3630885834632045e-02 6.4363005494799660e-02
      5.2922249176353443e-02 6.7006965636008716e-03
      4.6673672493005892e-02 2.8875409431574860e-02
      -6.7924947408918732e-02 -1.6879761700535807e-02
      -2.8124321181030136e-02 -3.3126483951378564e-02
      3.1205061542172757e-02 -6.9441739800506122e-02
      4.7356868420299625e-02 -2.4722877325292686e-02
      -4.4340016351712315e-02 -2.1513479080915974e-02
      1.7146472444989239e-02 6.7520677909878424e-02
      2.7233685266195261e-02 3.4929141039992215e-02
      -2.7836216275807190e-02 -3.8297058220699014e-03
      -4.2939113992518985e-02 4.3821812668596812e-02
      2.5414296143966514e-01 -2.5161200073613100e-02
      -1.4986067429408320e-02 -4.1983545475636139e-02
      1.9633332294262212e-02 1.3960773424399833e-01
      5.8024458640459575e-02 -9.9313402562525771e-02
      -2.7408415664448783e-02 -3.1763046991721514e-02
      -3.0335420509284092e-02 -7.4420149768228598e-03
      3.7190087279168026e-02 -1.2078537938320944e-02
      -3.3802233459666743e-02 -1.9579061897760486e-01
      -3.9276981720892432e-02 -9.8165530250725139e-03
      4.5345597001813315e-02 -4.6313521832947770e-02
      -6.6561165489790408e-02 3.4957601989430778e-02
      -1.9198527804983843e-02 -7.0636333420101421e-02
      9.8179832164132688e-02 -2.8390679567344135e-02
      9.9400638573073270e-04 -1.8632414794583513e-02
      4.2614267460998216e-02 1.4553411023932561e-02
      -2.8496312514912414e-02 -3.7212738430384681e-02
      -5.1173603792171736e-02 7.9424142505031714e-02
      -6.5135836232332198e-02 -6.3950064438114115e-02
      -6.5410759884237432e-02 -5.7315228128438894e-02
      6.5216500204521841e-02 2.4359140767445185e-02
      -4.6274283639410801e-02 9.0063627218472025e-02
      2.7146346320213056e-02 1.6713842234156302e-02
      1.2655354961045448e-01 6.6453422237164633e-02
      3.9278566478198287e-02 -1.3526771103717070e-01
      -9.7847976437121773e-02 4.5603473989454968e-02
      7.1968054182784028e-02 -4.8299005260177642e-02
      -1.7702297145246030e-03 5.4745077495242420e-02
      1.0994767439610466e-01 -6.4754700777762533e-02
      -5.8135274700789205e-02 5.3156051518824070e-02
      7.9907913631414390e-02 -6.6253034490771842e-02
      1.6452716560722992e-02 7.1769514770579704e-02
      8.0847980538255815e-02 1.0100481489535842e-01
      -1.8992674153923684e-02 -9.5627308505150240e-04
      2.7262482261803622e-02 3.9069286208717954e-02
      3.9808982358998601e-02 -4.9790897866361691e-02
      -1.9349947469764716e-02 -1.0673630628103227e-02
      -1.1825591115735596e-02 -2.1684749505125511e-01
      6.2161960377330065e-02 -2.2580709975103461e-02
      -2.8485722067485748e-02 3.5371847370873226e-02
      5.4574371318837307e-02 6.1293192197322387e-03
      1.7810866120203497e-01 -6.7266261037846678e-02
      7.5129288559590487e-02 4.7216301526682727e-02
      4.8425802671573079e-02 -5.3758444369382548e-02
      6.3978186573850175e-03 -1.5297965708134947e-02
      1.0209864714465797e-01 9.5511938461565526e-02
      7.2507549660153700e-02 -6.9502505865994324e-02
      -4.4864650585527729e-02 -1.4900682917307741e-03
      -1.1787025246335835e-02 1.3360938410051015e-02
      -3.5392179063196749e-02 2.4016484634544821e-02
      -4.7522129717953197e-04 -4.1832351168722401e-02
      8.5236153239011334e-03 -6.0381366179754987e-02
      -5.3283064001487183e-02 5.5878135551414305e-02
      1.2826903291967133e-02 3.9189810472831300e-02
      -8.0789656146786435e-03 4.7953634472225573e-02
      -5.8980897892638565e-02 1.2530610157532237e-02
      -1.6151608140715829e-02 -7.8920971090002384e-03
      3.9515538137442324e-02 3.3337428930147461e-02
      2.0287352129283540e-02 9.2313109709304980e-02
      -3.6399747634814392e-02 -3.9801491356350915e-02
      1.8557401352710487e-02 -4.4057852646440646e-02
      -7.8657065153390507e-02 6.5153435330102621e-02
      -3.6449055676058897e-02 7.4827120682169540e-02
      -4.0600245255925392e-02 -2.8554544765687095e-02
      1.2938460562337589e-02 1.9970914804163620e-02
      4.0574631680578198e-02 2.1148468758603607e-02
      5.8632409649074140e-03 4.8221878815262124e-02
      2.6588723524632648e-02 -1.7270887541531870e-02
      6.0111519232946622e-02 3.4690023131131252e-02
      -9.4162419832179364e-03 4.0316426656258633e-02
      5.5813636373223507e-02 -3.0805023639139766e-02
      -4.8143659479097912e-02 -1.3875096721238364e-02
      -3.2218203185102115e-02 1.4511334809844684e-01
      -4.4574679265249030e-02 -1.1776485356618156e-01
      -5.1055309681062186e-02 8.0242312823373629e-02
      1.0379156915420486e-01 -3.0063555195471596e-02
      1.3773556296324830e-02 1.0245674757003885e-01
      5.7374411298706025e-02 6.7726961633319377e-04
      3.9205677174407776e-03 1.1980803327292171e-02
      3.1860818589184201e-02 5.5323496823618035e-02
      -1.4150601586592874e-02 -3.1655182873483997e-02
      -5.3051268256248965e-02 -6.5250600523388699e-02
      8.4437567090930193e-04 -2.2755505048185874e-03
      5.2957140016041543e-02 -5.2014987602149038e-02
      -1.1893907948611594e-02 -4.3060840271800668e-02
      -3.7132457814889767e-02 2.9573264682721544e-02
      2.3993882975197160e-02 8.0535871415538265e-02
      -4.2211958684972468e-02 1.4371868567528520e-02
      3.1694630853814694e-02 -1.3669543866429978e-01
      -3.7931575823607518e-02 -1.1041536640970966e-01
      6.6669353165663789e-02 -3.5471661536283797e-02
      -2.7546890847009241e-02 -4.9452174831622672e-03
      6.0967476899464447e-02 7.3838338349467861e-02
      2.2503907198190953e-02 -4.6786520942603375e-02
      -3.4572536119227955e-02 -8.2109371643392923e-02
      -6.7291327338733609e-02 5.6011136876179618e-02
      -9.3006272911622986e-02 -6.0232740259084989e-02
      -3.6633190705492896e-02 -4.2501385962897091e-02
      -4.4823011886853982e-03 -4.0495821606528395e-03
      -6.9069424137174859e-02 -5.3517710804971905e-02
      -1.2020472186552796e-03 -4.2764648912403828e-02
      -5.2411490240665971e-02 5.4332506689236740e-02
      3.5116022551205155e-02 -4.2871609024948625e-02
      5.9939795137277978e-02 3.0767847759416794e-02
      6.9063888645919697e-02 7.1312825513294667e-02
      -8.9440530769513481e-04 5.3873078977823750e-02
      3.2492712244037408e-02 3.0143967912894431e-02
      -4.3545171525928659e-03 3.9678178150222523e-02
      -4.7161507873113150e-02 1.0004683738225059e-01
      2.6835147581758981e-02 -1.6066661519368650e-01
      4.1987580254265827e-02 5.3665393566595873e-02
      -1.7184514402997636e-01 -5.6679547614346126e-02
      1.7297243259796488e-04 4.4739273341867829e-02
      -2.3363787662066721e-02 -1.0236796681282972e-01
      3.5514861533655427e-02 6.6421932384987600e-02
      -8.6739711565982126e-03 -5.2780343353012425e-03
      -8.7921469604639937e-03 5.9487354230821854e-02
      -5.2497260887786786e-02 -2.2023956040894341e-02
      -9.9135252047829608e-02 6.5617777779398187e-02
      1.0135907835299654e-02 -9.4586202766986892e-03
      4.3717639339744679e-02 -4.0329035929582313e-02
      5.6413702345239763e-02 -5.4730183743469307e-03
      -4.7416071491163718e-02 9.3223701208109883e-02
      6.9757801440148592e-02 1.1288721133074217e-01
      -1.1869254617105750e-01 5.0301411318338984e-02
      -2.9660407566375266e-02 -3.9497156648707628e-02
      -5.3343793316845731e-02 4.8094856583665774e-02
      -6.5127473309462378e-02 -5.1580750513334685e-03
      8.7063886777332868e-03 3.1902512430316519e-02
      8.1913287049787772e-02 -7.8039286797400353e-02
      4.3469195729382286e-02 4.1190897691750827e-02
      1.9263416731272357e-02 -6.9249955802609356e-02
      5.2857050254407387e-02 -8.0284489846236845e-02
      -8.8185940247240566e-02 -6.4498949399735536e-02
      -7.1400665239829741e-02 9.9310892747004081e-02
      2.4873243291421147e-02 -7.6008817902827222e-02
      5.8650988192787870e-02 3.4841169058873057e-02
      5.5639853931241427e-02 3.8981607486034582e-02
      1.2359084731190513e-03 4.4119954055172383e-02
      9.6198388621591621e-02 -1.0859102008075503e-02
      -5.7459230390617899e-02 -3.8260907700720700e-02
      -7.8242677430574448e-02 4.7838655151042117e-02
      -4.9118116221788632e-02 -3.1560744837679851e-02
      6.4792614036665003e-02 1.8409099403501886e-02
      3.3712614173813285e-02 -5.8099880401982516e-02
      -9.5674469650600374e-03 3.0678889799839897e-02
      2.6824047936854133e-02 5.9484722654386653e-02
      5.8805376960169083e-02 2.2972260690583657e-01
      -3.1684620107548238e-02 3.5035995935547529e-02
      3.2278405621190498e-02 -5.0813825804008519e-02
      -5.1008537439207177e-02 -7.1405158939632993e-02
      -6.3993013950256845e-03 7.8512109477325565e-02
      -5.8913671273394939e-02 -4.1993567115116585e-02
      -8.0955395979017991e-02 4.2096068184425940e-02
      -4.1817314437893875e-02 3.0491003844586684e-02
      -2.2755646586803967e-02 -3.4373064585235223e-02
      -6.6550206557977928e-02 1.2465385319651639e-02
      -1.7547205913820738e-02 7.1057582532231892e-03
      1.0221350544672563e-02 -4.4828663696919915e-02
      -4.5999632765476597e-02 5.0731704951720948e-02
      1.9732627624624841e-03 7.3866353132946788e-02
      -4.0960318033633446e-02 3.6387603666629763e-02
      5.2099286634538063e-02 4.0963470687290414e-02
      8.2746317432796521e-02 -7.4800777090878068e-02
      -5.0199220814616662e-02 -4.2017739846462995e-02
      -2.0655225621900104e-02 -7.9223850007187901e-02
      1.2348199056337322e-01 1.0476358065558380e-01
      1.3782872882972330e-02 7.9446151430206946e-02
      -2.1862832242270373e-02 -8.4773048977390963e-02
      -5.4003649996903949e-02 4.4734477393652217e-02
      -5.4547611273752829e-02 -5.1073899516096768e-02
      7.2021765587571798e-02 -5.5322093089946241e-02
      2.4478794818820239e-03 -5.6355589335345319e-02
      -2.8206872836351284e-02 -2.7630923343196109e-02
      5.2260011389198918e-02 -4.3894356251789793e-02
      -2.6787992630679307e-03 3.7432475635237092e-02
      -8.0586102082738489e-02 -5.5926998671316459e-02
      2.0418645493046169e-02 -1.7449092763015334e-02
      -4.6209614373782714e-04 -2.7794919746066273e-02
      7.6964406720137254e-02 2.6610527464660281e-02
      1.5399989518658397e-02 5.5330852764606435e-03
      -2.8084578448925750e-02 9.2428925100038556e-02
      8.3215988208837216e-02 -2.6988914561629374e-01
      5.1146819863931596e-02 5.7889281384163209e-02
      5.2583704971144771e-02 -7.4363519813646056e-02
      -1.2314065201424994e-01 -3.3257320702786787e-02
      -5.0170292843575555e-02 -1.0063196228352432e-01
      4.8632414769086731e-02 1.2613365571539928e-02
      -1.1771310071761088e-02 1.8823089731350461e-02
      -9.0151602200592373e-02 -4.6955883100999157e-02
      -5.7000942349486744e-02 -3.3531170920522713e-02
      1.5253600549392598e-02 1.7133407935031566e-02
      7.2680429263643792e-02 -2.6155215534044918e-02
      -1.0406352743726952e-01 6.2244796028508395e-02
      -2.1832231498647665e-02 7.7487453374295769e-03
      1.1115710995534453e-02 -5.8952131942369611e-02
      -3.7429994546409683e-02 -1.0693245536671962e-01
      -1.3561215953426365e-02 5.5752913881163990e-02
      -9.7146262459235425e-03 6.6016002922555217e-02
      3.3658872421011017e-02 1.7572788449240614e-01
      5.1797338689582979e-02 -1.7246830830598522e-02
      8.2680396337231968e-03 -4.4801506423191757e-02
      -1.7526648205819066e-03 -1.2609356850066308e-01
      -4.4343687156347324e-02 -4.3698168609056155e-02
      5.3722333255500085e-03 8.6228459681761446e-02
      -2.2830717089638620e-02 2.9826309325657274e-02
      7.0991427995235765e-02 7.4398774596771099e-03
      6.3782026394728492e-02 6.4952903711487014e-02
      3.2166443073034366e-02 1.3333854122890175e-02
      4.3935611620857289e-02 -6.2153018239190561e-02
      -2.5202053090223633e-02 1.0787354556698861e-01
      4.3306818297941842e-02 -2.9463994848634167e-02
      4.2034130145638317e-02 -9.1285684582990065e-02
      3.7167907432452942e-02 -3.9312880687344988e-02
      7.5698464456000984e-03 -8.1401240613403855e-02
      -4.5081741801165441e-02 -2.4595942903569409e-02
      3.8974714874617220e-02 -5.4283066417061723e-02
      7.2133330888396671e-02 -1.5027945183118263e-02
      -1.8084546367120664e-02 -1.1011630319650190e-01
      5.5561275030021583e-02 1.6696841078593075e-01
      -5.3547360657147686e-02 3.7452468798670924e-02
      1.5684945253939070e-01 -2.3856783240061404e-02
      7.0206077577195450e-02 1.0325885902072252e-02
      5.1132862191794123e-02 1.2441304937741754e-01
      4.1623196900017222e-02 9.8383129832203351e-03
      -3.1625578392876497e-02 7.3595603156369430e-03
      -6.8822262369927154e-02 -5.5211065301127751e-02
      4.0167557172122538e-02 6.0604152513344611e-02
      3.7741765809565182e-02 -8.1822230969268925e-02
      6.8857993105879783e-02 9.3263628350556474e-03
      3.6586030797566213e-02 -2.1493007810989416e-02
      7.3790200300906633e-02 -9.0300757179845176e-03
      -5.1409943099514840e-03 -7.7838450985911523e-02
      5.0879009565262437e-02 -9.3839305061562600e-02
      4.0929513354680848e-02 2.6619696136308067e-02
      6.0213469710567097e-02 -3.9756294474179469e-03
      -5.6625183027117040e-02 -3.0054247208630223e-02
      1.2636664108408739e-02 3.6191766439271154e-02
      -2.2746773291938201e-02 6.6355042919786403e-02
      -9.5729876874583383e-02 -2.6134858543322259e-02
      -4.0391091764342725e-02 -5.7724079944313000e-02
      5.2898400591937608e-02 6.0046401000275390e-02
      -3.3712693971850302e-03 -4.8726195767455911e-02
      7.3153039775013931e-02 -2.0480365028103555e-02
      -3.0014917768898024e-02 -1.2680861574269599e-02
      4.5764343396882873e-02 2.3832920740740334e-02
      1.5538648098541857e-02 1.0074457952231405e-02
      -1.5461432677493964e-02 3.6437428420502467e-02
      8.9462827008106052e-02 2.3183236794074330e-02
      -7.6408393491800855e-02 -3.8659007349924189e-02
      7.2086941747770805e-02 4.0056692084798173e-02
      7.7399902058036874e-02 -2.3551296783614908e-02
      1.2190228300131811e-02 6.5022134937712917e-02
      -1.8921999729441363e-02 -3.0128350592992643e-02
      -9.0987661708113905e-03 -6.3471444537879937e-02
      5.0504029924881653e-03 1.2049966513041440e-02
      5.7925855782861954e-02 -4.0458125811000993e-02
      -4.4017931773368345e-02 -1.6026140746469875e-01
      -6.9495647488383369e-02 -2.3655145914298455e-02
      -4.3302690307095493e-02 1.8931481024464757e-02
      -5.0872744221012484e-02 1.7197202326372549e-02
      6.1722626936389857e-02 -6.9738305238475462e-02
      5.5784790984116227e-02 -5.2497298323346105e-02
      -2.4362691373060717e-02 -6.0715796664734846e-02
      -1.5089987992744679e-02 4.3061147894342205e-02
      -1.0871865085397623e-02 4.7294754921461034e-02
      -6.0296917108850915e-03 5.4010881605730546e-02
      -5.4601142626198473e-02 -3.4905455947874933e-02
      6.3248190364703569e-02 -2.5060094927827931e-02
      3.7655129317230055e-03 2.2226075067636974e-02
      -6.4385003093874335e-02 -5.2686662004173899e-02
      -3.1769938306334990e-02 3.9676384015354449e-02
      -3.5214200281361935e-02 3.3338171615155718e-02
      1.9952137915406249e-02 3.1883496683837435e-02
      -6.6234275795191436e-02 3.9845832997101420e-02
      5.3003730226889055e-02 -5.2955145079930876e-02
      1.9846875311171564e-02 3.0388852178606807e-02
      6.3951209512270110e-02 -4.3113823697410680e-02
      -4.4546914460438292e-02 3.1357680162117471e-02
      -2.9625077890759657e-02 -1.7115858164084383e-03
      -4.7268856762537770e-03 4.4860461083553766e-04
      5.7676573993073230e-02 1.8849126200941788e-02
      2.2447231009624227e-02 1.1466286282451062e-02
      3.2321098008221770e-02 -1.9781411770486805e-03
      -3.7012834434981032e-02 2.0883185006008442e-02
      -4.7082600417007521e-02 -3.7019096807673145e-02
      3.4493555165238429e-02 5.4690433143315099e-02
      -7.3482198144125335e-02 4.1283143034923322e-02
      -2.0877143627243303e-02 -2.8273855804077690e-02
      2.7104813404618313e-02 4.5656693014259203e-03
      3.2959830577730907e-02 7.8447571406847650e-03
      -2.5406775237611336e-02 1.6463222416915356e-02
      -2.6386874215811155e-02 6.2782965907681773e-02
      5.7045052713533148e-02 4.7538298965172449e-02
      8.2654550079587739e-03 7.8335462603896597e-03
      3.6891310948366916e-02 4.1572800452770606e-02
      3.3281410300608119e-02 6.3997749362751835e-02
      -1.4747094502957829e-02 -9.6430297443408572e-03
      -8.3716747475630088e-03 5.5238929667780975e-02
      -5.0269489051009558e-02 6.6866119657858950e-02
      5.7445056755646581e-02 6.5734377663692958e-02
      -2.1007386237993191e-02 6.1726480774306661e-02
      -1.6686886976614364e-02 5.1015800015440968e-02
      -1.3964429338504419e-02 2.0577908860875222e-03
      -4.5039599847654245e-02 5.0674928158415962e-02
      -2.3397370227832372e-02 -6.5495269040791074e-02
      2.4196530455712728e-03 2.7347490850868607e-02
      -2.4990558019457012e-02 1.7839067234545768e-02
      -2.3438935186560973e-02 -3.2373563384187440e-02
      3.4582565869250251e-02 -6.6508796769861158e-03
      -3.2486803236366546e-02 -5.3241204310002815e-02
      5.9727635561998851e-02 -3.1735617919605413e-02
      -2.4808919239301640e-04 5.3047738167530722e-02
      -5.2420613878371235e-02 4.9344967695556304e-02
      -2.4869094943027421e-02 -1.1463819631647106e-02
      4.2844082751708361e-02 5.4805986257897558e-02
      7.6044942933976914e-02 7.5451522655568454e-02
      4.6101999834148061e-02 -5.5375105708655260e-02
      -1.4708741605909780e-02 -4.4231326351447012e-02
      -1.8433359966069218e-02 -2.6260615349052639e-02
      -5.2310140025797203e-02 -6.1077803976044426e-02
      9.3746664534620095e-03 -4.2633884917771703e-02
      5.7622121804610522e-02 -4.7729514241684956e-03
      2.2519992668866978e-02 -1.0818043657559328e-02
      -1.4788182677302976e-02 3.2374676880962010e-02
      -4.3058034800884465e-02 -5.0890903472415976e-02
      -2.1731170148924792e-03 2.2328397751244893e-02
      -3.4886854712091568e-02 3.3536894391300153e-04
      -8.5330575082050407e-03 3.0067598338694670e-02
      3.3274105255032820e-02 -5.8663076336158942e-02
      -1.7627002811961438e-02 7.7457411489101251e-03
      -6.7530095265923851e-03 -1.4550455167813494e-02
      3.4717184507459010e-02 -4.7791185938986670e-03
      -6.1801597183273348e-02 9.7873564436828098e-03
      -3.6726625176997069e-02 -2.6988440670397653e-02
      3.9230759969599523e-02 -1.8857706763375708e-02
      -5.2280970591552255e-02 5.7512514807955294e-02
      3.8966163894733501e-02 4.3018138521929448e-02
      -4.5864418810544851e-02 4.1879092442576073e-02
      2.8318103410125348e-02 1.0681491407137008e-02
      4.7147752588221119e-02 8.9071186669307158e-03
      5.1638035267413181e-02 4.4449446328533239e-02
      -6.9667672365740228e-05 -2.0790328997589088e-02
      6.4657086978268996e-02 -1.6301941788019734e-03
      3.7236322019846030e-02 2.2127560465129790e-02
      -3.2517267844493603e-02 4.6189069226557404e-02
      5.3047799062496195e-02 -5.4489547126114757e-02
      -4.1177959951822510e-02 5.9766788296799864e-02
      -1.4804329008926481e-02 -7.2412735820621965e-02
      -6.1873445236855638e-02 5.3453466229472682e-02
      -1.2055816849888301e-02 -6.2263468335445542e-02
      -5.3483534364752686e-02 -5.3996353454056449e-02
      2.0913744195127360e-02 3.1546475430012350e-02
      -3.5617853055380719e-02 -3.9119986611549388e-03
      -2.3632792994859837e-02 -2.8573577429084895e-02
      -6.2152482946849261e-02 -7.3958597495245634e-03
      4.5169156091046624e-03 -4.2803802057782649e-02
      4.7730896785858276e-02 -1.9423968062350708e-02
      2.6991037239074474e-02 -7.9133722875416746e-03
      6.5814111057151070e-02 -3.5574101819248736e-03
      2.1446605361545003e-02 -4.4294751262305303e-02
      -2.7138995549080173e-02 1.9349085811713337e-02
      3.0265424280836645e-02 1.5857308284624630e-03
      -9.2780812924145514e-03 4.2060645757829779e-02
      3.0460825304671695e-02 -3.9411414371983963e-02
      4.2918483295154845e-02 -1.0351020910253840e-02
      3.4360252468301315e-02 6.1968918893547088e-02
      1.7481576416975533e-02 -5.3141551434810134e-02
      3.3993682223965857e-02 -4.1660126450262869e-03
      4.9885160984352889e-02 1.1156455933725540e-02
      4.2432991993557677e-02 -3.7854806617351293e-02
      5.4075257136026615e-02 -4.7000879184513435e-02
      1.7074403638797447e-02 6.6325534624403382e-05
      6.7499428747743156e-03 1.2283917229457906e-02
      -6.0283838158520474e-02 -7.7807224714496583e-03
      -5.7368046085563597e-02 4.7906437077786072e-02
      4.8503874484067927e-02 -6.1647357100755383e-02
      6.3394737067961990e-02 1.9485934715811358e-02
      3.7836190728551794e-02 -6.9944627336832113e-02
      -4.3338003955673020e-02 4.2419591715636015e-02
      1.0191620877208905e-02 -1.9601512705336856e-02
      -2.7859630765950858e-02 -5.7480548231705481e-02
      -3.3517086922026651e-02 -4.6207851274412903e-02
      -7.4663936586698461e-03 3.0544158111902819e-02
      7.2390430984166795e-02 1.9458039353250717e-02
      -5.5414598685730058e-02 -5.9281172471163282e-02
      -6.9311999748929515e-02 -2.0744277301475166e-02
      2.4839124868862687e-02 -3.1868165125099532e-02
      4.8210714902767030e-02 -1.2018196256623440e-02
      -6.0388304090688516e-02 5.9204593869711816e-02
      -5.9297488669056826e-02 1.7328827352040235e-02
      1.8402240773622611e-02 4.3439970647043122e-02
      -5.7508402309621010e-02 6.2026005242668568e-02
      3.3884017122675684e-02 -5.4387574655334843e-02
      5.7084154036773971e-02 4.3428524748146013e-02
      -5.5069093111262644e-02 6.1836552986003039e-02
      3.8372914570264940e-02 -5.3278272995816091e-02
      2.1015069819837324e-02 -4.9264600884637036e-02
      5.0938899025579645e-02 -1.7297004485764863e-03
      6.4286543498678947e-02 4.3467670698302270e-02
      -8.7011626942961398e-03 -3.3851641548690380e-02
      -6.6878394534301971e-02 -5.1358053825875750e-02
      6.3871941331716628e-02 -9.3953108243987712e-02
      -4.2047850234590067e-02 -3.4901380602430608e-03
      2.0169998652621073e-02 -3.1789534012321902e-02
      7.2944775821854754e-02 3.0087755336188710e-02
      -2.7816160096164593e-02 -5.7852998707776757e-02
      -4.8392306765782253e-02 -4.3558491876096929e-02
      2.8631273035402780e-02 -1.5035004611501160e-02
      8.5815498983925140e-03 -3.9489739631485103e-02
      -5.2953766432637814e-02 -3.0909026982520561e-02
      -2.9384539275525860e-02 2.1031893467975404e-02
      6.9060522665615409e-02 -3.6881461391717232e-02
      -5.4083936951100460e-03 -1.3915379036880919e-02
      4.2723776710023524e-02 3.7585635566117485e-02
      -3.4968565829565923e-02 2.1423806070661109e-02
      -4.4314662697285408e-02 -2.0020057868999762e-02
      1.4473274755645325e-02 -3.9122026843545127e-02
      -2.5469821243660071e-02 2.6549622186036168e-02
      -8.8303319056378844e-03 -7.7400433331677523e-02
      -4.2728747652697630e-02 -4.3622351768834944e-02
      -2.4221521340143281e-02 1.1788458869157163e-02
      -5.9179877289727879e-02 -4.7462845467620127e-02
      -4.5380002181616773e-02 2.6439254014168127e-02
      -5.6473475388431692e-02 2.7883881851075341e-02
      2.7086337209546143e-02 4.5548719085343796e-02
      4.2763238462718699e-02 1.3083486468849638e-02
      -4.7917582391959271e-02 -4.3807756349015844e-03
      -5.0894377662023288e-02 -9.6450906283385516e-03
      -1.9644577681379127e-02 -3.6418828444015269e-02
      4.8212139343901422e-02 -3.3685597485513794e-02
      6.7841593104312592e-02 -5.3344133337414223e-02
      6.1794763274093910e-02 -8.4601332558828183e-03
      -3.8629137197306309e-03 -6.0369315714785446e-02
      3.7516294617681155e-02 3.2748077442189751e-02
      6.5095238301604214e-02 -2.5890626332318378e-02
      4.0494110574990944e-02 -5.3798340707083989e-02
      -5.1127748671537097e-02 4.9221054718570308e-02
      -1.5948563959448735e-02 -5.7044552572465233e-02
      -6.9344614505848653e-02 -3.7696781905104990e-02
      -4.9117661668169423e-02 5.2483609947273524e-02
      4.7638199765297803e-02 1.0771298392233392e-02
      6.9035898659520353e-02 -6.1653340128016099e-02
      -1.0090245434622502e-02 -2.7181106682788132e-02
      3.8772609060027441e-02 4.3198968956753098e-02
      3.0815180158265967e-02 -7.1497064679041350e-02
      4.5251124029682240e-02 4.7617896876111419e-02
      -7.6596197403920692e-03 -1.8411294182774190e-02
      1.3166618957236751e-02 -3.5101317471979844e-02
      6.2512911374690130e-02 -2.5069958673371397e-02
      -1.9983871637148276e-03 8.4792054871208316e-03
      -2.7803375410947788e-02 5.1419675511509839e-02
      1.5372331868399956e-02 -1.3261233988871253e-02
      1.0437143793779687e-02 -1.3705114219430150e-02
      -7.0500649400527049e-03 -3.4071857440787175e-02
      -1.0724413413657118e-02 2.9919533048399515e-02
      6.1224617817678476e-02 1.0301916118845742e-02
      6.2331310303227624e-02 4.9433438951187458e-02
      -2.6662651033760257e-03 2.5325942800530191e-02
      4.9941060093592331e-02 5.7264684910621227e-02
      -1.2172520112371550e-02 -4.5265747445449075e-02
      -5.0698946798633709e-02 2.5166684309032832e-02
      6.6193420031422978e-02 6.3143190963410645e-02
      7.5391477251573025e-02 -2.5051353885396668e-02
      5.0349622544226619e-02 2.3710388221265595e-02
      1.7479504166810905e-02 2.0144352740998950e-02
      2.6994181652939687e-02 -1.7393523298021171e-02
      -1.0479832300572083e-03 4.0428907523292333e-02
      3.3521604909830666e-02 -2.8420722852551126e-02
      4.3100968398272821e-02 -3.7026900947806932e-02
      -5.1486951046613071e-02 1.0931245509978510e-02
      2.6346839467960435e-02 1.0310946837348829e-02
      6.6706929242454679e-02 3.2559765632530276e-02
      3.8673848540486187e-02 -7.8538615666045117e-03
      -5.1873306695816863e-02 5.9595386712066503e-02
      4.0559972415138486e-02 3.6036297960711734e-02
      1.6331787483410822e-02 -7.5656106611727758e-03
      1.0895056976281457e-02 3.5778213855178286e-02
      2.2730342321228062e-02 5.0554744071009154e-03
      5.4312653322177856e-02 5.8811054161149977e-02
      6.8167818944770277e-04 1.4222307348710243e-02
      6.6769855982944479e-02 -2.5218612772626359e-04
      5.8462777138717802e-02 -1.9466179278613955e-02
      1.6333084327860837e-02 -1.6483538977989692e-02
      6.5931091216774970e-02 9.3340152208573300e-03
      3.4940287773779131e-02 1.5311874731537265e-03
      3.9174850317931179e-02 -2.8546608870785351e-02
      4.4939111236806668e-02 4.9784295485245010e-02
      1.5588780899439096e-03 -5.1607208221488850e-02
      -2.1878723198229855e-02 4.4453547649120545e-02
      4.6892107588791775e-02 -9.8949878848285690e-03
      -3.9217711659321738e-02 6.2820700590278028e-02
      7.3555432872835433e-03 -6.1648601716089414e-02
      6.8925734543582265e-02 -1.8221032340238766e-02
      3.6119003649904800e-02 5.4967912804248002e-02
      -1.0392773119927820e-02 9.1871048654908246e-03
      6.3616051219570313e-02 4.5747244268585143e-03
      -2.0404003815618073e-02 1.4333411072400243e-02
      2.9418894011804270e-02 -1.3824846036257325e-02
      -2.2827863270416589e-02 -3.9845845602417905e-02
      1.8755609239987987e-02 5.1530680451066284e-02
      -6.2028644804811878e-02 -5.3060486243233097e-02
      3.6994256270534091e-02 -8.5450519821795717e-03
      5.4154871042750305e-04 4.3892011556018774e-02
      6.4499776199217956e-02 -5.3573379900603679e-02
      4.5455748770719701e-02 -3.6741779079882200e-02
      -7.7621737881542280e-02 5.2905133693347497e-02
      -7.2088624778617197e-03 5.5648537300795962e-02
      -1.2689346594175362e-02 -5.5146209745762925e-02
      4.5176379991063588e-02 6.7193608485742948e-02
      4.1575008120037039e-02 2.5017199869129737e-02
      -3.7725994391331003e-03 3.5322683965777833e-02
      -1.5199170506964788e-02 -1.2299037404484172e-02
      -1.0565577724408208e-02 -5.7765391040356481e-02
      5.5810888949385073e-02 -5.0724662324683853e-02
      2.1721629929618631e-02 5.9566453147729036e-02
      1.7074793992699882e-02 2.7590644052510743e-02
      -5.7043421239677837e-02 4.1075093237391586e-02
      2.1950627304356506e-02 2.6246969492449507e-02
      5.5425300345474715e-02 7.1023180642320549e-02
      -2.6329486135659573e-02 6.4911303905070800e-02
      3.9981611008333987e-02 3.6731342128224952e-02
      -5.4889046133393550e-02 6.0790450104140380e-02
      -3.9048606909851125e-02 6.3591669126504519e-02
      -1.1805729167926498e-02 4.4799025597721483e-02
      -5.8546297986797974e-02 -5.9480241930447396e-02
      3.0314125048421767e-02 4.0582523562926491e-03
      5.6357793634149660e-02 2.8053295743580484e-02
      -5.8187682995259372e-03 -1.1462683539082419e-02
      1.9357415030697812e-02 -4.4946079460095781e-02
      1.4327692560002287e-02 3.9152270155603665e-02
      2.7662554140438851e-03 2.4975641530812526e-02
      2.4532117850196610e-02 -2.4580655147930144e-02
      -3.8476311633032154e-02 -3.4366406265049228e-02
      3.6930831958880021e-02 3.4021630374900330e-02
      4.3776868304718212e-02 1.3190774545344203e-02
      2.2355887238099118e-02 -5.1638533548281206e-02
      3.4247680759824672e-03 -5.7842338474033361e-02
      4.8169061749360302e-02 -5.5284766035584632e-02
      -5.2286202248162945e-02 4.6635768335254790e-02
      4.7163336737764600e-02 3.6406196727562031e-03
      -7.4153341612640741e-02 -4.7322654052883002e-02
      2.7660229698890336e-02 -5.1488376758115602e-03
      4.8367768677969707e-02 -5.2595155379964176e-02
      -5.4027822460992303e-02 6.7278998767234931e-03
      -3.2542453537262900e-02 -1.4241256710179717e-03
      4.4921931173232545e-02 -4.8742192034966936e-02
      2.2947050588656464e-02 -6.7568165416371603e-02
      4.4438480170940514e-02 3.0759171407004043e-02
      -1.0902518785902033e-02 -8.7364481551677180e-03
      -4.1874977710343486e-02 1.7402616105615210e-02
      -1.0510721004070819e-03 1.5624641187596225e-02
      -3.5865347641098541e-02 -2.4348013374363379e-02
      3.1790573465374457e-02 1.4716008954119657e-02
      -1.7329668365480552e-02 5.7102278490511249e-02
      -3.7228093994881500e-02 4.4886610962366146e-02
      3.7444804214227578e-02 -5.7086796499452315e-02
      1.0611751467303360e-02 -1.9553449784578531e-02
      -9.0850199178174537e-03 -4.5032849189355614e-02
      1.1032299378362169e-02 -7.8520827770779594e-02
      3.5712580162095796e-02 1.5293489182667715e-02
      2.5626571873866317e-02 2.3910192668412447e-02
      -3.7682656899880852e-02 3.5923199249972310e-02
      -2.2450229871280265e-02 3.8583517962145299e-02
      3.2081493401454268e-02 5.2535380386858836e-02
      -6.3139897490755326e-02 -6.9380006113613946e-02
      -5.2627104981712129e-02 -1.0105911275741845e-02
      -8.1483607626891344e-03 -1.9453279115975199e-02
      -1.3226067477617757e-03 7.1290610106182581e-02
      3.3384647759714782e-03 3.1157103876804742e-02
      6.6439150050762383e-02 -4.6703317321251346e-03
      1.9952856111098670e-02 -4.8067788237901130e-02
      -2.9444523247347573e-02 -3.4433410096708209e-02
      -4.7481555405881046e-02 1.5691957453445503e-02
      -7.4295153937263634e-03 -4.8531326678766168e-02
      -1.8285051656046179e-02 -4.4399746212221862e-02
      1.1220638298207864e-02 -2.8229807611870279e-02
      5.7123963057782393e-03 2.7726691804965668e-02
      -6.4035310735429243e-02 4.4451211327849391e-02
      -1.7674473880236723e-02 -2.4320020863670834e-02
      -4.3838658252818040e-02 -4.0463865566889676e-02
      6.7898194360918290e-02 6.2684379549306820e-04
      4.6910260559990112e-02 -6.3368594654111918e-02
      7.0327379884217375e-02 3.8383645378608361e-02
      -2.1263019650515035e-02 1.6201129411279651e-02
      -1.9616352642696615e-02 -3.3726444248961721e-02
      -8.1407775565872590e-03 4.9699529410071094e-02
      -4.3587324820369894e-02 4.0514876454927747e-02
      2.1822052770170020e-02 5.2922479413964711e-02
      -2.2424166053912876e-02 2.6611208960783932e-02
      6.8317798949904451e-03 -2.7880050315265144e-02
      4.3313302116950399e-02 -5.0564509404694008e-02
      5.7015633778372390e-02 -3.0302825555941677e-02
      -4.3177617368347791e-02 6.0610099407042303e-02
      -6.0014927241592707e-02 2.4578268297203103e-02
      -2.0447034204577889e-02 -5.2207161659131744e-02
      3.1505043234688487e-02 -6.3486348223603467e-02
      -6.3401193133785699e-02 2.7650036120919499e-02
      5.2428413851914754e-02 1.0035912138638255e-02
      6.8206594733092596e-02 -1.5215681492731909e-02
      -2.1288460267390634e-03 5.8767256079886379e-02
      -3.1194151765904281e-02 -1.0771200430509909e-02
      2.4271042213732781e-02 -1.5817893885872680e-02
      2.8066000318112610e-02 2.9237683119451279e-02
      2.9018432208575001e-03 -2.2110749018662244e-02
      3.5893490753970470e-02 4.2783205182631732e-03
      3.8690820466488585e-02 6.3356780188651929e-02
      -2.4003253898849616e-03 -4.1050800844960378e-02
      5.9751944855985492e-02 2.8239237306253804e-02
      1.8012854048618972e-02 -6.6640725782613500e-02
      1.1296183939963020e-02 3.7024132183834151e-02
      9.4739502372851447e-03 4.3310113375462048e-02
      3.8125237483625049e-02 1.0330307126308743e-02
      1.1269810773630758e-02 -6.5027545729943390e-03
      2.5168179268596967e-04 3.5132906961346036e-02
      3.0067328681686274e-02 5.3158922145698853e-02
      6.6064997247902782e-02 -2.6060431003024034e-02
      -3.5114203019110238e-02 3.6793014977973943e-03
      -3.6683728780749623e-02 5.6114951584034227e-02
      -3.1867977988923074e-02 4.5532674026905147e-02
      4.0736574725293392e-02 5.6056860886219230e-02
      1.2611667626925871e-02 1.2574149801829099e-02
      -1.3166903672446901e-02 2.9074027466750595e-02
      -2.9139989839828382e-02 -1.6237513126991409e-02
      -5.9420929124205969e-02 1.1692036504686145e-02
      3.9862439431575608e-02 -3.7961309261601885e-02
      5.9861001839994349e-02 3.3395982505005847e-02
      -7.4848875764910741e-02 -3.0726372327728388e-02
      5.2188197211242258e-02 -4.2267718870466611e-02
      5.5164324670773993e-02 -1.8812976416215491e-02
      -4.9573820777506328e-02 2.4798603917937017e-02
      -8.8104374333149715e-03 2.1972326979261516e-02
      6.6637773631800365e-03 -2.6564813596940879e-03
      4.7283453091348022e-02 -3.1989453323218446e-02
      -4.7017518006644381e-02 -2.9307777602821435e-02
      -4.7455689254259616e-02 -3.7363967046482684e-02
      -6.4110597739842567e-02 -7.1686811253540580e-02
      1.4429555182309314e-03 5.4328889170743987e-02
      -3.5254848873618121e-02 2.4360523147334466e-02
      -2.0286342273206581e-02 7.0496780886328825e-03
      5.9950326233521561e-02 2.3992843363577876e-02
      3.5335301796727732e-02 -6.4120933197566066e-02
      -2.9734777600199454e-03 1.0452217914859913e-02
      -1.5997825024963552e-02 3.1883784156987990e-02
      3.1300871803585720e-03 -5.3808058867883798e-02
      -2.0553153148161432e-02 6.8066576072139846e-03
      -6.1597395040821823e-03 2.8751724186629250e-02
      1.5454330541111000e-02 -2.7485495185064952e-05
      -4.7926727458801804e-02 -4.6310111642789954e-02
      5.2935648272196011e-02 -6.7844750580912999e-03
      4.1933078769602207e-02 7.1130008620929455e-02
      -2.7297815218930276e-02 2.4205602289154277e-02
      8.4935771137370324e-03 -3.8412006005656411e-02
      -1.3577463826032100e-02 3.8367825473100942e-02
      3.2255184259206461e-02 -9.2777431298421472e-03
      3.2915579937759696e-03 7.9449822496303855e-03
      1.2413492658738661e-02 5.2555958404002005e-02
      4.5816489117879944e-02 -3.1806437205469891e-02
      -2.3089167662429678e-02 -1.0846818225237769e-02
      1.7626074219343705e-02 -2.2022559055668571e-02
      4.1329256437998688e-02 -5.3418375274689449e-02
      3.2513825885037796e-02 2.0070868366878165e-02
      -3.3907002428211465e-02 5.6744260233860443e-02
      -5.6765919207667763e-02 -1.7761179818963593e-02
      4.0587857323172473e-02 -5.1248242866065774e-02
      -3.2836554989807018e-02 4.8760315576739585e-02
      -2.1178687690424546e-02 3.2972613452255113e-02
      -1.1126846914019130e-02 3.3637308958248964e-02
      2.4366720467303440e-02 1.0212132736337764e-02
      7.0525463224058754e-02 5.9564116116569775e-02
      -4.8090049017632523e-02 -4.7252093922827400e-02
      -4.0519523176263186e-02 -3.1567694794160474e-02
      -2.1285971985133718e-02 2.7206731766586813e-02
      4.6922946799120790e-02 -4.7215655485779787e-02
      -6.4356077638834898e-03 4.4515140101585159e-02
      3.1971315757645155e-02 -7.8929952169131228e-03
      -3.8973834900331926e-02 -4.8355873147065340e-02
      -4.7450641766941082e-02 4.3633190568521080e-02
      7.4069222215912570e-02 3.3690482913737226e-02
      9.5206673184691781e-03 -8.0994992951187589e-03
      -5.8334047658143436e-02 -2.5328956508235606e-02
      -2.8604443869273702e-02 2.5250994864226904e-02
      -1.6047820363051774e-02 -5.7634797366233323e-02
      4.7423492537497974e-02 3.8498396079789242e-02
      -2.2599992622341282e-02 -3.0483014044926544e-02
      -4.1562936866882247e-03 -5.5482239525970221e-02
      6.0559845901740982e-02 3.8977679497927256e-02
      4.2967699727858973e-02 -4.1719877702796164e-02
      3.4152849614872430e-02 3.0799492684419998e-02
      4.4753009133107848e-02 -5.1002523462579358e-02
      -2.3709556093629482e-02 -6.1221437441798122e-02
