<?xml version="1.0"?>
<opencv_storage>
<opencv_ml_ann_mlp>
  <format>3</format>
  <layer_sizes>
    6 220 320 15 1</layer_sizes>
  <activation_function>SIGMOID_SYM</activation_function>
  <f_param1>6.6666666666666663e-01</f_param1>
  <f_param2>1.7159000000000000e+00</f_param2>
  <min_val>-9.4999999999999996e-01</min_val>
  <max_val>9.4999999999999996e-01</max_val>
  <min_val1>-9.7999999999999998e-01</min_val1>
  <max_val1>9.7999999999999998e-01</max_val1>
  <training_params>
    <train_method>BACKPROP</train_method>
    <dw_scale>1.0000000000000000e-03</dw_scale>
    <moment_scale>2.0000000000000001e-01</moment_scale>
    <term_criteria>
      <iterations>1000</iterations></term_criteria></training_params>
  <input_scale>
    9.1944862471341242e+00 -6.9174783009278773e-01
    1.0023338635604432e+01 -6.8373255867125127e-01
    1.1028562356286981e+01 -6.7270160783220279e-01
    1.8562422844032675e+01 -6.4027156958587073e-01
    1.9888570771315980e+01 -6.3577938618229768e-01
    2.2029071382687533e+01 -6.3652698805622043e-01</input_scale>
  <output_scale>
    1.0526315789473684e+00 0.</output_scale>
  <inv_output_scale>
    9.4999999999999996e-01 0.</inv_output_scale>
  <weights>
    <_>
      -1.9743721749940782e-01 -2.1005647837142474e-01
      -3.4246692189165612e-01 -1.9437789490093546e-01
      2.3569314657729951e-01 -2.4087265774255687e-01
      1.1414671603115177e-01 2.0121567728896522e-01
      -1.3394901150541086e-01 3.0770415309373245e-03
      -2.3776662589855627e-01 -1.6735333005210570e-01
      -2.8112391733035619e-01 2.1295192362212656e-01
      1.1784170133972800e-01 -2.8984539876130894e-01
      -1.9400881740517700e-01 2.5467475242299348e-01
      9.2569250490087008e-03 7.8372546209512298e-02
      2.1441821537115310e-01 3.2863949280642635e-01
      2.8469183457964764e-01 1.7684057968083902e-01
      -4.7285211439014638e-02 2.0171377246069691e-01
      -6.8119387301899884e-02 2.4546252802855559e-01
      7.1838016372639119e-02 -1.2713301626445262e-02
      -3.1017299238168256e-01 -2.3215024001108406e-01
      1.2669967823831246e-01 2.2375723321503221e-01
      1.5920498634553051e-02 1.5195298297222867e-01
      -1.5703478522500255e-01 2.6871622633368658e-01
      -2.3252932676682428e-01 -3.1196445506450293e-01
      -2.7102471038573128e-01 -3.3468168715259683e-01
      -1.3959247592485768e-01 3.0650412949927361e-02
      -2.1893232899900972e-02 3.0141751791407784e-01
      1.4453716804678923e-01 2.0787400834628499e-02
      2.7962849980846805e-01 3.3574414815049670e-02
      -2.8651758135651384e-01 -3.0693466434372280e-01
      2.2529294271374378e-01 3.5134913260907680e-01
      -1.9835532929831490e-01 -5.6206268816835436e-02
      -2.7202535154529217e-01 1.6926595147466567e-01
      -2.3992759150549328e-01 1.2566651525291317e-02
      -2.2533791033260056e-01 -2.2430893456969403e-01
      3.3183689794893639e-01 -3.5862144365038789e-01
      2.5615575872425289e-01 2.4923117545178045e-01
      -4.3088211083557421e-01 -1.9543724636345514e-01
      -9.7285756086170169e-02 -2.1980341206181928e-01
      6.7352953781162003e-02 -5.5789488721191126e-02
      -1.9981888193121722e-01 1.6003334270062453e-01
      -1.8077940044962998e-03 -3.0015373297389436e-01
      2.7003372877142662e-01 2.0207590948258045e-01
      -1.1907039043017295e-01 -4.8972149175091767e-02
      -1.9682115513157039e-01 -9.7900791251221336e-02
      1.7414758085119064e-01 -2.6572558171709626e-01
      3.3226457809274146e-01 -2.1578577174016850e-01
      3.1552313980714536e-01 2.1377776364260820e-01
      8.5037745801472497e-02 -1.6127799531329373e-01
      3.8460569433337388e-01 1.3049755437126029e-01
      1.5900281928123861e-01 1.3892527491521450e-01
      2.3864037158674186e-02 -1.9343968123121977e-01
      -7.1328756376318650e-02 -2.3058989386001368e-02
      2.7371607241122864e-01 1.3237671749421920e-01
      -2.1880128475495342e-01 2.3418769993142768e-01
      -2.7591787200472223e-01 1.6391076058777507e-01
      3.4301429768262726e-02 1.6113185927930523e-02
      -1.2694812314488499e-01 -3.5867663756087026e-01
      -2.7976316525073036e-01 -3.1802684126405911e-02
      -8.3076574173994749e-02 5.5727218692449412e-02
      2.3375230166662500e-01 1.1369972196008399e-01
      2.2716714207082534e-02 -1.4901135431757970e-01
      -2.1533669077420667e-01 -2.5855127461261135e-01
      2.5988100428656769e-01 -3.2678520325005150e-01
      -3.5830760207783385e-01 1.7361755917181518e-01
      -2.0423055900718584e-01 2.5417194694743850e-01
      -1.1702559493142767e-01 -1.7642035475453385e-01
      1.8520388458168072e-01 -1.9241435508383403e-01
      -6.7038847361266729e-03 4.5160590656207156e-01
      -8.7655760119121781e-02 1.4075889626447918e-01
      5.2386682674004439e-02 -3.1489575779386408e-01
      6.1600560680406001e-02 2.3424983306810779e-01
      -2.7861988527214931e-01 1.4882143505067646e-01
      1.8768307853784746e-01 -3.4982411909131661e-01
      -4.9507791250171129e-02 1.6862832368610009e-01
      4.7710001615163283e-02 -1.2720620305906274e-02
      2.6455255148738194e-01 -1.0857855014882152e-01
      -1.4900011226925092e-01 -1.7414262159745264e-01
      -1.9679115991327226e-01 1.1890869843774005e-01
      -1.4541197441473044e-01 4.1718918557279078e-01
      -8.3067485967914745e-02 -1.7252377157835957e-01
      -2.3155218698621355e-01 2.1161733670570705e-02
      2.2513190099469513e-01 1.6266089658149538e-01
      3.3804494201894930e-01 2.4338634757469504e-01
      -2.1297549129778529e-01 2.4062726438999701e-01
      8.7802576933924459e-02 2.8327897049866391e-01
      -7.7870651599610596e-02 1.7894567650730941e-01
      1.5437762760729007e-01 -2.0423335037157592e-01
      2.3980512346245572e-01 4.0140114563505414e-02
      2.4747171449782016e-01 -1.0627527425193380e-01
      3.3453466881975574e-01 -3.7559859824102976e-01
      -4.4968922036450955e-02 2.0409563208707582e-01
      1.1947156654348202e-01 1.6183613846573283e-01
      9.4193232257899467e-02 -3.5373984978697376e-01
      2.6752880385306488e-01 2.0817700229843780e-01
      3.3775804932041537e-01 -3.2485782809888125e-01
      -1.5066461647870674e-01 -3.3508136293765167e-01
      -2.1661705431306086e-01 -1.1777176920829970e-01
      1.3683344644164236e-01 -1.4475267610511197e-01
      -9.7413163887550391e-02 -4.7191938927976282e-02
      2.3136859394831153e-02 -3.3451405737282336e-02
      1.6419289744145285e-01 -3.3775273728101307e-01
      3.6676109185453482e-01 -1.3894149175794915e-01
      3.5442331795736394e-02 6.1147574245466192e-02
      -3.4565776390012415e-01 2.3510298867579962e-01
      1.9923077069499634e-01 2.9087889719633120e-01
      -2.1577223370467147e-01 7.6945938761863258e-02
      1.1230489987103431e-01 1.5576000144646487e-01
      2.2406222928026914e-01 2.9307297433453866e-01
      2.4697299007400420e-01 2.2324453782974599e-01
      1.3251625638439840e-01 1.3581273275631434e-01
      2.8666857173060784e-01 2.4731850022090585e-01
      -2.3185977533666927e-01 1.7053971678988583e-01
      -7.2060191097169796e-03 -2.2917860397861589e-01
      4.5361263152717067e-05 -2.3517968502703812e-01
      -4.3700508687551587e-01 -7.5845613683363802e-02
      -2.3518402672111499e-01 -1.3672084478288762e-01
      2.0385858077486102e-01 -1.3803815312558826e-01
      -2.7835447284962000e-01 -1.4242961271198720e-01
      -2.4939918538587738e-01 1.0348715104557786e-01
      -2.2140998637700285e-01 -2.5885086647135835e-01
      1.7883638785787509e-01 -6.8400913619501569e-02
      2.7616631056227919e-01 1.1124932248757759e-01
      -5.3876667473517006e-02 2.9321005357715819e-02
      1.3771214967988768e-01 1.2345974125609266e-01
      9.0316516131300397e-03 -3.7873329679731393e-01
      -1.3691511654997657e-01 -1.1465657623289582e-02
      -1.2858760250531979e-02 1.5626415058039270e-01
      2.7959336178012600e-01 6.6105885579465007e-02
      -7.1993367228454397e-02 1.7202462004925370e-01
      3.4567614863159446e-01 9.1178781889200936e-02
      2.8589845053801705e-01 6.5643643490425257e-02
      3.1960900163970773e-01 3.6672379341307820e-01
      -3.9347278852591416e-01 1.2476860256230077e-01
      -7.5606618208532358e-02 2.1202094317108547e-01
      2.3492467868714886e-01 1.1858899294788772e-01
      2.4562969377159416e-01 1.9349120974697281e-01
      3.2741913173186941e-02 -2.1174939572169524e-01
      1.5416162189630653e-01 -8.5543231398924599e-02
      -5.3109589877485444e-02 -6.5611282280639435e-02
      -3.2357170162743792e-01 -1.3051062827110086e-02
      -2.0237690562593658e-01 3.1410568829476804e-01
      1.1422527931753503e-01 1.3094178500269399e-01
      1.3392947488292545e-01 -2.3140223988332920e-01
      -2.8056332479110002e-01 -3.4395878594312457e-01
      1.8447745751150271e-01 9.2760424719787071e-02
      1.7081020101226074e-01 2.5341918102296174e-01
      2.2059447048321779e-01 -3.2161108063998262e-01
      -2.2056534662037505e-01 -3.1597127758126542e-01
      -2.9768509572280794e-01 2.6710002065441213e-01
      7.6900255852305338e-02 1.6749944990804660e-01
      -1.2469041678582472e-01 -3.9676106193240762e-01
      1.6682350030670715e-01 -3.3655696411456082e-01
      -2.7472103661559094e-01 -3.1014499789109351e-01
      -1.3040434428505105e-02 -2.9054986933905452e-01
      3.8373173162325519e-01 -2.4718114866356528e-01
      -2.8065637470283650e-01 3.5602417297939970e-01
      3.6499140207706732e-01 -1.7557082192251688e-01
      -3.6751548834926952e-03 -3.0846863175057182e-01
      1.3924827328523978e-01 1.2246838087613457e-01
      -2.3423417166178906e-01 -7.7463685527866810e-02
      -2.4692686849075995e-01 -1.5915961986322813e-01
      1.0669811760087777e-01 -8.1946955778233188e-02
      -2.5315894498713321e-01 -2.3177721655634212e-01
      1.9879310044636106e-01 9.3635665159505721e-02
      -4.2860455252880209e-01 1.0191658552199015e-01
      -2.3410254683056048e-01 9.7507281963228026e-02
      -1.3223251525855659e-01 -5.0561616888116355e-02
      -1.4246408423623763e-01 -2.7343478714952274e-01
      3.4830728722983473e-01 6.5983431134533838e-02
      2.9307130004393500e-01 2.8400547402518528e-01
      2.9355470325986371e-01 2.8030729771785234e-01
      -1.4226007867993698e-01 -2.3791888477407352e-01
      -1.2359400409464391e-01 -2.2246317654721501e-01
      -2.4399189812573893e-01 4.1168365876865132e-01
      1.6218881733677329e-01 3.3596133742572526e-01
      -1.8701095402778700e-01 2.7481914298743459e-01
      -1.0133058682821140e-01 -9.7390501987567796e-02
      -3.0194139013130178e-01 2.5608462132122056e-01
      -2.5479798434644867e-02 2.3122773680740352e-01
      3.0502130573008635e-01 -2.8163740654848884e-01
      8.6066877948576981e-02 -1.1093701895092824e-01
      1.5205396642149785e-01 2.2556842530519960e-01
      1.8813601783484643e-01 9.9103854981834646e-02
      3.1493642201381122e-01 1.1979666517198120e-01
      -2.9541727055762818e-01 -1.5068756296440777e-01
      -1.3442867979000964e-01 3.9249657953847650e-01
      -1.0098007148822684e-01 -2.9038928686955023e-01
      5.9673916826840631e-02 -1.7355417994852204e-01
      7.6796444189108651e-02 4.5259590403196048e-01
      -2.7349390407043495e-01 2.3249608853984738e-01
      6.6410349640169423e-03 -2.3485551842153488e-01
      1.4805455177443849e-01 2.6180435954545872e-01
      -8.5035618207608868e-02 -3.4568325831687907e-01
      2.9189264469439241e-01 -7.3443430849700730e-02
      -2.2098742792144749e-01 2.7978228133474470e-01
      1.3814506792741496e-01 1.7060125864797113e-01
      -2.5507691507997843e-01 1.5146052317085484e-01
      -2.7245291570146107e-01 -2.1177159112683228e-01
      -5.6217606743113331e-02 5.3257840832554748e-02
      4.4473042089235512e-02 -8.3249511010102348e-02
      -7.7634252909069529e-02 1.4732717280590388e-01
      -3.2083521446394953e-01 3.5159731563311647e-01
      -2.0601000477831261e-01 -2.4522082171340118e-01
      -1.0973766628890238e-02 2.7765241315515210e-01
      -7.5065293679517295e-02 -1.9287197081884880e-01
      -2.3943689189767159e-01 -1.3047521854275110e-01
      1.3661337713377716e-01 2.2326557878135919e-01
      2.3681876760682100e-01 -3.1588244321045150e-01
      -2.7654643268077023e-01 3.9000122028559259e-01
      -1.6523380713658831e-01 -3.9409587917210842e-01
      -1.8714192340574470e-01 -8.9775437585052575e-02
      -1.2508048544752509e-01 8.1277122479208180e-02
      -6.7814798800537368e-02 8.3319369174450722e-02
      1.1725801864816318e-01 3.7241038220120820e-01
      -8.4128311238314421e-02 -2.1764157198923800e-01
      -5.7112524409755938e-01 -3.0985463902252602e-01
      -1.4200005028947912e-01 -5.0112377922763678e-02
      1.3323368890541404e-01 2.6584368636444300e-01
      2.8696884281322627e-01 2.3592689870420827e-01
      2.6014794051493612e-01 -1.2490686419424728e-01
      -1.9889326015906417e-01 -1.0978094431978400e-01
      1.8372212212533859e-01 4.6122101388765779e-01
      2.5184247782769076e-01 -4.0291920977452939e-01
      -3.8993911608802910e-02 2.0330715736362182e-01
      -3.0750867062435383e-01 -2.1208316577069000e-01
      -2.7259042257009619e-01 1.9758491438423012e-01
      -2.6212317306123550e-01 1.7993873013177705e-01
      2.0728684674375936e-01 -2.5378071911814004e-01
      3.1065556343576489e-01 1.3054133884062066e-01
      3.3293290470915815e-01 -8.8808359268902799e-03
      1.1334784562488597e-01 5.9404344623992945e-02
      1.0586103011219367e-01 -8.7447480215475867e-02
      3.7179219673207647e-01 2.4998338600203973e-01
      -1.7307668201612000e-01 5.9730055504187411e-02
      -2.1575446403230697e-01 1.7648939555927395e-01
      -2.8644960704413774e-02 -3.2396799074650834e-01
      -1.8101273800713447e-01 5.6460293363631189e-02
      2.2758719027406846e-01 -4.1746763099450218e-01
      3.7949774210706078e-01 1.6558096451569426e-01
      -1.3582978833227230e-01 -1.3907307301808844e-01
      -2.0803763289168031e-01 -1.0882249338007001e-01
      -3.4203316214337054e-01 2.2906820819749529e-01
      -2.7481099865847242e-01 -1.4004852694281664e-01
      -2.6553953264779617e-01 4.2970767430371495e-02
      -8.8820886224049017e-02 3.6909153136967870e-01
      2.0271461039512578e-01 -3.1968752443394299e-01
      -4.7281781832797271e-01 -3.8271556985077448e-01
      1.8802512866112775e-01 -4.5788350984239959e-02
      1.1566109491745939e-01 -1.1564651686726542e-01
      -6.5771996898061888e-02 4.0157747881683725e-01
      1.4130902829899550e-01 -1.1134561576324448e-01
      -1.9132718667640225e-01 2.6417886294734427e-01
      -1.2163138440411647e-01 -1.5047298560947595e-01
      3.3935537237654162e-01 1.3509195175318561e-01
      3.0601365303080297e-01 -1.2970755453327396e-01
      2.0485004653378971e-01 6.5991765477611819e-02
      -7.7453238496730553e-02 1.2255645311096212e-01
      2.7401825055082230e-01 9.4496146470765416e-02
      -1.3742674410514469e-01 -1.9372702576620043e-01
      2.3968747427257339e-01 -3.2243426652216572e-01
      -3.6638768170004010e-01 -1.3521266940140331e-01
      1.0124587904986938e-01 8.9729176449342939e-03
      -2.1763467592252006e-01 6.5402649035504717e-02
      -5.2611618577106452e-04 1.9264900897310694e-01
      -6.7031272920374294e-02 -2.0166241271205115e-02
      2.2622119672454361e-01 -1.2866976166913674e-01
      1.1333265486031734e-01 -2.7765877433254216e-01
      2.4456088909498980e-01 -1.0594089600216838e-01
      1.5646405224093329e-01 1.7543923706118056e-01
      2.0106222298124196e-01 -2.6794862666666830e-01
      2.2186998909107872e-02 2.8147639566648014e-01
      -3.4190421118422154e-01 3.9446534654237375e-01
      -2.0260722425723260e-01 5.4294851744220933e-02
      -9.7603027568260656e-02 -2.4352843545839720e-01
      2.0371369339706163e-01 -2.0897869481845510e-01
      4.4030120361708075e-01 4.5205424929645860e-01
      8.4139671573430302e-02 1.0454334924155223e-01
      -1.2038192231481559e-01 2.2253721235723140e-01
      -8.2478395203666233e-02 5.0001877906905046e-01
      -2.1003082923215011e-01 -2.1881076237720773e-01
      7.6036115229509760e-02 -1.8113942640851383e-01
      -8.7916749879536002e-03 1.2686033420512011e-01
      -3.4537200047484967e-01 -8.1528763121294132e-02
      -7.6952754181112762e-02 -1.6495389021372150e-01
      1.8393342536071261e-01 1.4249207767448230e-01
      3.7409643032362533e-01 -1.3621524914712355e-01
      2.3685182017918624e-01 -3.0499282323442573e-01
      -5.3025829780790390e-01 1.2530104427750316e-01
      -3.6023405548155946e-01 -1.6392600610948679e-01
      -8.3598611840219855e-02 -3.3759879862463815e-01
      5.4057729636337495e-02 -2.6984530903375253e-01
      1.4361799328223970e-01 2.2401077178774259e-01
      -1.6846850795687049e-01 -2.3052072037303556e-02
      -1.7840653388558912e-02 -2.1061379251510076e-01
      -1.7921260889240581e-01 2.8209147232461068e-01
      2.0562144384611364e-01 9.0265079205707657e-02
      3.6853626271263279e-01 2.5593206068416047e-01
      2.4071407682207369e-01 6.5238145090989103e-02
      3.2407937292971489e-01 1.0773357531396104e-01
      3.1590403780577686e-01 -4.8780357501575208e-02
      -4.2782234040663725e-01 8.5445064078586541e-02
      2.9205148289889410e-01 6.8990481453199942e-02
      -3.5655861032724279e-01 1.6549440977851754e-01
      -3.4986486987259584e-02 -1.9287799946853795e-01
      1.5377023679493979e-01 -1.8573771490552601e-01
      -1.1720225073616912e-01 1.2615425529248486e-01
      1.0264538417197937e-01 -5.4930622857985478e-01
      -3.2715761059966303e-01 1.0582415871207650e-01
      -2.5812942585292475e-01 -2.3019054233746217e-02
      3.2060812281521293e-02 -1.2085256703301860e-01
      -5.0193081094879008e-02 1.6713562849689698e-01
      1.9725915980556463e-01 1.5931468969621024e-01
      2.1641144895214784e-01 -2.6686535478311069e-01
      -1.0585187001470509e-01 2.6016326880493029e-01
      -1.5353669317258642e-01 -1.3020756222115404e-01
      -3.9047026547462044e-01 2.3160917602824632e-01
      -2.8607730188100838e-01 3.1738766677189056e-02
      1.8994852976998397e-01 -1.4245228966132182e-02
      2.7616270830377609e-01 3.4384831030379220e-01
      -2.0260535368875121e-01 -2.1110069106358370e-01
      2.3628759592556700e-01 1.7039892322435932e-01
      -9.8113872156484594e-02 -2.6994572327274224e-01
      -3.5815609697543643e-01 2.5782888377294033e-01
      -1.6221398874535845e-01 -1.1059868594276215e-01
      2.4783096144774169e-01 1.2661121827831770e-01
      -1.3603762368139521e-01 9.3202890633287211e-02
      1.9326365447985949e-01 1.6840967833199630e-01
      1.0940194873861055e-01 1.9244842938724138e-01
      -5.2826652088246773e-01 -1.7262014475842041e-01
      -1.9135797893374956e-01 2.5872630491161691e-01
      -1.2008214269267170e-01 2.4599285785833991e-01
      -1.0101137594965807e-01 3.4805260030719481e-01
      3.4604575745199861e-01 -1.6481866684127183e-01
      -7.5169026467234612e-01 3.7522534098894983e-01
      -5.3833794459080919e-01 2.2063019776360149e-01
      1.6678754925376327e-01 2.3285319720086786e-01
      2.1080121393608620e-01 -8.5545400095645888e-02
      1.6472767168288519e-01 5.1238386611086095e-01
      -3.5559364930241721e-01 -4.8450234060571101e-01
      -2.3856312831564724e-02 -5.3401376320606231e-01
      9.3643811675069955e-01 7.2389682757591306e-02
      2.3840961992961637e-01 3.6455917304132546e-01
      2.0988581943274978e-01 6.8836101322302812e-01
      2.6711284751169129e-01 3.7438993454184588e-01
      -1.3839242860494419e-01 1.2180365704218250e-01
      3.2622147216441988e-01 3.2463851127117671e-01
      5.1500257831901519e-01 -3.0644671069524088e-01
      3.4123329620760090e-01 -3.6950607125644830e-01
      1.8144508673124396e-01 1.0694722712847092e-01
      -3.2431145133748518e-01 1.9980508473756525e-01
      -3.5995532747351050e-01 1.0592474544379646e+00
      -3.3314100510166152e-02 -3.9236497621616795e-02
      1.5143897135090389e-01 2.7876669188331488e-01
      -4.6441907292296297e-01 6.2654232302594162e-02
      2.1562055295099972e-02 -3.1671368076675488e-01
      7.2817995949893199e-01 3.4294505998815156e-01
      -4.4507986037296493e-01 2.0400543190884263e-02
      -3.9021568664445933e-01 6.5133060910253737e-01
      4.7833964376441274e-01 3.7704803633100359e-01
      -9.2982048471765989e-03 2.5672667079952455e-01
      1.3524374569134362e-01 1.4072406874196164e-01
      1.3683241973768401e-01 2.4122482509292348e-01
      -3.1302930447941585e-01 3.0691522409620714e-01
      3.8057363897827656e-02 4.4514237115151428e-02
      -2.0252736829353787e-01 1.8916831472980936e-01
      -2.5250898230377344e-01 -5.0259360777978079e-01
      1.2015624443627248e-03 -1.8649611445521289e-01
      -4.2277534489721554e-02 -4.1680104494292619e-01
      -5.1281616985035916e-01 -3.0762006696100558e-01
      -1.2697702731218224e-01 -2.4871908298902848e-01
      -4.5758792364880563e-01 -1.4150811340543870e-01
      -1.5047475988224471e-01 -1.9245425504155741e-01
      -1.0899241622820045e-01 1.9369171147576833e-01
      2.5413557952889404e-01 -2.4516432878349897e-01
      -1.2598057004164345e-01 2.2338046934436484e-01
      -7.7565326635792062e-02 -1.7176835942790797e-01
      4.2369913690534355e-01 3.3937412392081989e-01
      2.5371901632877808e-01 -3.3828610566836748e-01
      2.9499353664138817e-01 -3.2629291596218757e-01
      -2.5301478539743838e-01 2.6432601655283927e-01
      4.0975498214532263e-01 -2.7582249257636238e-01
      3.9780998809406415e-01 4.5733306501052701e-01
      -5.1351045142197516e-02 3.4614706132449902e-01
      1.5347414292993541e-01 4.1284999577963766e-01
      -1.3255171655228301e-01 1.7100292951167262e-01
      -1.7452147947253116e-01 -8.4872334132639185e-02
      6.1773902825376892e-01 4.7522150504102723e-01
      -7.2208209492997788e-01 3.0966997692312332e-02
      1.4978353486169615e-01 -2.8075280932206997e-01
      -4.9720379786600773e-02 4.5580564328245665e-01
      -3.8242469065872403e-01 -1.2956913697295120e-02
      -1.4750009172516099e-01 -2.1074233874742412e-01
      3.4096262840981623e-01 1.4895608250869694e-01
      -1.7285521437135432e-01 3.5328559274530585e-01
      -3.9462366030199914e-01 -1.1985249224524706e-01
      -3.6418245397279791e-01 -2.2835992518386983e-01
      -7.6621092214857536e-02 1.0215980583893257e-01
      4.7097534092452029e-02 1.1468759559270943e-01
      1.4475959567541022e-01 -3.4395616263338241e-01
      2.0879273474383178e-01 -3.4680246700643147e-01
      3.6162215854813756e-01 3.8093023516261909e-01
      1.4477801897266207e-01 -1.3157022895580733e-01
      6.4522114393123853e-01 -1.7974707866494055e-01
      9.6348516445785848e-02 -3.0429606826347994e-01
      -2.3501090786102161e-01 -3.6575079846326713e-01
      3.9198858915913154e-01 -1.9404905803132427e-01
      1.3352543885411334e-02 1.3965922991782562e-01
      -2.4253218433500268e-01 4.3196496521400668e-01
      -1.4291551996091773e-01 2.3076407309691321e-01
      -4.3049370160913136e-01 3.5724165938457758e-01
      2.2547199461086004e-01 4.0060508466858019e-01
      1.9908836896078105e-01 -1.3705399352379896e-01
      -8.9612649356490853e-02 -9.5890434968404895e-02
      2.8444758547322685e-01 4.5939704508400769e-01
      -3.8284706009075603e-02 -1.0842259307480542e-01
      1.0196822940909351e+00 1.7800245801840087e-01
      -8.3887254462296029e-02 1.3975509733618502e-01
      -2.0623798879403010e-01 2.6234544716390135e-01
      1.7108202328257641e-01 5.5879519295159441e-01
      2.7300631742824666e-01 -5.9845195084041447e-01
      -7.8396717132334715e-01 -3.3040015366663461e-01
      5.3891937984691954e-02 4.0087950111446713e-01
      -2.1832144609369431e-02 1.3293992785503697e-01
      -2.9014974472765337e-01 4.5715295814340112e-01
      7.6292789990262733e-02 5.2997920290538281e-01
      8.6977241664518562e-02 -7.8148271535795732e-02
      -1.8323043807388323e-01 1.2792535849480524e-01
      -2.9845135678071077e-02 1.9443198886257268e-01
      2.5963369724040603e-01 1.2805687592301426e-01
      4.7083589917117091e-01 -3.8943302093734444e-01
      -3.1967859709855939e-01 -1.3273829582067062e-01
      -4.1998073744160574e-01 1.3134809066459460e-01
      -1.1685064843321596e-01 -4.3051021293694841e-01
      -3.0782748036057697e-02 5.3779058500158161e-01
      -2.2931732856303069e-01 -3.7017173939922748e-01
      2.5205629788590361e-01 3.2957285873248465e-01
      3.8056935684652282e-01 -1.0948770278080409e-01
      -5.0729746426330442e-02 -2.3975198626289473e-01
      -1.8409636058332529e-01 1.5479703008678330e-01
      9.4199239322186365e-02 4.5029521393866664e-02
      4.1278727811071037e-01 -2.6363287687508685e-01
      -2.7999315393028089e-03 4.0026810775487642e-01
      -1.6559427050288317e-01 -8.3589559627524690e-01
      -2.7970054015781692e-01 -5.3338019961859509e-02
      -2.7837005033501494e-01 -2.7827194722427423e-01
      -4.7244791864984245e-02 1.2801607511217755e-01
      -2.9242847882577631e-02 1.1747585162626041e-01
      1.4566270416918084e-01 -2.6247598229498204e-01
      -2.1014066916380503e-01 -2.8802774577252299e-01
      -1.9988733622902274e-01 -2.1936337933197111e-01
      2.5510537300548869e-01 2.8056732112843097e-01
      2.2477021300307756e-01 3.3335388963181234e-01
      1.8237971106440914e-01 2.7287571178315900e-01
      3.1615742988967821e-01 3.4489384687013475e-01
      2.4506939368226330e-01 -1.1800265898696510e-01
      -1.2108436898229141e-02 2.2827441276020827e-01
      -4.4378689136841654e-01 -1.6651678753703680e-01
      2.5720136969955987e-01 -3.3574888037531453e-01
      -3.3832307517944382e-01 1.8696248866489917e-01
      1.1146417555244781e-01 -1.9189188913349944e-01
      -7.0060897814963385e-02 4.7652302289464382e-01
      2.0169586478763579e-01 -9.1538881563467695e-03
      -3.0964675456492660e-02 2.6537159471674782e-01
      -3.1287540542507719e-01 2.5257345271037535e-01
      -3.6884072098497039e-01 -1.6854695336494083e-01
      3.9377437949654864e-01 1.2195568569352669e-01
      4.5169046251170630e-02 1.7379016834373806e-01
      4.5005386116686114e-02 -3.4078287761799925e-01
      2.3520346833639777e-01 4.0734133756926798e-02
      1.1072256343166974e-01 -9.7257487266334708e-02
      2.0252258544722596e-01 2.2653850713914006e-01
      -1.7289701426033957e-01 -1.9104202044580160e-01
      2.6403660716435351e-01 -3.3757056249871514e-01
      -8.3265302354458587e-02 1.4480366269085795e-01
      6.9709444806033971e-02 2.4537868317787276e-01
      1.8674048360100645e-01 -3.1099598989544736e-01
      2.1875251933120188e-01 -2.0557081193690058e-01
      -2.2724796295805635e-01 -2.3054065048385705e-01
      -2.5847768558780349e-01 -2.6022577024224625e-01
      2.1519051250499807e-01 2.7784459987306870e-01
      3.1767984057241472e-01 -1.2176990994770433e-01
      2.2653894175503700e-01 -3.8613984795767148e-01
      3.4733739135836028e-01 3.6539845887306965e-01
      4.0417329724445838e-01 2.5926295482598205e-01
      4.2242042065091349e-02 2.4798444690124394e-01
      4.2143978462382457e-02 1.2113863302754517e-01
      1.9247807219135318e-01 1.8619660166846672e-01
      -1.2316139318563370e-02 -9.3964633660922642e-02
      4.2510975380974991e-01 2.5422434400711402e-01
      1.8409293607557947e-01 1.9360152410206738e-01
      2.0046293906506721e-01 -3.5847549316948801e-01
      2.2815666291363662e-01 1.9395646933837002e-01
      1.6681780896206180e-01 1.6871658429615541e-01
      4.7067296660952895e-01 2.4975380570700720e-01
      -1.8977635761345635e-01 2.5382216171841088e-01
      -1.5347434668833282e-01 4.4714125641178887e-01
      -7.6229809558032435e-02 -5.7204123182785283e-02
      -1.8331240040541008e-01 -3.1005360305438601e-01
      -2.8523668168497879e-01 -2.4933834984279823e-01
      -2.8015536825591220e-01 3.5888700334263068e-01
      2.9396459975799738e-01 1.1033489922207509e-01
      2.5229871898627021e-01 6.5426719525958285e-02
      9.0250753021591634e-02 -1.4681603470301754e-01
      1.7607386959215157e-01 2.3215868942057663e-01
      -1.0326015323766893e-01 -1.7863897373667559e-01
      -2.0918878724779766e-01 1.4957745391978114e-01
      2.4884447880161242e-01 -1.6138323962811213e-01
      -2.0983063489489479e-01 7.9843075915915204e-02
      1.3727010591128849e-01 2.9779236734459569e-01
      -1.5531884741827898e-01 1.7410088399260032e-02
      -2.8564147093328918e-01 1.9919584430487261e-02
      2.6811625850537368e-01 1.6623189652974971e-01
      2.4791224810784698e-01 2.7461206082900924e-01
      2.3765481359136484e-01 -2.8655615353488079e-01
      -2.4720639260702557e-01 2.9451864231420538e-01
      -1.5140111540673690e-01 -1.8497058743862418e-01
      1.1213269067547786e-01 -1.6042965710284779e-01
      -3.9533206473952649e-02 1.8327203189112951e-01
      1.9752631813337829e-01 1.3909194109840195e-01
      -2.6346974304362558e-01 -2.5367831758196802e-01
      1.6387827555885703e-01 7.0757555489016827e-02
      -1.2189225763094963e-01 9.4477036644303722e-02
      1.7537830157377379e-02 -1.1283321247676366e-01
      2.5510748211273782e-01 2.3782532791777963e-01
      -4.9350973691267336e-01 -8.6724790029593435e-02
      2.3743252882268034e-01 -1.2656734625567548e-01
      -2.2178658714770819e-01 -1.4284488003175616e-01
      -4.0022842556679317e-02 -2.8012581033052547e-01
      2.5046429373986384e-01 4.0589014937148926e-01
      -1.1289506720485967e-02 -4.0902660422213716e-02
      4.8657137732410261e-02 -1.9886677856183996e-01
      -2.1234135638690785e-01 6.8809798346080281e-02
      3.1312244356810942e-01 5.1046377878415358e-02
      -2.4481210619127569e-01 2.4164828714655289e-02
      4.3310711476609703e-01 -1.1039421079424612e-01
      -5.7611761162603539e-02 2.2025700200960824e-01
      1.3771184791795774e-01 -1.5951282669923880e-01
      2.2006916325012732e-01 -2.6612717354927840e-01
      -2.0973918575315953e-01 -1.4343364106288001e-01
      -3.3315454430256769e-01 -2.2501338229483886e-01
      3.8769472538150065e-02 1.4900203301361345e-01
      1.8759572322191981e-01 1.2363162397976568e-01
      -3.6526543840285913e-01 2.3498940160130349e-01
      -6.0799765771326904e-02 1.7562022175750336e-01
      -6.2406886028728806e-02 -2.4728991300366884e-01
      -1.3534954556691858e-01 1.3799029959433043e-01
      1.5770078378650754e-01 2.5088187263413442e-01
      -2.3802254180973931e-01 -8.0283480199123902e-02
      1.4249209588585041e-01 -1.2561360399873464e-01
      2.2728871046660246e-01 -2.6459758466248984e-01
      -7.3115244483500763e-02 -2.6591370224825533e-01
      2.7956044963436671e-01 1.9561021018668331e-01
      -3.0596992613212676e-01 -1.1858504456805687e-01
      -2.4989664019337945e-01 -1.8483103756331978e-01
      -3.0051938999756050e-01 -2.3587166162669410e-01
      9.3908099688220670e-02 -2.1350385474963168e-01
      -2.7158924753496255e-01 -3.4022580734334684e-01
      -1.7805496411168953e-01 1.3928154383749061e-01
      7.2645352709080985e-02 -9.1813671157919025e-02
      -6.3366760244505146e-02 -2.5488920420154670e-01
      2.8609095475276952e-01 3.0215255097596094e-01
      3.3097127303715229e-01 -2.9589097005070752e-01
      2.7215111530171560e-01 3.5733635914143952e-01
      -2.5526212309279939e-01 -7.9192540489548102e-02
      -1.6788091392357479e-01 1.4558236631722565e-01
      -5.4382130198129019e-01 2.4091512684237879e-01
      1.9365904772159659e-01 2.1774095483210051e-01
      -1.1801957366381467e-01 -4.6181476568656656e-02
      2.1615531128341553e-01 -1.4966775451671482e-01
      3.9811796715687853e-02 -2.0986204247098411e-01
      -2.2190876666846573e-01 1.0746605064354842e-01
      2.8329860997186200e-02 -1.8977173203997330e-01
      1.6462893851062008e-01 -7.1847466938423532e-02
      -2.4730773395753823e-02 1.4060676972190359e-01
      -1.6508724256303731e-01 2.3589538233207893e-01
      1.8429956376343681e-01 3.9084947894112744e-02
      -9.8691943162127274e-03 2.1685127743113233e-01
      1.7510891736551004e-01 1.5923329536863171e-01
      2.3268889654485300e-01 -2.4862711173309079e-01
      -2.7646164879819252e-01 4.3298260175260374e-02
      -2.1995028310542319e-01 3.9541989379946418e-01
      2.1204369905787332e-01 -6.5413181134531248e-02
      1.1775179540102301e-01 5.7933407936087963e-02
      -8.6191235389829229e-02 -1.8241277570238570e-01
      -3.9116021631274395e-02 2.7876892931875441e-01
      -9.4408588174488724e-03 -1.0090279793331036e-01
      5.4267351657075261e-02 -3.1647627314584365e-01
      -2.3519458352564343e-01 -2.8705168359423228e-01
      -1.8088630261119054e-01 -4.1881455784252382e-03
      1.8607413986973839e-01 -2.1029779088849790e-01
      -6.5392785241753917e-02 -3.5723525687226121e-01
      -2.3822059231738624e-01 2.4906913367224920e-02
      -2.6850181672754318e-02 -1.3162375713988383e-01
      3.8788359794471483e-01 -1.0485084943883206e-02
      3.3648954000294795e-01 2.0251339076271199e-01
      -1.7962402031047256e-01 -1.4625879794324953e-01
      3.3772656188725735e-02 5.3291411146542032e-02
      -4.6565162203337390e-01 1.9934508910733645e-01
      2.4956823366988024e-01 -1.7436779297873059e-01
      9.7019914910805707e-02 -2.2337865865916087e-01
      3.3808755315834160e-01 -8.7459621330029491e-02
      2.2981799844709175e-01 1.5231396473339320e-01
      -1.6686678951867623e-01 2.7596960046159380e-01
      -5.7297951448351217e-02 -2.1215871742831754e-01
      -4.3366087163878117e-02 -3.0807230427147891e-01
      1.8321740809169548e-01 2.0033727938826978e-01
      3.4036923056451240e-01 2.9606060383333266e-01
      -2.8488718739860047e-01 3.0537730831123400e-01
      -7.9669260926405167e-02 -1.4587835695808934e-01
      -1.6124778952513429e-02 -1.1732626608643559e-02
      -5.6318203988568842e-02 2.8627000013291465e-01
      2.4570696417917914e-01 1.8603609691324530e-01
      3.8613197281324313e-02 -1.7274253650632276e-01
      -1.6442318851811177e-01 2.1987413227945958e-02
      -2.4110767069181710e-01 -8.8585024425192060e-02
      9.5601213737320681e-02 1.4282060856856843e-01
      2.2081926612942077e-01 -2.4998665192975142e-01
      -5.9564066639934549e-02 4.0542640350981990e-01
      -3.9672057954577972e-01 -1.3024861970704199e-01
      4.1624389120167987e-01 -3.6461269287884158e-02
      2.7900497261198232e-01 2.3276699635804679e-01
      -9.6368864000684534e-02 2.3950370284062034e-01
      1.4099026316017688e-01 1.2952917322756541e-01
      -3.4809398288644067e-01 -2.5352987727710363e-01
      1.2852923069577807e-01 3.3963477948532377e-02
      -3.0101198191293095e-02 -2.9145466056433017e-01
      4.0155270455090747e-01 2.9791533507054535e-01
      3.0454109578399713e-01 2.3432532261562417e-01
      1.9143489563420704e-01 3.6502975604729884e-02
      3.4923803835408385e-02 8.6127513143851475e-02
      2.4919942913455390e-01 4.6674784012776988e-01
      -5.9731121385613380e-02 3.1530357315016444e-01
      1.2288408279395426e-01 1.6766401285302365e-01
      3.7494120490948191e-01 1.6111731931800588e-01
      -4.5550161314420398e-02 -2.5900295673525464e-01
      3.2999358381613708e-01 -2.2673438355550621e-01
      2.8127097824405484e-01 3.1366843101663412e-02
      -2.4991245207737900e-01 2.4799178862144955e-01
      -2.2587953275464334e-01 3.1389305573914850e-01
      -3.4411895156157918e-01 9.0310392815997481e-02
      -5.1802262374582775e-01 -1.8607787638321999e-01
      2.5595216211965599e-01 -1.4025268908759911e-01
      -2.2307374518687004e-01 6.7764337624388160e-02
      2.2019612850070128e-01 3.6890830992710982e-01
      -4.9979641274581051e-02 7.1964251085487235e-02
      -1.7000387700176597e-01 -5.6145667144131758e-02
      -2.5304946798321937e-01 -3.0171608289642832e-01
      3.2356234457334354e-01 2.5927984304227072e-02
      -1.0752971400973626e-02 -6.8658311200125693e-02
      7.2692209869138741e-02 -9.2304840944581190e-02
      1.9306518967793088e-01 2.6834555821554240e-01
      -4.0184842902030352e-02 4.1786856066132433e-01
      -3.9413087728324980e-01 -2.4019802451186686e-01
      2.9950370809744348e-01 -2.4876116350656757e-02
      2.2852815346918162e-01 3.5801967036696289e-02
      1.1840643304769737e-01 1.1271664635052125e-01
      -1.5466549824885717e-01 2.7839170918346201e-01
      -3.0644894208140339e-01 -9.5996045072664037e-03
      -1.9125456589685664e-02 -1.9690847554420118e-01
      -2.6839642898742960e-01 3.0651722907562950e-01
      -2.5837654834791846e-01 4.9446017785389866e-02
      -2.2500484378384222e-01 2.9402421258093886e-01
      -7.5382885017362816e-02 -2.8699602247699740e-01
      -6.1594589458012938e-01 3.4256039040299302e-01
      -6.2864498722066420e-01 2.5656115874908392e-01
      -4.6669981096089178e-02 3.2912819029183826e-01
      -2.2114644240604453e-01 3.3299722956774601e-02
      2.3215319051227984e-01 4.4631972000976533e-01
      -1.6731618472337484e-01 -3.0823436611400164e-03
      2.7764690259064873e-01 -5.1761936640857964e-01
      7.2812708799584003e-01 -1.2119695301665188e-01
      5.9087930954462575e-01 1.3492742565349947e-01
      -3.1431320165555870e-01 6.8616707200601723e-01
      5.8345495545932970e-02 -2.1650092368827931e-01
      1.2191106993664157e-01 -1.6924978032202892e-01
      1.1575311265410639e-01 1.7341249486727239e-01
      4.5412959442205847e-01 -1.3798153896651161e-01
      -1.6794011945321666e-01 -2.9492979516418238e-01
      4.4576903522714606e-01 -1.0410432865610826e-01
      2.3466840693684171e-01 -1.2626320568149335e-01
      -1.1519916016340426e-01 7.7452801048113484e-01
      4.9320644095814853e-02 2.1380413173655446e-01
      6.7836970754075569e-03 4.1761711396450851e-02
      -2.3901360956804860e-01 1.9085503720033448e-01
      -3.4040775690253468e-02 -1.2441004066125741e-01
      6.4961590785715806e-01 1.5396086622983982e-02
      -1.7936822924304510e-02 1.1823680997631094e-02
      -2.1958896075046666e-01 4.5722481712880930e-01
      3.7932070872034052e-01 1.9386696614942175e-01
      -1.1172994900647340e-01 1.2122803199417900e-01
      1.9359657761793084e-01 2.6121581440910518e-01
      6.4227737087767703e-02 1.6013584687182392e-02
      -3.2988219429180554e-01 1.2358496246303076e-01
      -5.0696687347132625e-02 2.0877547054673518e-01
      1.5444275901520629e-01 1.7857215663206141e-01
      6.2417504397888499e-02 -3.4335963712385542e-01
      2.8666966632072421e-01 -2.5945974506917457e-01
      -8.3021458362699002e-02 -1.7361166317402818e-01
      -3.1058236114232957e-01 -3.5103307799431813e-02
      6.9719170282841886e-02 -1.9865500095098088e-01
      -3.2439947453071422e-01 -2.2253709188844695e-01
      -1.0372175494317060e-01 -5.9832729184729545e-02
      2.7177399257268708e-02 2.5209648624104636e-01
      1.1817133930927656e-01 -1.1742512734190685e-01
      -2.1586139851759160e-02 1.4233886209807675e-01
      -1.2303684596360792e-01 -1.7366762332947469e-02
      2.5320969064754534e-01 1.4693330784701170e-01
      3.4892309287300485e-02 -2.8583941112244264e-02
      2.1428705287335198e-01 -1.1727044235202447e-01
      -2.7679822252349388e-02 -3.6390080889717444e-02
      3.3017595970009161e-01 -4.5761879259055019e-02
      1.0885651797754714e-01 2.4995532330268888e-01
      -6.3414697873837481e-02 2.7020478791559588e-01
      4.6644526273907104e-02 4.6693505001396719e-02
      -2.5749728641962580e-02 -4.4519901714086853e-02
      5.4512032636048723e-02 1.3521239030558757e-01
      3.1113644419364567e-01 2.5737358523298548e-01
      -3.7860582437946105e-01 1.1689079602585821e-01
      -5.0055687849517264e-02 -3.8035290631612366e-02
      -1.1467908582544933e-01 1.2552120610582543e-01
      -4.7645578618902937e-02 7.7336736616239854e-02
      4.8991271100375079e-02 4.6112029032193629e-02
      1.5929726893433017e-02 -5.6818205925956773e-02
      -6.7291035300664936e-02 5.4776151604063565e-02
      -1.7682061525479636e-01 -7.4331254458128548e-02
      -5.5355173986868607e-03 -7.6983951308703001e-03
      7.0854177836858948e-02 -1.3801612797944321e-01
      -5.5118167642819328e-02 1.6510530171864315e-01
      -4.1250666612257590e-02 -1.2652944089473644e-01
      1.8420540055457424e-01 -2.5361137032997699e-01
      8.9912641857286493e-02 1.1449009709629096e-01
      1.4582654542162399e-01 1.1669659662555463e-02
      2.7868428471776208e-01 2.4622583652374894e-02
      -4.4674888684734917e-02 -3.2016295510569315e-01
      1.8758680422430622e-02 -9.3705871633793777e-02
      2.5169926700941603e-01 -3.6598981167919320e-01
      3.0202873330227048e-01 1.6071074016564391e-01
      1.2187768018914280e-01 2.0024774118598204e-01
      1.9006220901158646e-01 4.1668768114334100e-02
      -9.4307545404084633e-02 7.2322324912152888e-02
      1.4064793659573557e-01 4.1459941966837494e-01
      -9.3411613923339243e-02 1.4489917045513065e-01
      2.8359231222543326e-02 -2.3540265939875911e-02
      3.7785566692232608e-01 2.2317445662157664e-01
      -3.9688968748975534e-01 -2.9601912867543667e-01
      4.3751414174722558e-01 -1.4688346324644591e-01
      2.6560422246155024e-02 2.7957225447385403e-01
      -1.5694052918891577e-01 -3.4052850643497300e-02
      -8.9404576586755279e-03 2.5362180051976568e-01
      1.6214214369624615e-03 -1.9842985417196282e-01
      -7.1847056809069398e-01 -4.6849329867270723e-02
      3.0004274684403703e-01 2.1577432906694144e-01
      -1.1689585869684042e-01 -1.2236160945622883e-01
      -3.5050861393193256e-01 2.0992998803467117e-01
      2.4791989543846557e-01 5.3729544638335680e-01
      -3.1318972578474130e-01 -3.5172352346279229e-01
      -2.2903922019908957e-01 -3.5763757287107734e-01
      3.9320610361498635e-02 -1.8279029586626327e-01
      -4.0705786273047682e-02 2.8832778609759585e-01
      3.2136885363096901e-01 1.4157239260169302e-01
      3.9009387141338371e-02 -3.2803457229176902e-01
      -2.3036212169911055e-01 7.4404114396460230e-01
      8.5987438245431133e-02 -3.1452846083233316e-01
      -1.4729564494041431e-01 3.7366078956394877e-01
      2.9360399624933997e-01 -2.2647983438037916e-01
      6.5016318491177905e-01 -1.4380879893961504e-01
      2.2468584064469016e-01 2.1372432066704186e-01
      -1.9572018273956751e-01 8.7031361222481229e-02
      -6.4714958975984804e-01 1.7367029585465329e-01
      5.9993235369240137e-02 -1.7697923405556354e-01
      2.4456341561186890e-01 9.5937301588034637e-02
      -2.0734379669859654e-01 3.1155652546471518e-01
      -1.1133885000790884e-02 -6.6892164247458519e-01</_>
    <_>
      1.4403040127022567e-02 3.0092234909016059e-02
      -2.0041473799187973e-02 -2.5660883449220360e-03
      -9.1728210864369458e-04 1.1313770987749685e-02
      1.4409602698003986e-03 -1.2026638608970779e-02
      3.0162101182008239e-02 -1.8856980500639265e-02
      -9.4466046604760930e-04 -2.1457842616317026e-02
      2.0259811929207623e-02 3.0088848407016096e-02
      1.9977193656928729e-03 6.1351759406049937e-03
      6.0998781503154662e-03 -1.6145970924865759e-02
      -2.3218654380999716e-02 -4.9859615453957109e-03
      2.7378027121304142e-03 -1.0773862891378825e-02
      1.2291495358271190e-02 -1.3505463917800694e-02
      8.5697792826148877e-03 -1.1624987698464128e-02
      -2.6112517927388335e-02 -5.7880064511542095e-03
      6.3699430475926628e-03 3.5476970653530858e-02
      -1.1411478882944173e-03 3.1208791380235340e-04
      4.4126018838686176e-03 1.6608791813906273e-02
      -2.3284392163353171e-03 2.3065783341686158e-02
      -1.5728837231728274e-02 2.3826229929618491e-02
      -3.7607985775648593e-03 4.0918421402190014e-03
      -2.9298090508273315e-02 -1.6971105231118600e-03
      7.3032631851709549e-03 -2.4220435971196125e-02
      1.7584400690313782e-02 -1.5000578994759477e-02
      6.7604156766226048e-03 2.8074143014838689e-02
      1.4262087920074327e-03 1.1288171610805123e-02
      9.8574338576073329e-03 -4.6299347588975919e-03
      -4.1853672288404290e-03 -9.8843146891575712e-03
      5.2089620962789745e-03 -3.1527083805368812e-03
      -2.7289190296423751e-02 2.9699675867789398e-02
      -3.4196693018028186e-03 2.0764957278013446e-02
      1.4556297511940484e-02 -9.2383315887694120e-02
      3.1144680566214038e-03 5.6337133185162648e-03
      -1.6924915889615338e-02 5.3687041723419204e-03
      2.0718543723741205e-02 -1.6581057290782315e-02
      5.8940035286412472e-03 4.4160595743939414e-05
      8.4073985742792196e-03 2.1873089151602642e-02
      4.1459124516830216e-03 -6.4226702755592197e-03
      -4.1165830254655958e-03 1.9556349183237898e-02
      -8.2731311440840029e-03 1.4314811901655581e-03
      -6.9718016588015772e-03 1.6701469437730406e-03
      -1.7432930180791832e-02 -1.5888515852197003e-02
      -2.5397704706322039e-02 -1.4728207012066535e-02
      9.5842907101708688e-03 1.1015163000176910e-02
      -1.2303375893901194e-03 4.6634920513197922e-03
      4.2384616802738457e-03 -2.3608948282511224e-02
      -2.3637920893463185e-02 5.4143587754851624e-03
      1.6777215286757692e-02 -8.0622520331249184e-03
      -8.8130326241992983e-03 -1.1852279588146575e-02
      -9.5438141794402485e-03 9.4423989176908255e-03
      5.7156574443938406e-04 -1.7045703395121797e-03
      1.8501767223144017e-03 -8.2924268084231534e-03
      -1.9386595484109943e-02 -1.4304693585266553e-02
      -3.1250414405802965e-02 1.6958765991600497e-02
      1.3808480844633149e-03 -6.2741712805036778e-03
      1.1320146211727769e-02 3.5758383945448599e-02
      -1.7257873289256580e-02 1.0647139785067164e-02
      -6.3523345902325610e-03 8.7093060838531241e-03
      -3.8027942286589320e-04 -1.4718182220067929e-03
      -6.6036949896859159e-03 9.8115436392347197e-03
      1.5754927956005520e-02 1.4501426865984468e-02
      -1.5477286872103785e-02 -1.7209237910779985e-02
      -2.3451618337480395e-03 -8.4401183688873078e-03
      1.2079093967411188e-02 -6.5183701104076040e-03
      -1.7090748816870307e-02 -6.7558209328384331e-04
      2.7923310681092241e-02 -7.5101082988854135e-03
      -2.0500477830126978e-03 6.9677658869004341e-03
      -5.2726093170564507e-03 -2.8601381184004550e-02
      -1.4186248270720838e-03 5.3352624250649523e-03
      5.6121530079738819e-03 -4.9394885562139487e-03
      -1.2523064935724158e-02 -3.1053068838850985e-02
      2.0026628242772373e-02 -2.0409265483111970e-02
      -2.1592445042980926e-02 -4.7499384590612738e-03
      2.5693967402294578e-02 -7.1362359592538555e-03
      1.1180225700086213e-02 -3.7812655575824167e-02
      -1.4611144750079507e-02 1.4546199444512698e-02
      2.6407284325671829e-02 -7.7066202460981418e-03
      1.8230744411590540e-02 1.3379010763297586e-03
      8.7956776302881567e-03 7.9789064148807799e-03
      7.4741655466784218e-03 -1.4009981952748062e-03
      4.8567870584247715e-03 5.3767268521338028e-03
      -2.0980907304224247e-03 8.1081816790742230e-03
      3.5296935067040888e-03 4.2502610961195619e-03
      -4.1833604757361949e-03 5.3877657155498217e-03
      -2.2768526360930270e-03 7.3234691253838474e-03
      1.3449346629729777e-04 6.0898953739979217e-03
      1.1284003867906973e-02 -7.9294546618099873e-04
      2.1067909605536381e-02 -1.4537891915727814e-04
      -7.9515299750784318e-03 -3.1404748251855470e-04
      -7.6593096390866573e-03 2.4359786027246911e-02
      -7.7766361131198236e-01 -1.2329540669032742e-02
      -6.3198950399318859e-02 -6.1011146468663933e-03
      -1.9438151571003384e-02 1.0032621270172917e-02
      -8.0479541184766184e-04 1.6489266437957144e-03
      1.9479186972850605e-02 -8.2859884269974385e-03
      1.1710953923718001e-02 -7.5875331005315540e-03
      3.5958343948407907e-03 -1.4308248327461921e-02
      1.2555722032862805e-02 8.9349776265466117e-03
      1.2776721305527601e-02 -3.2652653686540814e-02
      -1.0740865368629358e-03 -2.1012975498706423e-02
      -1.9248416624682730e-02 -1.1657188381579746e-02
      -1.2792224367089700e-03 -5.2503306086312124e-03
      -1.5170312062238653e-04 -8.3274435384723452e-03
      1.4864359178290149e-02 -1.8171584177058730e-02
      -9.0578374833269817e-03 2.7440154906026578e-02
      2.7716587760666096e-03 1.1516970828888031e-02
      2.0775769767458381e-03 1.7320538482272431e-03
      -1.1529315391465319e-02 1.9630443894040244e-03
      9.1074950660142602e-03 1.6286849566960995e-02
      9.2457026968341214e-03 -2.9952121869946721e-02
      3.8073234716009224e-03 3.4668747457549838e-03
      2.3255096653743982e-02 -8.0478902968335059e-03
      -2.3072335654505682e-02 -6.9648735058900511e-03
      -1.1771553444391684e-02 -1.6316618718346797e-02
      1.6400050677519682e-02 -1.3764978607561354e-02
      2.1601880745239798e-03 1.0202088352031877e-02
      -1.3315944545325869e-02 8.0172325259167503e-03
      -1.3418768224941315e-02 -3.4970556926466646e-03
      9.3289403537849518e-03 2.0584397502404421e-04
      -6.6766254017739625e-03 -3.3736329788634474e-03
      3.1635991243262485e-03 2.7947771694688869e-03
      -2.1804078673604284e-03 -7.0389971321670975e-03
      -2.1470362885479627e-02 3.5244630048210353e-03
      -9.1435546238283899e-03 2.8996456031457001e-02
      2.2529309911726862e-03 -1.8241647074435940e-02
      -1.1771836513031155e-02 1.1229992605545837e-03
      -1.7747271129346934e-02 1.9821740658562130e-03
      4.5149210890552318e-03 -4.2589761700588341e-02
      -1.4431664315556921e-02 -1.0542153098561701e-02
      1.3834152557989598e-02 2.6936769456804579e-03
      1.7456759976887674e-02 -1.1360546600255195e-02
      1.4257124438715397e-02 2.6545778739238305e-02
      -1.1089166690870837e-02 1.9058254364632238e-02
      7.1670859871511431e-03 6.4463072309096378e-03
      -6.6949288516385454e-03 -1.3176166565782356e-02
      1.8507880993182919e-02 -8.7267984245091329e-02
      -2.5890629266627874e-02 -7.3082175259089246e-03
      -1.3059877067003079e-02 1.5163205794140147e-02
      -9.8500644988015734e-03 -1.0094970891518394e-02
      -1.0077264614797082e-02 3.1358607564125994e-04
      4.9660552707494338e-03 1.1862497406393205e-02
      1.1059020305942642e-02 -9.7866420610737311e-04
      2.6712800025007976e-03 -4.2195178747056724e-03
      2.5607993886291844e-04 1.5599170547465817e-03
      9.5202351611157511e-03 2.5565227893664466e-03
      1.1287878566548845e-02 4.9811117319670476e-03
      8.0998744870466606e-04 4.6065076860799482e-03
      1.4468059667349624e-02 -1.7369123294772102e-03
      4.4600951762887107e-02 1.9710041523029027e-03
      2.4783307436371738e-02 1.0330265075343171e-02
      1.9919390042859510e-02 2.9673493223057268e-04
      -1.5653606125077661e-03 1.0749903923432093e-02
      -8.2582422519767423e-03 -2.3215686799398800e-02
      -4.1247263739905560e-02 2.0275939481529427e-02
      -1.9060685930407335e-02 6.4691188480689721e-03
      -2.0045783862881966e-01 8.2795576597783950e-03
      1.5878725308397530e-02 2.6468432557727478e-04
      -1.6014235751596301e-02 1.8273185044612703e-02
      -2.7321192588116581e-02 1.8001911331881639e-03
      -9.4352013258076142e-03 9.8193857123254728e-03
      -1.3527879806397344e-02 4.1744948098718987e-03
      1.0093296671346551e-02 2.2077990561561900e-02
      1.1548404362351423e-02 -1.2529128869703679e-02
      -1.1062293945557046e-05 -1.4708952740534654e-02
      2.7742867503625711e-03 -6.7959304732313167e-04
      1.5407454470668675e-02 -5.1548647855666901e-03
      -1.0747227603024861e-02 -6.6104661332410343e-03
      2.0325699320277030e-02 1.6280882283864553e-02
      9.5712142088962907e-03 -9.1481819876880061e-03
      1.0529675341697969e-02 -1.8991822601296990e-02
      1.2298003658764685e-03 -1.3303801855709320e-02
      1.4667075216623677e-02 -4.0479386047768649e-03
      8.6299098668076724e-03 -3.6098734213181557e-03
      -4.0757093755364069e-03 -8.1575082499704341e-03
      -7.4122269055475415e-03 -5.5781365233085051e-03
      -1.3168636164684186e-02 2.0867824653795920e-02
      2.1085958717018175e-03 1.4028910278200551e-03
      9.5575259183480787e-04 1.6950348365725995e-02
      -1.3335412629817370e-02 2.8422441464890938e-02
      -1.5138599523132250e-02 -1.5084887514198685e-03
      -3.8989744099731725e-03 -1.3559973850156434e-02
      -2.2936643185617060e-02 -1.1874709168456676e-02
      5.7434201933165572e-03 -2.2551067459721679e-03
      6.9135641944607059e-03 4.2619157189793793e-03
      1.9012590516727372e-02 4.1599833684462812e-03
      -2.8956061529529561e-03 -7.1967012415438524e-03
      6.6059285534767163e-03 5.3247018772961899e-03
      -2.6967066887144354e-03 -1.7059294471022196e-02
      5.2757501976528108e-03 -9.0864371623981532e-03
      1.9439486782860425e-02 6.1818232383044720e-03
      6.7582376552049765e-03 -4.9483818663101043e-03
      1.3716780289940306e-02 1.5719081438220772e-02
      5.8738947822790152e-03 6.7144744613771238e-03
      -1.1858004341888705e-02 -8.1364613944056967e-04
      1.9557269038010076e-02 -1.3776284666279143e-02
      -3.8845785704919363e-03 -6.8669983350593171e-03
      -1.6547661037417005e-02 1.8912763124265451e-02
      9.0517065130559567e-03 -1.5687722426823945e-02
      3.2154901772395612e-03 1.4438079138975164e-02
      -6.7431823347180366e-03 -1.0468921993906568e-03
      -1.1790540881301964e-02 7.5640454939654026e-03
      -6.3933335086293532e-03 1.1503853562347555e-02
      -1.3731140598602552e-02 -4.5458890449904549e-03
      -1.5573311898135963e-02 4.9447623138031648e-04
      4.5412841650870365e-03 2.8267911267588503e-03
      -1.3415966448194939e-02 5.6623841391975852e-03
      3.8270313682582358e-03 1.2256691253179118e-02
      -9.5734521516853844e-03 -1.7568719523087736e-02
      1.1633928475542784e-02 2.3262782145765538e-03
      -1.6084490347628776e-02 -2.0675644896503970e-04
      -6.9048975868048028e-03 -1.8220222018265488e-02
      -6.1849777984925903e-04 1.8588763765111253e-02
      -1.5592441181993261e-02 1.0194428991107736e-02
      -1.7757149445171972e-02 -1.3868741409598080e-03
      -1.5396648971969804e-03 -3.1157886936156618e-03
      8.1094401576216925e-03 9.2661549945527513e-03
      -1.9478242889279535e-02 2.1803101820331264e-03
      -1.1508636741699113e-02 2.0538941708329425e-03
      -1.0065481214626377e-02 -1.0514427777976646e-02
      -1.4458847503303130e-02 1.9576928693107436e-03
      1.0229083352622088e-02 -2.2484657967346200e-03
      -1.1359196619408098e-02 1.6853301406275542e-03
      -1.6631191031737769e-02 1.4137195742556284e-02
      1.4597391819162248e-03 -7.3003569275640222e-03
      -1.3467556315844712e-02 -5.7860909153543440e-04
      9.4265978507350138e-03 -1.8619512555856883e-02
      -1.0582142303508882e-02 -4.8495890774209851e-03
      -1.2109000590120550e-02 -2.4791808697319596e-02
      7.9629797146137712e-03 1.9178564216159630e-03
      -6.4596744390698242e-03 -2.2179193392594655e-05
      1.4016784296853192e-03 5.5807723795017316e-04
      -7.9002259571537056e-03 -1.7582849085927811e-02
      -1.2416017646517629e-02 -5.3252273157466173e-03
      1.6196793794117929e-02 -6.9520209447486723e-03
      -1.7021761026841244e-02 -1.3006564053359473e-02
      -1.1510204534849705e-03 -3.7457761498102706e-04
      -5.3863183307244272e-03 -2.3297913711962497e-04
      -5.0668468605908658e-03 1.6238859323584910e-02
      2.0537260552429455e-02 -4.4222739016849836e-03
      -3.7681754199612155e-03 1.7142056219130388e-04
      1.1057053880904923e-02 -3.2308420157453836e-03
      -5.5881633367829767e-03 3.0807998207624597e-03
      4.8656467774266981e-03 1.0723718979298115e-02
      -2.9193856460978697e-03 4.0079051977782824e-03
      1.3603815592534187e-03 -3.1371366174619713e-03
      1.4290613666539562e-02 -1.9236916893298074e-02
      9.6475247126306743e-03 -4.8424403895039846e-03
      5.8838518942877045e-03 3.6641609859110981e-03
      -1.1309998887430251e-02 -1.6756939278803746e-02
      5.7981417192239188e-03 1.1250365906927032e-02
      4.1856312926306261e-01 1.3973078677563056e-03
      -5.3300610173333644e-02 1.4951720926810965e-02
      8.3993348623613798e-03 1.4144963003899017e-03
      7.4379923038905031e-03 -2.8822172622022177e-03
      -2.9788998347683084e-03 -1.3596002822817384e-03
      1.7013217881785253e-02 -5.9371789301490320e-03
      1.2222764556149979e-02 1.0392349023002994e-03
      4.3033414553559270e-03 -1.1037942740115984e-02
      1.1131438172499460e-02 -1.9907586060268413e-02
      -1.8957746565567899e-02 -1.4657577588398968e-02
      1.8939612507945043e-03 -3.9762089579717802e-03
      6.9280711703313428e-03 -6.8136042340422604e-03
      1.1866499730314877e-02 9.0604679130101015e-04
      2.6720536595048576e-02 -3.2588116902559990e-03
      1.5258276291888428e-02 1.0298477318118830e-02
      -1.3707792374440595e-02 3.1376830376173714e-04
      -4.7311370657155509e-03 9.3287082301049540e-03
      7.9527491928816241e-04 -5.9029777540435865e-03
      1.7982042995366547e-03 -4.0751338498379807e-04
      5.8816938347269693e-03 -2.8269225184557645e-02
      1.7603288546339222e-02 -6.7057382134005960e-03
      -1.3793509494557873e-02 8.8871949070680380e-03
      -1.2171372336263243e-02 -6.0983209545511880e-03
      -1.0984886066426502e-02 -2.0075817986849601e-02
      9.9809193690461682e-03 -1.4918076016734695e-03
      -4.4114100088342443e-03 1.9276869333763755e-02
      1.8820576363417656e-02 -1.2819962046199746e-04
      -1.4739096066880236e-02 8.8892422632044464e-03
      -5.3424201444639439e-03 -1.8378151601210879e-02
      -1.6143545955337919e-03 -1.6091534096347865e-02
      1.4219057885767753e-03 -1.6373439757098561e-02
      4.5570858199677931e-03 -1.0546606356398906e-03
      -8.6759510128906151e-03 8.1262762167286246e-03
      1.2425727646756986e-03 1.0922117013491356e-02
      -1.7521363569895181e-02 2.2888273059850466e-02
      -7.5959762608812371e-04 8.7349863093836595e-03
      -1.8393352589621454e-02 -3.2461894238227412e-03
      -4.2614545708264872e-03 4.3968348122285080e-03
      -6.6414518734905703e-03 -1.1404784148745390e-02
      -5.6685343612334895e-03 -1.1189767715594668e-02
      -1.3788615025525646e-02 -1.1788311253141521e-02
      -3.5905445047833620e-03 1.6480491500816416e-02
      2.0984596451598114e-03 1.1045009553606756e-02
      6.2174617055842669e-03 1.5455928991602435e-02
      -1.2403510552141554e-02 -1.6770533811274815e-02
      1.5217056809227047e-03 2.4081380156640544e-02
      -2.3328959951827780e-03 1.0458894245128723e-02
      -5.0935849884673418e-03 7.2834092408537070e-03
      -1.0317762201906482e-02 4.8068319908233540e-03
      -1.4576336802059407e-02 -6.5887567109276192e-03
      1.3746961961694440e-02 8.1812496465449788e-03
      -4.6270657974008264e-03 1.0140028276468906e-02
      -4.3019404638968998e-03 -4.1099305368766503e-03
      2.0004299272870285e-02 1.6027525540224317e-02
      -3.2518524148258715e-03 9.9973148853339214e-04
      -3.8227297182858160e-04 4.4102204142924184e-03
      6.0730809237047254e-03 2.0911870191974782e-02
      2.4685054651545383e-03 -9.3705680811257373e-04
      5.6666800244330531e-03 -1.2418714571252504e-02
      -1.4443618358890520e-02 6.1637326270049669e-03
      1.5543971697115481e-04 -1.7657424574254717e-03
      -9.1919721500548068e-03 -8.9492250626297901e-03
      1.9042205177324054e-02 -9.5746243269925378e-04
      6.1574919703880609e-03 1.2631018157667386e-03
      -1.6988600471503966e-03 -1.2728885661239631e-04
      -7.0430562541726444e-02 3.1312902914021716e-03
      7.1224002144625667e-03 1.7758600172369628e-02
      -6.1891038870957567e-03 1.6719882477837192e-02
      -7.4912928953213744e-03 -6.1258054205037670e-03
      -2.0388825327412293e-03 -1.3069468690717267e-03
      3.4950212787227394e-03 1.1518449730080748e-02
      1.3390473982848101e-02 3.8808317460325266e-02
      -4.7696184675530716e-03 3.5417445632269224e-03
      1.3220860049422637e-02 5.0267931635752487e-03
      1.3863208595791788e-02 -1.0462489497643333e-02
      3.0766421832253553e-02 -1.4633665129286141e-02
      -2.9513628108381149e-03 -1.0008003741896134e-02
      1.8493487955429433e-02 3.3839854849193336e-02
      6.5582842857697865e-03 3.9864233325635368e-03
      1.4006730574469333e-02 -2.7924396549107527e-02
      -1.3669619679935565e-02 6.7707945311111118e-03
      1.6944402818305334e-02 -1.1980435429414233e-02
      1.5591332163746119e-02 -5.5832465624869364e-03
      1.1390711678560041e-02 -1.9519967239439936e-02
      -2.8395765683899420e-02 7.6077149084607379e-04
      3.9690408404712404e-03 4.2702044343535181e-02
      2.7576432585101514e-03 1.4319948085473136e-02
      -3.7932065421397679e-03 9.9458583218629305e-03
      -1.8599220553274978e-03 2.7918058044228346e-02
      -1.9514841151074928e-02 9.3788049647601478e-03
      -7.7144122910978536e-03 8.1425431094470715e-03
      -2.5271774458422866e-02 2.4834393910698358e-03
      1.8870686285117268e-03 -3.2292752154279215e-02
      1.2102293095885374e-02 -1.3710357971996776e-02
      4.8298176980513365e-03 3.0453781531173098e-02
      -8.7916092619682554e-04 1.2225252123833030e-02
      1.0365136375306878e-02 -4.7672395092970866e-03
      -8.8429292498198482e-03 -1.3424966314543096e-02
      -6.7122475541548298e-04 6.2784028624419405e-03
      -2.1688151173647377e-02 4.7189664925942461e-02
      9.8662241860632380e-04 1.9282143822593550e-02
      -4.6336516316073035e-04 -6.2393343591430429e-02
      1.0442939903705765e-02 -1.5531056464379545e-02
      -2.9480323901319048e-03 8.2904412315069585e-03
      9.1795007898515506e-03 -1.2055313830986453e-02
      7.6412747575349714e-03 -4.6086834137906317e-03
      -1.4380774489049866e-02 3.2307775697534923e-02
      6.4859910057655790e-03 -2.4160746665851658e-03
      1.3002027407491344e-02 1.4849339118111793e-02
      -4.9935728327031945e-03 1.0760336758575391e-02
      -1.7015575044361637e-02 -1.1652112530968626e-02
      -1.2073955655916934e-02 -2.3330942982350000e-03
      -2.6147347001702740e-02 -1.6083682200751209e-02
      4.3895366112369268e-03 6.7101181499533580e-03
      7.2275105546326518e-03 -2.6475940434046515e-03
      -4.4244683784512981e-03 -1.4317338256785770e-02
      -1.8378046853227251e-02 4.2978537175004600e-03
      3.6821779773720227e-03 -3.5623255883200861e-03
      -2.1329515779237003e-03 -8.5635054372225298e-03
      -1.1534036493972576e-02 1.9739348224782211e-02
      -7.7676147909368203e-03 -6.4087301469334208e-03
      -1.9449259206580525e-03 1.2812999458703723e-03
      -1.8832982027771689e-02 -1.1124041293853182e-03
      -3.5573455965795468e-02 5.8160001875202424e-03
      2.5040292586336914e-03 -3.2751173539674659e-04
      1.5413300833229397e-02 5.2648304148715609e-02
      -2.3319347572438108e-02 9.6714885793927913e-03
      -1.2638662884038809e-02 9.7728693647610061e-04
      -9.9924448761002285e-03 -1.0819431311922884e-02
      -1.2023529914591690e-02 -1.5253479096451594e-03
      1.3428300245722944e-03 1.0544542923181828e-02
      -1.6606990130624836e-02 -1.1053503748549194e-02
      -1.0754296669476976e-02 2.6931857417579834e-03
      1.3743413920485300e-02 -2.4188581479583367e-02
      -6.9022815292879005e-03 -6.6120948146432060e-03
      3.3840850220123279e-02 -1.2818938952077379e-02
      -1.6015598786233965e-03 1.4130006084910976e-02
      -3.9796571755804809e-03 -2.7022548259688726e-02
      1.2955356399147720e-02 1.5722207775648683e-02
      -3.8268475041580279e-04 -6.4680360729295972e-03
      -1.0430573013096859e-02 -2.3741785519014388e-02
      1.2966600870207533e-02 -3.7862273965266383e-02
      -1.0483552588817531e-02 -9.3196383621698840e-04
      2.3064064772472553e-02 -3.4991797304548895e-03
      8.8015391803293545e-03 -2.8243826474837887e-02
      -1.4852708631220648e-02 3.2638885812808174e-02
      1.7406343528993166e-02 1.1947661539534003e-03
      1.2318798361974375e-02 -2.8482823511323070e-03
      1.0138048360741744e-02 -7.3137519899792386e-03
      -6.5279276661415666e-03 2.4200712279654404e-04
      4.3521944063128195e-03 8.9260874044388972e-04
      1.0792794979633438e-02 6.8654691370799515e-03
      3.7170023981968922e-03 1.3537110066794112e-02
      -7.9927161562996991e-04 4.0598881125039803e-03
      -4.1660836621115306e-03 1.0477439920765694e-02
      1.3950908353852529e-02 1.4869376794891217e-02
      2.4837057808185004e-02 1.5183167034305611e-02
      4.0105190088161685e-02 5.5430245881717501e-04
      -5.7342772233896630e-03 -2.2063977935508404e-04
      -6.2990485112124003e-03 3.6407638911356358e-02
      -7.2827078642325960e-01 -2.3485803344844344e-02
      -7.3153596432217610e-02 6.3993449724424117e-03
      -2.9941396871435679e-02 1.5800276155211804e-02
      1.5556473397621904e-02 -6.5263728843364443e-03
      2.0117037447386132e-02 -1.7235064929823563e-02
      1.2246885015744082e-02 1.5049194268018549e-03
      6.0923801114687723e-03 -3.3372174503767901e-03
      1.1805195932913582e-03 -5.0403019330039298e-03
      8.7804366631921184e-03 -3.4839311115365680e-02
      1.1232535229187210e-03 -2.2590780035437033e-02
      -4.6490740688348966e-03 -2.5584189537109669e-02
      -1.7841909929657934e-02 -3.4481958990058184e-04
      1.0617521824527914e-02 -1.0901415899196685e-02
      3.1296853740018860e-03 -1.5115366769517885e-02
      -1.2695528312690364e-02 4.3627114467951464e-02
      -1.1403903348552928e-02 1.0909979408956060e-02
      -3.4392253658516598e-04 2.3064509040958910e-02
      -4.8529528014050938e-04 9.9529942925469109e-04
      2.0768721911960612e-03 2.5376261622739444e-02
      8.5604561366164813e-03 -2.5730684634166032e-02
      1.3683725361661342e-02 -2.2024663072688828e-03
      9.2035639324579716e-03 -1.7105773760060110e-02
      -2.5160717756174310e-02 -2.0394032240730999e-03
      -6.9559394088265078e-03 -1.1436801726337641e-02
      1.0995821272673007e-02 -1.1703818936386966e-02
      5.0669607952531477e-03 1.7607373404807346e-02
      2.3346973316954308e-03 9.4035185816104053e-03
      -1.4389237043516601e-02 3.0486128001397921e-03
      1.7009259535937495e-02 4.9153271848798767e-03
      -1.9353832613643700e-02 -1.1524668136494580e-02
      7.2866508779204512e-03 1.0651049901164649e-02
      -3.2890101951092571e-03 1.1059256766820885e-02
      -1.7765868215019052e-02 8.2814951605778161e-04
      -2.1188928677068940e-03 3.3427372970981604e-02
      6.6849244941208120e-03 -5.9351101570723616e-03
      -5.4400116861374167e-03 -3.8689273466166437e-03
      -1.2195007052105510e-02 -6.1751691340634733e-03
      8.6761406690723242e-03 -4.0809796030438002e-02
      6.1223892402252024e-03 -6.2317638475838499e-03
      3.3592075465997558e-03 -9.0908226337020233e-03
      8.9380763832928329e-03 -7.4466681488453588e-03
      2.9902325076346895e-04 2.7951445719864895e-02
      -2.0967368925304215e-02 2.8022416284946543e-02
      6.2881584398904213e-03 9.0578277155361799e-03
      -1.1324035071325607e-03 -1.2559341597693712e-02
      3.3482573318489930e-02 2.2091967279061576e-02
      -2.5133853556417889e-02 -1.1110031598463840e-02
      -2.0076196930700556e-02 1.7807955241669105e-02
      2.3581569113279325e-03 5.5805498026851872e-03
      -1.2494282802539653e-02 -1.8522498459095789e-04
      -5.2449033495866621e-03 6.3187442092015418e-03
      -2.0089135030844740e-03 -9.1212464343039534e-03
      -1.4805768479739032e-02 -1.7463843994313728e-02
      8.2592000707696726e-03 -3.2885053431362583e-03
      8.2277362676770962e-04 -1.5523984575586487e-03
      5.2144340205101097e-03 -6.4005250192492816e-03
      1.3511166863837956e-03 7.9856736185865973e-03
      9.9551700377334858e-03 6.9210714475500674e-06
      4.0679955568240035e-02 -6.5094434976679136e-04
      2.6970816616302927e-02 1.2144030413915140e-02
      2.1636761831465380e-02 -6.3978483917651527e-03
      1.2490773799438817e-02 3.0123175467899197e-02
      8.6188541697719157e-03 -9.2184688617626097e-03
      -3.9169180313330929e-02 1.5748994619078395e-02
      -2.1195558392848122e-02 4.1914880578098638e-03
      -1.6173256016055168e-01 1.8151801011214334e-02
      1.4533455693885951e-02 -1.2593064811181811e-03
      -1.2141655987995218e-02 2.0097015852168082e-02
      -2.9397069038374083e-02 3.2875705881509577e-03
      1.0628242864340363e-02 1.1375682628893959e-02
      -1.2343952306552787e-02 4.6552693750183827e-03
      -2.6047198488422831e-03 -7.4895931652967252e-03
      1.5529353560792820e-03 1.0606414824108363e-02
      -4.6402939302768575e-03 -1.0732031024643211e-03
      -8.4935996174007704e-03 -1.4857068978469186e-03
      4.6062627233662244e-03 7.8610533128052312e-03
      1.4960258719442402e-02 -3.2791494251215020e-04
      -1.1448251774860607e-03 6.9911256395629676e-03
      -2.9276905156806719e-03 2.5137168201902448e-03
      3.2377230098063503e-03 -7.3703578246791130e-05
      -1.3788167546353588e-02 -5.1677447948707137e-03
      -2.4845606506959392e-03 -4.7581739092878821e-03
      2.4349987770181606e-03 -3.3837229122104439e-03
      4.9569194825596699e-03 6.1115407363211303e-03
      -8.0485013283021264e-03 6.2993846897478932e-03
      -3.8301205252448036e-03 -8.7632323469719053e-04
      9.9118430986660233e-03 -4.4496136527464852e-03
      -1.4590424902627701e-03 8.4955445761502914e-03
      -3.5794985331453213e-03 6.1894448952477886e-04
      5.8788617680359768e-03 -8.8407854762805309e-03
      -6.5266471791505147e-04 -3.9007227804106460e-03
      1.0043828142736045e-02 3.8305177538607025e-03
      -1.3326657872702772e-03 -6.3711571315721530e-03
      7.9761265150969894e-03 -1.9195050394224217e-03
      -1.7878424847338958e-03 6.9564909887488329e-03
      4.4346246638476330e-03 5.4273951559778095e-03
      4.8196557360679852e-03 -4.5513082869902835e-03
      -6.5391954031083915e-03 5.0513812148698291e-03
      4.5602595797911198e-04 2.6449384454411261e-03
      -1.0514195233826943e-02 -1.8416151115877985e-03
      -1.2178443336203231e-02 1.0463072265518960e-03
      1.3534518821119391e-03 3.2732709555693242e-03
      1.1417561195890972e-03 3.9241997010608601e-03
      -6.5756508895442600e-03 9.8452695011534835e-03
      -9.0737397424632275e-05 -9.4121746289366258e-04
      -6.5168879888471585e-03 7.2083248679993958e-04
      6.1255971454206313e-03 -6.3149759472163058e-03
      -3.2735901371458817e-03 4.7239318243232631e-03
      3.6436417798271308e-03 4.9191187330637600e-03
      -1.0113294212127559e-03 -1.1510342346089707e-02
      -1.4043804367547517e-02 -8.3527511788404271e-03
      4.5673774256775298e-03 -1.2274882633274449e-02
      -5.4783186464736600e-04 1.7453822020331083e-03
      -1.8806126630743353e-03 4.9065688544559479e-03
      4.4273716675269012e-03 -4.0800230851150282e-03
      5.8908596580447880e-03 -1.2437224829038319e-02
      -1.5596313403354589e-03 -6.5881732722306236e-03
      1.2367366868653657e-02 7.0398933031391824e-03
      -4.1406772197668772e-03 -5.5309805493143844e-03
      6.9707285360810318e-03 1.9948685448332210e-03
      1.0967459467334018e-02 1.2986934654127785e-02
      -9.7136346002158988e-04 -6.1067137701774814e-03
      -1.3999712376600300e-04 6.1083999627746660e-03
      -5.8082927040717961e-03 6.5779472724699448e-03
      -5.0993372558827341e-03 -5.5549537140043050e-03
      5.8847709165334690e-03 1.3375638036134736e-02
      6.7338835833267389e-03 2.8680262203767681e-03
      4.5617374677950433e-07 -1.1354271937734236e-03
      -4.8844977758256709e-03 -9.3926196192529749e-03
      -6.9187510604422050e-03 -1.1883756380255682e-02
      2.8769756787392731e-03 1.0008269532706374e-02
      -5.5362831162805923e-03 2.8783400666381655e-03
      -1.5412686801979775e-03 -1.1799276604358736e-02
      3.8838427116006094e-03 -3.2696666438269523e-03
      1.4113712752497223e-03 3.3815778940347401e-03
      1.9646962394416698e-03 -2.3488075218757939e-04
      1.4561263691296278e-03 7.2932879399881063e-03
      4.4848113939322887e-03 -2.2878233322717080e-03
      -4.2858669376781783e-03 6.3389775844510769e-03
      -2.9345612320345656e-03 -3.1011483874382796e-03
      -2.5968665714201002e-03 -9.3442062737511839e-03
      -4.2137152517749609e-03 -5.5937066846866532e-03
      4.2626229391929098e-03 -4.1888228354556569e-03
      -7.3752147384129746e-03 -2.2659300266370296e-03
      1.0730608193003630e-02 -7.8902802894072338e-03
      2.2630100249432391e-03 1.7487016608390387e-03
      -3.0482742604207537e-03 8.8830135478273706e-03
      4.8912406127217404e-04 -3.6967494196385566e-03
      -3.1116236476191363e-03 2.9208433373270615e-03
      1.6563471136777815e-03 -1.3904936504470450e-03
      -5.6584389887698542e-03 9.2315516926751596e-03
      1.0364660318841548e-02 4.4470694980403248e-03
      3.7243631644375214e-03 1.1250679446822396e-02
      1.4839105518751081e-03 7.9151954026022344e-03
      -1.7915423100582787e-03 3.3022375192197167e-03
      7.7444645588467887e-03 -6.4381829188346130e-04
      -3.1472739792307524e-03 1.2242819436452166e-02
      9.1970370383973651e-03 9.2219137200859769e-03
      -1.0312260690171254e-02 5.7566489127492317e-03
      -7.1645928761929680e-03 6.2214001323807810e-03
      2.8385287331800180e-01 6.7771721952354490e-03
      -4.5824322867422496e-02 -2.4910844912341625e-04
      -6.0541368368567704e-03 -2.1860456565559370e-03
      -5.8437548073961470e-03 -2.8042831080161471e-03
      4.8182663450765575e-03 -6.0517338834089598e-03
      -1.0753130420292909e-02 6.5276556722917382e-03
      -6.5028252195033160e-03 1.5351467561226047e-03
      -6.6530194635720397e-03 8.9223510903717459e-04
      5.6645175032558667e-03 1.4495047105187240e-03
      -8.4132625171161757e-03 -1.1654901247304394e-02
      -8.4020124565754618e-03 -1.1071102030862211e-03
      -5.1550924067815824e-03 2.5513230317819858e-03
      4.9038527973247646e-03 1.0271542511894060e-03
      -3.8343874654969733e-03 -6.5160606546598634e-03
      -5.2880659956035195e-03 1.1003360140112051e-02
      8.8033886895525371e-03 -6.3087502133529700e-03
      -1.7534390923595413e-03 -5.0770069023977965e-03
      9.3162810881763942e-03 8.8666139278821142e-04
      4.4040948574628489e-03 2.3384999143649214e-03
      5.1843680883428903e-03 5.5737069531930587e-03
      -6.4656825073372481e-03 2.9090938079789578e-03
      -1.2505144486153080e-03 -5.6602014329949352e-03
      -1.0065302957918425e-02 4.8088215393362948e-03
      -1.2005387939822687e-03 1.3675795762684245e-03
      7.1863276673712851e-03 -4.5962519047952037e-05
      1.2831676519599294e-02 -7.9721759658323930e-03
      -7.3016711934953994e-03 1.6765965075083475e-02
      -2.1582136757761277e-03 -8.3970924343264065e-03
      -1.0111825807508754e-03 3.4181113143408265e-03
      3.5330591972867215e-03 6.4117142664887189e-03
      -6.3742199097856387e-03 1.2953385205636683e-02
      4.4803684708255975e-03 6.1326608747215529e-03
      -3.3405523947028551e-03 6.5226728393308515e-03
      9.3943061324953964e-03 -4.3393767961929708e-03
      7.3250760839865042e-03 5.8564387376367562e-04
      -1.2243845481907748e-02 -9.6023908257627764e-03
      7.0380979367551328e-03 -6.7820640636330155e-03
      -6.8474031076479237e-03 -2.3168422080446240e-03
      7.7946471985402147e-03 1.2131347344118620e-02
      9.1482832700863388e-03 1.2467522128315794e-02
      -2.9465354777936854e-03 9.1542248528188163e-03
      -1.2548710819761661e-02 3.1847864523167958e-03
      -1.1294451773342720e-02 1.8387769091143973e-05
      3.2916694054497143e-03 6.6315168987805980e-04
      -2.1719635335786893e-03 1.3059403954066521e-02
      9.1113766547229521e-03 -1.0352390647654841e-03
      -4.1373405029618591e-04 1.6651275589174761e-03
      5.1174164546421829e-03 -3.9719155961564986e-03
      8.8026212527367136e-03 -8.9008921227283003e-03
      6.8217659385838274e-03 1.3655364326193513e-02
      -5.6009816416452093e-04 4.3085457693489105e-03
      9.8759482022609466e-03 4.7150781953475759e-03
      -8.1108528998148667e-03 6.3203375194366364e-04
      -7.3483346882259604e-03 1.5622691379953240e-03
      -7.8448067500796227e-03 2.9513822336047621e-03
      8.0445367077763667e-03 -1.0691100746580128e-02
      -5.1914496639831297e-04 -1.7576811542023101e-02
      1.0247237764451527e-02 7.1855683153498346e-03
      -5.2209342663326296e-04 -2.2205454469560698e-03
      1.2646176697363194e-03 -1.2678086227883049e-03
      1.6820503173598208e-04 -7.0031050096830121e-03
      4.8879011751916173e-03 5.6596290585470936e-03
      2.5401795835221109e-03 -1.7654048034270217e-03
      -8.7883508766181499e-03 5.2257547276528043e-03
      -9.2666962995431781e-03 9.5347148840083454e-03
      2.8040097003715105e-02 1.4500455767767434e-02
      6.2914335029816216e-03 -8.5419612817963352e-03
      -6.5980019858643164e-03 -1.2137293652160142e-02
      -5.0703984757262963e-03 7.3887759714575817e-04
      9.1225145312541986e-03 5.4323582574366015e-03
      -6.1746547877305751e-03 -1.4171523844858035e-03
      7.2899678416321412e-03 1.4043701447937630e-02
      4.1967091030466952e-03 -2.1682088222406531e-04
      4.8124045386715372e-03 -1.4011814421402959e-05
      7.1099302838141401e-03 2.8162358376860705e-03
      1.5234200774418782e-02 -1.0723533939893406e-03
      -1.4791207555616335e-02 -5.9689869233656399e-03
      1.8779070208963303e-03 3.4301679773092219e-03
      -7.3669911526726758e-04 2.3390446305048347e-03
      1.1933940414911314e-02 -7.4285083531438071e-03
      2.1487460523141873e-03 1.5059818520328039e-03
      1.5118396359836781e-02 -4.6638230933332752e-03
      7.1821685479851582e-03 -1.3618926225133637e-02
      9.2958410670446415e-03 -1.6837408644814908e-02
      -3.0037342989280226e-03 -7.8931547157173060e-03
      -1.2592405914202418e-03 1.6704591818330135e-03
      1.7324728940814138e-03 3.4970132950872786e-03
      5.4781786462443976e-03 4.4371888119189955e-03
      -1.6487374964376279e-02 1.7014110004002304e-02
      -4.1243290013120203e-03 -1.5365917894317178e-03
      -9.4271471637270635e-03 -7.6929773888767834e-03
      -6.7831290464046880e-03 -1.4183575433894056e-03
      5.3346764139189581e-03 -3.6934013369512250e-03
      8.7249751915820604e-03 -1.2778977106159728e-03
      1.6483328379161397e-03 -2.3750804955181225e-03
      -1.0884109539201251e-03 -1.0530248505224962e-02
      -4.1425571128809475e-03 5.7237776589671345e-03
      -7.9441984808844377e-03 -1.5292135858800522e-02
      3.1828418947526252e-04 5.0551768835589428e-03
      1.2248657239076572e-03 4.3982530900526211e-03
      6.8604796943403312e-04 2.8810195999309973e-05
      2.7950199808186279e-03 2.1732669171782782e-02
      2.0552577480471840e-04 2.3851238151172635e-03
      -1.1870136720239332e-02 -7.2760983168159814e-03
      4.9490922530870856e-03 -4.3821442505498527e-04
      -2.6787511347759604e-03 -3.7962192613700133e-03
      -7.2200312940507265e-03 8.1739008346126737e-03
      1.1342343431084223e-02 -3.7774690269097347e-03
      3.6259781980406808e-03 4.7288232142364732e-03
      -4.3796215551557280e-03 -1.1065765895233910e-02
      -9.4658520195357154e-03 1.1604760626755835e-02
      -5.1862787642335800e-03 4.6687026736199717e-03
      -8.6604829515402361e-03 -5.5603651016455499e-03
      -5.0319880057001507e-03 -4.4912073659545701e-03
      -3.2481844080379774e-03 1.1151611719355564e-03
      -1.0647705230568173e-02 8.8160480367788230e-03
      -1.3382841115833657e-03 1.0342957018937836e-02
      -1.0823563434949097e-02 -4.4866127602771072e-04
      -4.1826877523606695e-03 2.3760082733725579e-03
      -3.1133347987023026e-04 5.1104516505269398e-03
      -1.2489172328226059e-02 -4.4407028487932765e-03
      6.7672626982383140e-03 6.2806507445373637e-03
      -1.9040005866335530e-03 1.8768226222978994e-03
      -2.7170484771169815e-03 6.3443937070125503e-03
      -5.1268332694019312e-04 1.4089398408585730e-03
      -6.3746564115099514e-03 1.2730145884639024e-03
      -8.7074410073644214e-03 -2.5081277535166850e-03
      -8.4736191991783075e-03 8.9582960137272773e-03
      -9.9657027368490613e-04 -8.3916626054156875e-03
      -1.6660097830614902e-02 2.7184564784913578e-03
      -5.0319528755065467e-03 -1.3653261898809101e-04
      -9.6008511027509610e-03 -8.1926264002097678e-03
      -5.3500124922834583e-03 5.4077976484952781e-03
      2.6371031618523618e-03 2.9918286878845733e-03
      4.1594501752734402e-03 2.5870747046736939e-03
      1.7664400190970271e-02 -5.2945823419313746e-03
      -5.9021636592453998e-03 -4.7955070723991119e-03
      -1.3676494521113740e-02 -1.0144155839254886e-02
      -3.5166582702184502e-03 4.0700521319668890e-03
      -1.5008774111723066e-03 -3.6876103250672015e-03
      4.3439007663805870e-03 6.5674471200726330e-03
      4.7849194772595291e-03 -1.2189145079828758e-02
      -1.6156516134861784e-02 4.6215279196635574e-03
      1.4649268999703431e-02 -7.6287637415185482e-03
      -7.0928627998884271e-04 3.0239478975625901e-03
      3.8189842166359103e-03 -1.8866163339703150e-03
      -7.1630780993975065e-03 -1.3301140891246420e-03
      -3.9376057556068725e-03 4.6955069248715668e-03
      7.2449990586768397e-03 7.9481770596573405e-03
      8.6593601088104932e-03 -3.1455882316379830e-03
      1.4366599768362565e-02 -2.8378079568297872e-03
      -7.6116029092433658e-03 -1.7727557262901027e-03
      5.9553699225223045e-03 3.5069779889670060e-03
      -7.6038514447409672e-03 -5.4602636233835088e-03
      3.0723251344722874e-03 7.9759420240303833e-03
      7.0788301743486602e-04 -1.0484458250976511e-02
      1.0981664746514767e-02 -7.0952844239691804e-03
      1.4628322687544370e-03 -3.1483411790948950e-03
      4.9321797477756097e-04 5.8685231166819094e-04
      4.2349043461783848e-03 1.0956451828490227e-02
      5.0472010040694577e-02 2.5527861242541573e-03
      1.6053563587773927e-02 2.9037648296930136e-03
      4.8223819308090485e-03 8.0374499049686819e-03
      -1.9987850840154321e-03 -3.8541905693224268e-03
      1.8163289340014685e-03 2.1270947457358419e-03
      1.5922584438917867e-02 2.3917569640356212e-04
      1.0018977062563326e-03 9.1257843600559322e-04
      3.9063444020246531e-03 -2.9031318299813858e-05
      8.7968087783006441e-03 -1.0151741958069756e-03
      2.8074132985735295e-03 -3.6922221879199619e-03
      -2.2676949851637056e-03 -3.7969307668150368e-03
      1.0330382794331275e-02 1.0268938677203724e-03
      3.5449821996136406e-03 3.8635264132495495e-03
      7.9753339323145184e-03 -4.8855835587219461e-04
      6.0389006934187970e-03 7.9692247551887783e-03
      -6.3679119041389308e-03 3.2012626870035000e-03
      1.2562354826011865e-04 -3.3701662580500284e-03
      2.0370437907741195e-03 -8.2314479725107185e-04
      1.5492267830706508e-03 4.7749951888819220e-03
      8.7305552866751828e-03 -1.3629748290305114e-02
      1.5358062698644610e-02 2.5840262627527099e-03
      -1.8631223235242870e-03 4.2967220850348049e-03
      -1.6987411975817657e-02 -1.4820345037141566e-02
      1.9270270388806530e-03 -1.3695418373949428e-02
      2.5157190536504643e-03 -1.0181850633145971e-02
      4.4034325240051618e-03 6.3187095746821201e-03
      1.0583096995338753e-02 7.6372230142872253e-03
      -1.9207202123021187e-02 3.1895549132191490e-03
      -5.6345412335989118e-03 -4.3665946833848744e-03
      -6.2561037084451600e-03 -1.3217232143540102e-02
      -4.7844025401214789e-03 -1.2731119934250098e-02
      8.4836818107194584e-03 6.6780632640497314e-03
      3.7585401249124284e-03 -2.5599970150943208e-03
      -5.2989308133136849e-03 1.2055570871413545e-02
      1.7091297492572567e-03 1.3893475527720573e-03
      -2.4624538521259300e-03 3.6938119225887671e-03
      -1.8286645606765142e-02 -3.2306886876107914e-03
      -9.6260399015313559e-03 3.1031105079532420e-03
      -8.8432193875230321e-03 -4.4641659967350773e-03
      2.6549738794614136e-03 -1.3521495200972960e-02
      -1.2435569175665821e-02 -4.9168782986684922e-03
      9.6008330703253111e-03 1.7535378245069445e-02
      -3.4795652477673379e-03 4.3218530345946566e-03
      2.4071110228893163e-03 1.2506740178793298e-02
      -1.0553824250618255e-02 -1.3889819513786485e-02
      4.9616629169674219e-05 3.6610154309558600e-02
      -5.8232264581078884e-03 9.2798400059648962e-03
      -1.1813564987418668e-02 1.1717471552058730e-02
      -4.6575989148525850e-04 1.1096960768344431e-02
      -1.2669850386100460e-02 -8.0366739254714280e-03
      9.7255002629199182e-03 -1.3271123122347221e-03
      6.3868673772607271e-03 8.5425634056356060e-04
      9.5630972462120729e-03 -4.5136427358872452e-03
      5.5354097797263608e-04 2.6707265767067609e-03
      8.9918744617069040e-03 -7.7151806098102894e-03
      3.9715312983844685e-03 5.9602239327704049e-03
      9.3904056452877756e-03 7.6697727734777333e-03
      -3.0713963264288258e-04 -6.5213847415322634e-03
      6.8585176250359038e-03 -6.9467658511237502e-03
      2.6660910541294211e-04 5.6260646877464094e-03
      8.0053348372865971e-03 -4.7997607598029119e-04
      -5.6269339482283303e-04 -9.6409335697310652e-03
      4.2520327602406285e-03 2.8253113060760075e-03
      -9.8349722610159888e-04 8.9305905507678397e-03
      -7.3095556980907741e-03 -4.9793657799739217e-03
      1.2432539485092998e-01 2.2990707838273015e-03
      1.4916805214234420e-02 8.3049525643933766e-03
      7.9193953708018476e-04 7.1156914637585849e-03
      6.4409026242585286e-03 -3.3641249115920991e-03
      -7.1632107527399161e-03 3.9705555783107948e-03
      1.1691785755598314e-02 1.3636754754828119e-03
      8.7538270185222398e-03 1.7503058216437454e-03
      9.1995820882944767e-04 2.5342086797659692e-03
      6.7803786024156947e-03 -5.3986067539539924e-03
      -5.6158297876217926e-03 -5.8542150921823809e-03
      4.8279245883957088e-03 4.1004947461657261e-03
      -6.6863852379531715e-03 -4.3341595007719766e-03
      1.1049958769773513e-02 1.0274077669359449e-02
      1.0393045003369633e-02 5.3561177003087568e-03
      -4.7612738656967243e-03 -7.6421039197397851e-03
      1.4642340670243979e-02 -6.5602980888706652e-03
      -1.5024259450358982e-03 -5.8597093995492672e-03
      2.3507297319744110e-03 -1.5841652635479615e-03
      -4.2082981596580820e-03 -1.1052466244613720e-02
      6.5160171265790700e-03 -2.6092443258077047e-03
      2.5921785594016592e-03 1.0274876078385968e-02
      -5.0075917225523743e-03 1.0445873246345185e-02
      7.5808802204368466e-03 8.3889920884485016e-03
      -4.8081917450662282e-03 7.2671540277857325e-03
      3.1049020935105592e-03 -7.8937230193681998e-03
      -8.8990954735910406e-03 5.5323861476097380e-03
      -3.8177197991998944e-03 3.7975218664250596e-03
      3.7198261396337567e-03 -8.2611452751539562e-03
      -1.1797811520796869e-03 1.5190903993622107e-03
      3.5645997387865240e-03 7.6625404521825854e-03
      -3.4301196532076925e-03 -8.3419402722097764e-03
      3.2623726696888494e-03 -6.4983764119021269e-04
      -1.0593920962037595e-02 -1.3365651604550161e-02
      4.8466435446156923e-03 -2.8168121852993925e-04
      1.0226111759253260e-02 1.2099687683359627e-02
      9.0747448586807940e-03 2.7783766725795354e-03
      1.1692681902344363e-03 3.2118351785917461e-03
      -2.2891765774321126e-05 -4.2321613642074662e-03
      -6.6354717405031696e-03 -5.1499669363432189e-03
      1.4885773052071415e-03 -1.0766032207713779e-02
      -4.2042631982719602e-03 -9.9708231220967218e-03
      -9.2118458756211986e-03 1.3292439666385273e-02
      1.4338464364384667e-02 2.1019973495878469e-03
      -2.0319051858675905e-03 7.3109475063757546e-03
      8.5277192904701007e-03 -4.6163897780138628e-03
      -7.9320732769953689e-03 1.0803705308467190e-02
      1.0239615461634708e-02 1.1668878915312202e-02
      -6.2547616912908522e-04 1.0596833097958445e-02
      -5.7718127568813819e-04 1.6405082570209728e-03
      7.0958372991372400e-03 7.0976582523340562e-03
      3.3068567193636717e-04 1.8483472100635724e-03
      7.4323087115835953e-03 1.2863971414065014e-03
      -1.4391066836477650e-02 2.3959522709110239e-03
      -4.8918966508078579e-03 -4.2495370255333812e-03
      -8.0100000132556411e-03 8.5651490487573551e-03
      -1.0434361397477122e-02 -1.2541958115402861e-02
      9.2043020002503442e-03 7.5469699430173506e-03
      -8.2642272024379387e-03 1.1663833396217875e-02
      -1.2237153612046258e-02 -6.3228770635232849e-03
      -5.2723630962763605e-03 6.7730577267030301e-03
      -4.1747312934234740e-03 8.0821151122988620e-03
      1.5508722669149895e-03 6.1511861018774027e-03
      8.5187118005437268e-03 -4.6034889366237770e-03
      1.8137745041055026e-03 2.3248003858167784e-03
      1.3286834534133364e-03 -1.4803126942896736e-03
      -8.4925840936724561e-03 5.0493746743487770e-03
      -8.0693415025569499e-03 -9.8465002903665210e-04
      -3.6365716307081891e-03 2.4678128752518298e-04
      -3.8849197915642340e-03 -1.3155426409703051e-03
      -8.4998998521666411e-04 7.1443026578094449e-03
      -2.4279408802419544e-03 -1.3039200295295806e-02
      -5.5759157063652674e-03 -5.5618791923543222e-03
      -9.8604941011453673e-03 -1.3175355960130608e-02
      5.1604018625891340e-03 4.0026063635487177e-03
      -8.2689120635190752e-03 5.7523675527027529e-03
      -4.7344888860080901e-03 1.3768894070072344e-02
      -3.4590288957425230e-03 7.4309573021132808e-04
      -1.0969892192220521e-02 -5.9449350509857991e-03
      -1.8202809561760662e-04 -4.3671688168903161e-03
      -1.0461738814852848e-02 -6.0766489356529774e-03
      5.1147354815940203e-03 -5.7639478555024919e-03
      2.2376920316447089e-03 -4.7732241764025258e-03
      -7.9672084170193478e-03 7.7809445331703097e-03
      8.2641934005882323e-03 -1.0014499360397687e-03
      2.1016963480526116e-03 1.0452016713490110e-02
      1.1019231180847503e-02 3.6056437807787866e-03
      -6.1171532633457924e-03 4.2742500304285398e-05
      -1.0484717629413410e-02 1.7920334077062465e-03
      -9.3844644209466234e-03 7.0304590464054316e-04
      1.0763838866893369e-02 -8.9579853149912535e-03
      1.1855704732045612e-02 -9.9583454996486215e-03
      -6.9038078240644507e-04 1.0649923579099259e-04
      -6.7444261766660607e-03 3.2824009604596142e-03
      -1.1463749166706548e-02 -6.0873590866987667e-03
      -2.7865646717927173e-04 3.8460413153351167e-03
      3.3277707664941780e-01 -5.4813125849475230e-03
      -4.6977019733861244e-02 -2.2149241422650540e-03
      1.6581145774054627e-03 4.1426744445103069e-03
      3.6943036416980115e-03 5.2908216297064036e-03
      -7.8750399525886888e-03 -3.5302546479260679e-03
      8.5164718926896451e-04 -5.2048568476294292e-03
      -1.1412787425616547e-03 -4.5709431382802879e-04
      6.1364630676650402e-03 -5.0776355949539798e-03
      6.3624816880518392e-03 -3.0874602976315346e-03
      -3.9438037253067843e-03 -1.2614226822587653e-02
      8.5553114107527490e-03 6.5870168695786203e-03
      -9.1475764336796934e-04 -7.7962574196039046e-03
      6.9903967213317169e-03 1.0343637116731306e-02
      9.1499089616758501e-03 1.0702261069984386e-02
      -3.3266394164180448e-04 1.2497105535699221e-02
      -1.4347737058264252e-02 -3.3148487870856588e-03
      -1.3626019314728422e-03 4.0040540058477242e-03
      -7.0776137067428734e-03 3.5964142670730464e-04
      9.1330326774480408e-05 6.0275888137718567e-03
      2.7464543697175423e-03 -6.4383823816843589e-03
      8.9955791030215775e-03 -8.1920488452166113e-04
      -2.4827835902726330e-03 6.4294961709940538e-03
      -5.3323269276124140e-03 -6.5155532090603379e-03
      -7.2961291539861807e-03 -2.5104487750831194e-03
      5.6352729857950593e-04 -5.9248062832446945e-03
      -6.9654497247691920e-03 1.1280179822569063e-02
      -1.3260258508226392e-04 4.4036413773814774e-03
      -9.7251411972097673e-03 -2.6049621945695373e-04
      1.8700268318988780e-03 -7.8925180301297592e-03
      1.0898736419483407e-03 -6.5691763478298746e-03
      6.1234669359479009e-03 -9.0073409193115531e-03
      4.5336853146545029e-03 3.8112452042343278e-03
      -7.9136538327444022e-04 1.0198072515165424e-03
      -6.3974673199443789e-04 8.0932750194400351e-03
      -7.2415078958845682e-03 7.7781911361133466e-03
      -9.9254292315385864e-03 1.1076423447617516e-02
      -1.3990553464608651e-02 -7.3389240456833869e-03
      1.2932036810322529e-03 -3.3198084131710582e-03
      4.2989925571296330e-03 -7.3871622877549736e-03
      -5.4321162059992219e-03 2.1420193115396770e-04
      -4.8982598229301696e-03 1.8632735045351328e-03
      1.8620279555705626e-03 -1.0055011801764473e-03
      5.2618761970287826e-03 7.4230057986470149e-04
      6.0855650949039634e-03 -2.5048807856041335e-03
      -4.0660724271673540e-03 -7.1387884579327109e-03
      -6.5519737704592112e-03 5.0550584319243507e-03
      3.6975228713137217e-03 4.5762029585019980e-03
      -5.4299306858288782e-04 -6.1584837626364273e-03
      -5.9712510817941317e-03 2.2325447611624594e-03
      -1.1183876512899098e-03 -6.2246787995541434e-03
      8.1057554015813767e-03 1.4605026950612623e-03
      -2.9499970906917542e-03 1.4986340339398916e-02
      4.8072598002451921e-04 -5.5949965828703636e-03
      1.8227545575259380e-03 1.0367144984723279e-02
      -7.8741243833861958e-03 -7.0609860365230068e-03
      1.7341314034144716e-03 -1.9216245909702114e-03
      3.9012607481088198e-03 5.4346482428178928e-03
      -8.4725736684089920e-03 3.7240724880231485e-03
      1.5348898081942847e-03 -3.7780416211939134e-03
      -6.7976103190752523e-03 1.1147741627711438e-02
      4.9647544682627012e-03 1.4697345139682886e-03
      1.5177487546911420e-03 1.6871864429046676e-03
      -6.5751323317149186e-04 4.2027538268806421e-03
      7.7554313951867194e-03 9.6088665389400130e-03
      -1.0169561686284110e-03 -1.7846751948200883e-03
      -5.7731835881467970e-02 -9.6673588310164354e-03
      1.1957910015923775e-02 1.2943151969682157e-02
      -9.2286794825350345e-03 1.2531938742138387e-02
      -8.0922257120343601e-03 -6.8307253718722406e-03
      2.8036833961087686e-03 -1.7347425826119188e-04
      -2.1071036285479892e-03 6.4437800681288286e-03
      -1.6540672445716014e-03 -6.9622055572033147e-03
      9.3414039131767485e-04 1.4082310585377964e-02
      -1.1870848256461100e-02 -4.0143320275337676e-03
      4.2995697581656210e-03 -6.1620367568325455e-03
      -7.6016364107273245e-04 7.8137839616578540e-04
      9.6693951680406846e-03 9.1138307215867086e-03
      2.0817237915631333e-03 -8.4678411014690712e-03
      -2.1732061601374901e-03 1.0683749534168797e-02
      -3.9391838535429279e-03 -1.7064309671104283e-03
      2.7886692648735022e-03 9.6277028404704069e-03
      -1.0202965569014512e-02 -3.7683773127634803e-03
      -9.4641824604683880e-04 7.1431194701141168e-03
      5.7333602267460961e-04 7.3478805680325188e-03
      1.0215915200671208e-02 -2.2779278299363470e-03
      -2.8462321678043236e-03 -5.0093277605360908e-03
      -4.7712818618704097e-03 -8.5035578454008796e-03
      9.1910199409238336e-04 -7.1706708272020869e-03
      2.1384444791570094e-03 -1.4327830731171907e-02
      1.1699171921920862e-02 4.6341670663752783e-03
      1.1812923610413763e-03 -6.1370902229650117e-04
      1.8650988029972820e-02 -1.9736513439732829e-03
      -3.4327012549586517e-03 9.8285660849172594e-03
      -1.1313385011920965e-02 2.9140479647845198e-04
      -1.1179667582157504e-02 -3.5440414188987624e-03
      1.3272555725811298e-02 1.0844186559436517e-02
      -3.0981356217985832e-03 -2.1975164437478176e-03
      1.2808493633546934e-02 -2.5112748005190024e-05
      -1.3995443186311962e-02 5.4948148283491677e-03
      6.9568184533961280e-03 -1.3262249738179728e-02
      -1.4762072185586662e-03 1.6765638989572151e-03
      -5.4849317886536643e-03 1.7419407175910475e-02
      6.5510021105967845e-03 1.9735572634728593e-03
      5.8299665695600557e-05 6.8299651345579372e-03
      -1.3880235957861524e-02 3.7271198800665956e-03
      -6.7295346591124535e-03 1.0353492594504107e-03
      -1.5144282064496824e-03 -1.3039284498823489e-02
      -1.0379989189119542e-02 1.0949025178266195e-03
      -1.5813420405502245e-03 -5.3206196107818318e-03
      -5.2559851348782539e-03 8.5478999324703313e-03
      1.3548570762754102e-02 -1.7275848663199161e-03
      8.9172093535001100e-03 -4.6488782993066215e-03
      9.9307036978509757e-03 2.3352988330333671e-03
      8.9340504701670449e-03 3.2955925762006722e-03
      2.9541169637634294e-03 9.8354554395368955e-04
      1.0138133576594915e-02 3.9752563031210265e-03
      9.9235605678378268e-03 -1.1475661165512109e-04
      7.9562533522697185e-03 1.4702686052802609e-02
      -6.0329887339462219e-03 -2.2557952309907631e-03
      1.1182954742488278e-02 9.7643552362446026e-03
      4.6926970585283506e-03 1.1924922329651573e-02
      3.5448782174235141e-03 -1.3683134486839419e-02
      1.2068220588124772e-02 -7.7710924732318836e-03
      -5.3266981313333437e-04 7.6267047892802642e-03
      -2.5470002501024229e-03 -1.0278121857059137e-02
      -7.1121952263365111e-04 -8.0395261628302302e-03
      1.5464445782334732e-02 -6.4531976294651379e-03
      7.9758081454507478e-03 1.7237427178250679e-03
      7.5063330241813353e-03 1.1101617433342062e-03
      7.5293775987690294e-03 1.0586410326962447e-03
      5.3876886814131358e-03 -9.4077439067301611e-03
      -1.7230830798207134e-03 -7.8633952463102973e-03
      1.9945750852427609e-02 -1.3850537709763956e-02
      -5.0662217922872073e-03 -9.8883413909542067e-03
      5.1437002842530458e-03 3.6320100830311646e-03
      -1.5766322791902921e-02 9.7626403977418841e-03
      1.0217504445458653e-02 9.4131696968614981e-03
      1.0983351211509495e-02 3.8079629971818868e-03
      7.5280370589244777e-03 3.9470429703421222e-03
      2.1610205764236545e-03 -8.1082639732744689e-03
      2.1592904337332801e-03 6.0147805688387720e-03
      -5.0013479936787133e-04 3.2067096159197877e-03
      4.2868044935114133e-04 9.5078084875056899e-03
      3.1906857748384477e-03 -3.1645814611426654e-03
      9.7707692232510013e-03 1.4131955691630534e-03
      -4.2214907179567145e-03 1.2622913397701861e-02
      -5.1270116272660090e-03 9.3823212358814887e-03
      -4.1796178410421613e-03 -8.4987397557143088e-03
      -3.4694448464133933e-03 6.3700575975398806e-03
      6.0392552725920962e-05 -3.0680725138911916e-03
      1.3298852311636226e-03 3.2731562699834936e-03
      1.5199495020692155e-02 1.8947377019568447e-04
      -6.8714010009198407e-03 2.1162656472295542e-03
      6.5152219746285010e-03 -1.1663619477989917e-02
      -1.1727674988174208e-02 -7.8133748366914814e-03
      -1.0057135516140724e-02 7.7493925685719837e-03
      2.3655239932006376e-03 9.6041868222573202e-03
      2.7583274050834517e-03 7.8903334656616718e-03
      3.0420388579924314e-03 -1.1498139731328668e-03
      -5.7364297700835684e-03 -9.8971704488056353e-03
      -7.4029294739774404e-02 2.5891603576777523e-04
      2.6889426602151548e-02 -1.2339719457992828e-02
      -6.3186825825618884e-03 4.2211036658065908e-03
      4.7424272624519287e-03 7.5435793031395889e-03
      3.8604952134681041e-03 -6.8751770085033236e-03
      -1.4669805152464233e-02 -5.6118639957347472e-03
      -1.0782031567170855e-02 1.1094631564684836e-03
      -5.2860594133684606e-04 5.8324100576531007e-03
      -2.3309460203738124e-03 3.7387292157738433e-03
      -1.3863025066705905e-03 1.3567472641761218e-02
      7.1331612151491252e-05 6.9553968295289923e-03
      2.1438543150964721e-03 3.1155445073031292e-03
      -6.9089965113244079e-03 -7.3426396430753098e-03
      -1.1489455487054505e-02 -2.7661752372199924e-03
      -8.3805586318561331e-03 -1.3492450155655264e-02
      1.0176444084387670e-02 -2.6336591173101308e-03
      -4.2810107067615356e-03 -3.3453755508793511e-03
      1.0954095955456662e-04 9.2914315615820198e-03
      1.0923626449412839e-03 1.7815928719910265e-03
      7.3902292860710558e-04 1.0773736890876861e-02
      -8.5534076673385532e-03 -5.2350615229336556e-03
      2.8761341573995455e-04 -7.4999601202179493e-03
      1.3435653929562865e-02 -5.7999661385867334e-03
      1.1278899086359727e-02 2.2181246010945202e-03
      -1.0403382707319893e-02 8.4506873584265021e-03
      5.1296645561868370e-03 -8.5501393574140029e-03
      -9.1272737403233790e-03 -4.7985671949120484e-03
      4.9942078817334801e-03 -5.1907167285216551e-03
      7.8323006787759438e-03 2.2538571296066658e-03
      -4.7038081344482827e-03 4.6213747330260433e-05
      5.1821628604723326e-04 -5.1043554676874275e-03
      2.1672141448187679e-03 1.0918683055194795e-02
      6.3585937065676430e-03 -1.2884642791476410e-03
      -2.6122745400911319e-03 2.4494735888383277e-03
      4.0135801033167641e-03 1.2764025595224797e-04
      5.1432631210816477e-03 7.0315019103438679e-03
      8.6413115065906466e-03 1.0481741201530026e-02
      -9.9669209211125220e-04 -4.5166936913875501e-03
      4.9245588792324125e-03 1.2756245362189068e-02
      -3.4150390148308968e-03 3.3641202765346202e-03
      -2.0146636256031581e-03 1.0297472122117700e-03
      -1.2795130772983276e-02 -1.8708807805864326e-03
      4.6711796774305224e-03 -8.7715505931899862e-03
      -5.8848625063527447e-03 -7.4321214260432041e-03
      2.7523806293120608e-03 1.8901463906378896e-02
