<?xml version="1.0"?>
<opencv_storage>
<opencv_ml_ann_mlp>
  <format>3</format>
  <layer_sizes>
    6 220 320 15 1</layer_sizes>
  <activation_function>SIGMOID_SYM</activation_function>
  <f_param1>6.6666666666666663e-01</f_param1>
  <f_param2>1.7159000000000000e+00</f_param2>
  <min_val>-9.4999999999999996e-01</min_val>
  <max_val>9.4999999999999996e-01</max_val>
  <min_val1>-9.7999999999999998e-01</min_val1>
  <max_val1>9.7999999999999998e-01</max_val1>
  <training_params>
    <train_method>BACKPROP</train_method>
    <dw_scale>1.0000000000000000e-03</dw_scale>
    <moment_scale>2.0000000000000001e-01</moment_scale>
    <term_criteria>
      <iterations>1000</iterations></term_criteria></training_params>
  <input_scale>
    1.1763567564113615e+01 -7.6669869744437391e-01
    1.1816042163487838e+01 -7.8989439658639193e-01
    1.1623298742658239e+01 -7.9699467281110270e-01
    2.4573764338445294e+01 -6.3604890954547033e-01
    2.4377738653040065e+01 -6.5481599648567002e-01
    2.3972907127823454e+01 -6.6301689103355044e-01</input_scale>
  <output_scale>
    1.0526315789473684e+00 0.</output_scale>
  <inv_output_scale>
    9.4999999999999996e-01 0.</inv_output_scale>
  <weights>
    <_>
      -3.3442514390326744e-01 -1.1861338231279914e-01
      -1.7825614068790252e-01 -1.2861098771649121e-01
      2.2434292249150042e-01 -1.9081250897288207e-01
      1.9043879527779542e-01 2.3790379344117080e-01
      -1.0050096506965214e-01 8.3220429727091913e-02
      -3.0687086323795137e-01 -2.3718168075786239e-01
      -3.0485846910431885e-01 1.1685875948000397e-01
      2.3094589443108712e-01 -3.6158226520020414e-01
      -1.1679473933561910e-01 2.5514811650843666e-01
      -2.8583213378402555e-02 1.5535103942048134e-01
      2.3772711493408519e-01 3.2708454973366868e-01
      3.0909690142148238e-01 1.6658412422002836e-01
      7.9252606882492561e-03 3.3396413423341098e-01
      1.0194665151865720e-01 2.0966101460534251e-01
      5.1324640638529581e-02 -6.8458863832347755e-02
      -3.0180914415835225e-01 -2.6090915616545618e-01
      1.7005630733697952e-01 2.9535779634186610e-01
      1.9850344299262225e-02 3.3146153949494478e-01
      -1.9161372583844102e-01 3.9969481778339921e-01
      -5.1409142775949046e-01 -3.2712371519353006e-01
      -3.4726791932436674e-01 -3.7294226620463233e-01
      -1.0926721261812421e-01 -1.7125026176630326e-02
      1.1412312790390001e-02 3.5857086048072467e-01
      1.5814587035152711e-01 -4.2954351531095343e-02
      2.3183744554906671e-01 2.1733113373420435e-01
      -2.2514469162111281e-01 -2.4221943367068147e-01
      2.2895847236462766e-01 4.7555374791968819e-01
      -1.8280195833880672e-01 2.8269741001527043e-02
      -2.5789399640705241e-01 2.3492100815559436e-01
      -3.4197840865427909e-01 5.2110659249579278e-02
      -2.5504445789778590e-01 -1.8762611402244975e-01
      3.2499384974388051e-01 -3.8780305260857550e-01
      2.4073540743812999e-01 2.7708030640836490e-01
      -4.4948185212446679e-01 -2.3634329648864483e-01
      -1.7808981423418824e-01 -2.3343605057029129e-01
      3.5349794748698454e-02 -5.5910581772005072e-02
      -2.5403365292948465e-01 1.0154705270398311e-01
      -1.0031869149494674e-01 -1.9133052299923287e-01
      2.6079774927735117e-01 1.8164132787492934e-01
      -1.3990991279062018e-01 -3.8697159682949865e-02
      -2.2015503967866568e-01 -1.7988428285544827e-01
      1.1969986481237800e-01 -3.1467777214947523e-01
      3.4309821214869207e-01 -2.7802281353453562e-01
      3.2783631287285303e-01 2.8958909993667226e-01
      1.3378785999824272e-01 -1.8687641022343127e-01
      3.4978171006930497e-01 1.0731395755953607e-01
      1.0981963458332777e-01 1.9084742370143581e-01
      7.6136058499530673e-02 -2.9764636003708994e-01
      -5.5827450209821564e-02 7.8120576836805997e-02
      2.6203227633075660e-01 2.1517504968170423e-01
      -2.0640475618270007e-01 2.9350849895277237e-01
      -2.7173889601697226e-01 2.1840966348734397e-01
      -1.0353950276385838e-02 -4.6525536137814018e-03
      -7.1998808018303523e-02 -3.6387175621922968e-01
      -3.8121632926723203e-01 -4.3389546470028434e-02
      -2.1038378049565907e-02 8.2858480578817492e-02
      2.7427086567200454e-01 1.8822197392753659e-01
      6.3206424537554972e-03 -1.8842643643999962e-01
      -2.6744632605220081e-01 -2.7550966922241998e-01
      3.0195062118353644e-01 -2.7284850538839889e-01
      -3.6253254155107784e-01 1.8330522865959742e-01
      -2.8657634201109616e-01 2.9744117682064614e-01
      -2.2007946228060757e-01 -2.6345953759045299e-01
      1.7162793710346058e-01 -1.7496671060754029e-01
      1.6069034084376419e-04 3.4221975945308059e-01
      -7.1731096047440462e-02 9.1039849094716449e-02
      8.6055450153524032e-02 -3.2903986563277254e-01
      1.4786285109796499e-01 3.1657024148978319e-01
      -2.8287060757407828e-01 1.0944795322580014e-01
      2.6573608249727027e-01 -4.0948139457815430e-01
      -3.0147406443148200e-02 9.8400458194983345e-02
      6.8193050173873629e-02 -1.2817317345260495e-01
      3.9685437507188187e-01 -9.0263592637399012e-02
      -1.2573871600376524e-01 -1.7579380312097340e-01
      -2.7495714174377212e-01 1.9045979818763903e-01
      -1.8573161188942322e-01 3.5954408876834587e-01
      -1.7945647050442221e-01 -1.0267515656375845e-01
      -2.8546937312827619e-01 1.4571702070487152e-01
      3.0055488640550770e-01 1.1785584750011212e-01
      3.9048245638677587e-01 2.6228698450304927e-01
      -1.1727913926731229e-01 3.5320628641933099e-01
      -3.1013724912975861e-02 2.9033359700934575e-01
      7.2972115224182454e-02 2.0852453721055617e-01
      1.6537440217650867e-01 -2.4073650991596227e-01
      2.2970403876262732e-01 7.6567768530064528e-02
      3.1048498236666827e-01 -3.2061091537259140e-02
      3.4518000911214458e-01 -5.6790539866405021e-01
      -1.8468574345144328e-01 2.8704697865693662e-01
      2.2491706467735323e-01 2.0277546723808770e-01
      7.2912646790250557e-02 -3.5785588435966365e-01
      2.1699816407479472e-01 1.9967240201529421e-01
      3.9080014733469037e-01 -3.9682138582822774e-01
      -1.1144669324930342e-01 -4.1499231510888490e-01
      -3.1486149520541734e-01 -1.5450950659657162e-01
      1.0262980389517737e-01 -1.4777397792955169e-01
      -8.6015619765840476e-02 -4.6287813402520932e-03
      1.1452769695754197e-01 -3.9874495896212815e-02
      1.3063292575934601e-01 -4.0601006730880507e-01
      3.1867288323379417e-01 -3.7320269322034326e-02
      2.9155016001479628e-02 2.5569165729071038e-02
      -3.6534283916276677e-01 2.8300174467867772e-01
      2.1411656728293796e-01 2.6485230172058305e-01
      -1.4053941585058283e-01 -1.7615067107969371e-02
      1.5804194202681568e-01 1.5025862204001977e-01
      2.5187105720139169e-01 3.9027998635434497e-01
      1.8317518280369177e-01 2.8166415534591471e-01
      1.5614311840977319e-01 1.4994580755831621e-01
      4.0294165738461502e-01 2.6982565599916486e-01
      -3.0547163430217639e-01 4.0148987101673202e-02
      4.2906259061157484e-02 -2.3898241796479017e-01
      -3.5581280529856950e-02 -1.8643021651631664e-01
      -2.3964411467332700e-01 -1.2627570033446969e-01
      -2.5465874390445870e-01 -1.1336442324793827e-01
      1.7459403471202728e-01 -1.4160487099106955e-01
      -2.4907970793574433e-01 -1.2579879008178271e-01
      -2.9028362894468263e-01 7.3990568810383503e-02
      -2.4435642037675526e-01 -3.4297764675088582e-01
      1.1230696288970744e-01 -1.1104601879428634e-01
      3.6835713232461903e-01 6.8475532115222962e-02
      -4.2189377114382434e-02 4.1524903211422472e-02
      1.2482986514905030e-01 1.1739305865257574e-01
      7.2813856816247337e-03 -3.4326585050166619e-01
      -2.1657202451987112e-01 9.3832354640105892e-02
      9.2934711678763118e-02 1.5956878135879932e-01
      2.2862539618036731e-01 6.2431496035189417e-02
      -2.3280636429805632e-02 1.4378458247781545e-01
      4.1200132531624512e-01 6.9378908569840386e-02
      2.9071789567790352e-01 9.3651898847687071e-02
      2.9924334719203488e-01 7.2557314870980172e-01
      -1.0491068107630372e+00 1.0031661590606933e-01
      -3.4912682070918709e-02 2.2479578011701593e-01
      1.9530355144765910e-01 1.5576556090845536e-01
      2.0049378617608379e-01 2.2915171836829321e-01
      9.3208868378142254e-02 -2.4603947164868739e-01
      2.0072635292357119e-01 -2.0536114363747721e-03
      3.6397491443126002e-04 -8.0121877570381028e-02
      -3.5826468139416767e-01 -5.5393187122814429e-02
      -1.9278145177126210e-01 4.9083169199797616e-01
      1.2470420419427859e-01 1.0559537572777114e-01
      1.1022570566148401e-01 -2.7545109538735191e-01
      -2.9958418114793156e-01 -3.1580146077433296e-01
      2.6203629834018327e-01 9.8756309105839837e-02
      2.3296728153139515e-01 3.7659828777482146e-01
      2.2774931095782847e-01 -4.2497211777301674e-01
      -3.4850842542322275e-01 -3.6566866400458931e-01
      -2.9661448659791523e-01 2.6667387236213708e-01
      9.5824675680970833e-02 9.5530700903682347e-02
      -7.8522100380065130e-02 -3.5774202122227061e-01
      1.9402946011998179e-01 -3.9482143258001556e-01
      -2.3883604149592444e-01 -3.0930407592349735e-01
      2.9314048241780879e-02 -2.9655068458183914e-01
      4.4273602570348919e-01 -3.5079504515631837e-01
      -2.7858918716924858e-01 2.7395034610464453e-01
      2.8114598875498503e-01 -1.4103354939830481e-01
      -4.5696505801552580e-02 -2.7064291195427903e-01
      1.3375788499940625e-01 1.3249236152837693e-01
      -2.1100458427578714e-01 -9.0021822929186548e-02
      -1.9518261475980037e-01 -2.5078718423122232e-01
      1.1695094720157537e-01 -5.2543247908600245e-02
      -2.7941307290501782e-01 -1.4861355944071389e-01
      2.3587724533325086e-01 9.0492956603571401e-02
      -4.8258953480204814e-01 9.4588784921284905e-02
      -2.1885252145952960e-01 1.0899857241503125e-01
      -1.1678239169770696e-01 -9.0083943963686477e-02
      -1.0221942703271585e-01 -2.4372730535770479e-01
      3.2886896086179734e-01 1.1963423002059714e-01
      2.8988832434708589e-01 3.4719766877403557e-01
      3.5489631930265447e-01 3.0293470108679510e-01
      -1.0687086208382718e-01 -1.9831186478962740e-01
      -1.0737486738983490e-01 -2.5548683594276844e-01
      -2.0017551403345310e-01 4.3833016854715634e-01
      9.6738958682198853e-02 4.5510732722459074e-01
      -2.2492860591872441e-01 2.3673574281340035e-01
      -5.8026210632164926e-02 -1.1749042598375990e-01
      -2.8315310169630914e-01 2.2420253071409108e-01
      -6.4179738172931058e-02 1.7908748105286426e-01
      3.6385999652664652e-01 -1.3320035689829379e-01
      1.3190982782194027e-01 -4.9928331451686937e-02
      1.5035925752192145e-01 2.5820710207090758e-01
      2.2460727342904727e-01 1.0242073552707963e-01
      3.0065558220185046e-01 3.1194528632965100e-02
      -2.7095726076784904e-01 -1.7669539013149907e-01
      -1.0310991491840062e-01 3.9843120666506998e-01
      -2.6327242854737677e-02 -2.4811779117554958e-01
      7.4863526058483426e-02 -1.0967697614338297e-01
      1.0307153872175728e-01 3.6589030690935676e-01
      -3.3640827741116514e-01 2.5336696631441052e-01
      -8.7083824562026596e-02 -9.9841793309439014e-02
      1.1242823408089724e-01 3.1211590489853636e-01
      -5.2034887138648567e-02 -2.8361698550446696e-01
      4.4852272215915701e-01 4.5285219306459096e-04
      -3.9725598770417142e-01 2.4711587837592763e-01
      2.1350740572745466e-01 1.4083729271230117e-01
      -2.0155453194858453e-01 9.2992486499880220e-02
      -2.8427550679103009e-01 -1.5351420426387857e-01
      -4.6769132584229593e-02 1.7588826016703962e-01
      -5.2091550552613121e-03 -4.9387346275710939e-02
      -1.3365657249047050e-01 2.9103195369385093e-01
      -1.8896333201742332e-01 2.8205182303873755e-01
      -2.1802590421056967e-01 -3.3485572057276330e-01
      -1.6221372985749747e-02 1.8760923934632354e-01
      -2.8631306229985141e-02 -4.3567417995120178e-01
      -2.2430563824862429e-01 -1.4497123728827443e-01
      8.5468562580072446e-02 1.2587290482220828e-01
      2.7750806334356415e-01 -4.1906849910389404e-01
      -2.6616582138225225e-01 3.9172050815404136e-01
      -1.3453976901585385e-01 -3.4574145204813000e-01
      -1.4967003348384006e-01 -1.0595911380130460e-01
      -1.4064904999500866e-01 2.1554304640192512e-01
      -1.3683712653927496e-01 8.5895367051644300e-02
      1.2599158650090495e-01 3.4453995525419462e-01
      -3.9981323948237765e-02 -2.2223584271552549e-01
      -5.6378157795265627e-01 -3.8932624842163738e-01
      -1.4612445075619537e-01 7.0586491098378048e-03
      1.1780153916015057e-01 5.0092587191818028e-01
      2.0809665040111061e-01 2.2408284219756822e-01
      2.6215407328070600e-01 -7.0891997164562681e-02
      -1.5264214692603278e-01 -8.8577580548768325e-02
      1.1059133820102886e-01 2.9651737590235322e-01
      3.0717733870663255e-01 -2.0707963939419657e-01
      -1.3028390567209422e-01 2.6999540705566344e-01
      -1.6438601738364325e-01 -2.1410588350677617e-01
      -2.9152255150734158e-01 2.2879652189685448e-01
      -2.3785237685609376e-01 1.8546328947896784e-01
      2.5799671668119029e-01 -2.7163424311788931e-01
      4.8246551392236109e-01 1.1275832687600834e-01
      4.7989707162185424e-01 -8.6399015848388758e-02
      2.2558794473679036e-01 8.5999765983761661e-02
      6.8144286752558209e-02 -1.9754841446600271e-01
      4.5966552401842775e-01 3.5197138247749571e-01
      -2.6663741146769060e-01 1.7523423504847971e-01
      -3.3453545404799595e-01 2.3719443483436717e-01
      3.3243011764495546e-02 -3.8225257722889366e-01
      -1.4082390603335673e-01 3.9026035967237365e-03
      2.6964504267066230e-01 -4.3287920691467430e-01
      3.9624050825030038e-01 1.9956112387830305e-01
      -2.8491432514785575e-01 -1.2935848439722286e-01
      -2.5248356119248733e-01 -4.2078486366973367e-02
      -3.8521074701880548e-01 6.0175306271111151e-01
      -9.5355537210259045e-01 -9.0068667470176528e-02
      -3.5586538100606691e-01 2.3271732870731338e-02
      -6.7659265434590582e-02 3.9769733133623719e-01
      2.4405636792749619e-01 -4.3617342753229632e-01
      -4.8829938835781878e-01 -4.9575115049238411e-01
      2.5764478800511265e-01 3.1321014546748044e-02
      1.8793502954680000e-01 -7.4345046263547515e-02
      -6.0893044321198679e-02 4.9518534121273983e-01
      1.9361911235768944e-01 -1.1462560826061224e-01
      -1.7352718360909081e-01 3.3538804217499257e-01
      -8.1410768150894652e-02 -1.7967398332961859e-01
      5.5495466474881228e-01 1.7765739619626694e-01
      4.1179848761947990e-01 -1.1543701928646773e-01
      2.5570264607878124e-01 9.6378143886045986e-02
      -7.0001422681412934e-02 2.0563185232458944e-01
      3.6993344785730420e-01 8.9947254899031867e-02
      -1.9564222259647004e-01 -2.3286506670266027e-01
      2.0189590762122678e-01 -3.4479524931242328e-01
      -2.9042550091700825e-01 -8.9527209601269850e-02
      1.7182376557673562e-01 1.1171716802797136e-02
      -2.5547627191552075e-01 7.4100912886681997e-02
      3.1750817260547584e-02 2.5510850884356517e-01
      -1.1145085486925344e-01 -6.7648290229761418e-02
      2.2286761685866205e-01 -1.8420947402518026e-01
      1.1590862958889041e-01 -3.0489305288474011e-01
      2.9191515706147125e-01 -1.6128070850163315e-01
      2.0214298535093389e-01 2.0256164076962907e-01
      1.6867838155475670e-01 -2.5695053104445181e-01
      7.5665655637791804e-02 4.1686475147618285e-01
      -3.8024520920735611e-01 4.8658945075597898e-01
      -2.1236035129193823e-01 1.1341332918951330e-01
      -9.7828468712143207e-02 -3.4525412810712086e-01
      3.2806434934734530e-01 -2.6743545711221234e-01
      4.5559298072421478e-01 3.4268974514873823e-01
      1.6262034064863470e-01 1.3716051562533335e-01
      -2.7969564556406845e-01 2.7191379059631998e-01
      -6.2183741236388805e-02 5.9816043268114027e-01
      -2.7562819036237479e-01 -3.3458022361571949e-01
      9.9128116696061794e-02 -2.2086677008301689e-01
      1.1623885230495682e-02 1.7077734358736021e-01
      -3.6303554790816323e-01 -5.7810188810166974e-02
      -1.1122664983259410e-01 -2.4776340025294857e-01
      1.5806027968476843e-01 2.8531876592399691e-01
      4.6101361447846428e-01 -1.7457059867854019e-01
      2.0640017608877145e-01 -2.6744386147680110e-01
      -5.0429039721297753e-01 1.0006390570550934e-01
      -3.0214892211056815e-01 -2.3996337178765112e-01
      -9.7774175644759209e-02 -3.4632009116607704e-01
      1.0086207251001905e-01 -2.5154423503400858e-01
      1.4646887712013282e-01 2.1761638987897880e-01
      -1.5342697034570218e-01 -3.7387032141315965e-03
      -1.7159468648579177e-02 -2.6697573062928309e-01
      -1.7932449184825169e-01 2.3728738779811503e-01
      2.5843112478931124e-01 1.5247852562347244e-01
      3.0245075713807845e-01 3.0075507111028915e-01
      2.0063480559322799e-01 1.4617441017789759e-01
      2.4487188863613982e-01 1.4832591139920837e-01
      4.1719337064131434e-01 -1.4939323757498566e-02
      -6.0127345201039595e-01 1.7601603232670598e-01
      4.4956394253184034e-01 -8.9678296575748835e-03
      -4.4669745961858870e-01 1.6825788739973949e-01
      2.9080165460375007e-02 -2.0103177920219820e-01
      1.9173500540921118e-01 -2.0248649598677701e-01
      1.2186179115576870e-01 2.0983073545135192e-01
      9.9621341535421556e-02 -6.9927834836357639e-01
      -3.0253047809631128e-01 1.6269403956026257e-01
      -3.0446049495392669e-01 1.4271232775039894e-01
      1.9425303432212868e-02 -2.8576827443282715e-01
      -1.6679780560670737e-01 2.3062016850492961e-01
      1.6555077013703637e-01 1.6310917701319969e-01
      2.3108551664270643e-01 -4.0357342018263792e-01
      -1.1894398024928647e-01 3.5338722194936451e-01
      -3.0270733783714476e-01 -4.3054771056871743e-01
      -3.2974769828361866e-01 4.1472597360471986e-01
      -2.8710072937788406e-01 1.1889647743083101e-01
      1.8152084562450507e-01 -1.3747259227453285e-03
      3.9536587112814631e-01 3.4504684446702028e-01
      -1.9472642684076097e-01 -3.2904187575065280e-01
      1.9150643687312105e-01 2.6266103306916166e-01
      -1.5079433835536579e-01 -3.7136222504834787e-01
      -4.2518414383299152e-01 2.8246086464350750e-01
      -1.3951176252179165e-01 -1.4320620950297544e-01
      1.2689717342535267e-01 1.1475991875751013e-01
      -4.3693462458929277e-01 1.4536423236019844e-01
      1.9715822687363718e-01 8.6418910710858082e-02
      1.2913085913691211e-01 3.8279726556479365e-01
      -4.5619668058937357e-01 -2.5482715203066453e-01
      -2.7565849440452755e-01 3.0662614097562474e-01
      -1.0000091938942120e-01 1.9842012089019848e-01
      -4.7704670044949445e-02 3.0834884915311084e-01
      4.1213685057037835e-01 -1.2262236218508218e-01
      -3.0234449604248403e-01 4.0250415990919525e-01
      -1.0005185151928371e-01 2.2226246308156700e-01
      1.2274597407487328e-01 1.9621551916735458e-01
      3.1364977938495830e-01 -5.3313543514083163e-02
      1.7779420820370956e-01 3.1469863878679660e-01
      -7.2192118446296916e-02 -3.2785562447452571e-01
      7.1353271744350744e-02 -1.3731374811810659e-01
      4.7372748196014813e-01 1.2057163039379178e-01
      -1.6830864106956431e-01 1.9478270192172786e-01
      3.4263109752202991e-01 3.1012693813006725e-01
      1.1813674113807802e-01 3.3500622001161506e-01
      -4.0319454966638307e-01 2.9562713982092836e-01
      5.3762276095338579e-01 1.4728207997040125e-03
      3.5355409633328594e-01 -2.9286697483800972e-01
      3.4731187004807884e-01 -2.3471970737367312e-01
      9.1745706870513186e-02 1.9337712685114930e-01
      -7.0367100890067658e-01 2.9816671184511689e-01
      -3.6838260002108053e-01 4.2181265942932272e-01
      -2.3598566809880148e-01 -3.3066410617147662e-01
      5.8236640640594239e-01 2.0061886827446479e-01
      -3.3706072146017035e-01 -1.4123032354637316e-01
      1.7014914550672167e-01 -1.8919953134474907e-01
      2.6294544669451431e-01 1.1985057171405404e-01
      -5.8264591778946795e-01 -1.8268142098206119e-01
      -3.1262912361621670e-01 5.0320580826050776e-01
      2.2212947377299533e-01 3.7044473490130375e-01
      9.4410753643548326e-02 4.3982646968229661e-01
      1.4594711781047706e-01 -2.6378259435737134e-01
      1.1440927791336475e-01 4.0629158548001276e-01
      -2.3802265414040968e-01 3.2928683772749756e-01
      3.8238013454522984e-01 6.5187429136951955e-02
      -2.7393045786489906e-01 -9.0022209578498741e-03
      -3.2406056171033520e-01 -3.5381019781477774e-01
      -1.8378079085557078e-01 2.2191848137040737e-01
      3.0475689197654793e-01 -7.9893541086078407e-02
      -2.5762782794736749e-01 -2.8595508219437821e-01
      -2.2296516200694305e-01 -3.2422294628242126e-01
      -4.7057602167466667e-01 9.1947796992050745e-02
      -1.3230374403692030e-01 -1.0492502587299214e-02
      -2.9887429897782508e-01 7.0055892905401429e-02
      2.7013764076174308e-03 -1.1848107733197041e-01
      -3.3971132116859803e-01 2.5111315139266355e-01
      3.6830676514128295e-02 -2.2450725772473565e-01
      2.3276012843898683e-01 1.4066898814406481e-01
      4.1419777324287371e-01 -3.0843223001247955e-01
      1.8321420105387041e-02 -3.1944505199624590e-01
      -2.8901483731123850e-01 2.2986811127142129e-01
      1.5957440198110087e-01 -2.3260327504977574e-02
      1.1097566409784294e-01 3.9559168727858052e-01
      -8.5035572121784045e-02 1.4116355626423441e-01
      -3.1139629261098128e-02 2.8851211863600723e-01
      1.2257322984451829e-01 1.2917873975474461e-01
      -8.4318343106097898e-02 -2.3900011169981672e-01
      4.9507005320097053e-01 4.9197361383331667e-01
      -4.9344018421658131e-01 6.6397377752174400e-02
      2.3030094811036109e-01 -6.3665730199599868e-02
      -9.9165221941486553e-02 1.9776226641939054e-01
      -4.8826964308345222e-01 -2.6414043868475334e-01
      -2.5259225132298074e-01 -1.9347960254296404e-01
      1.9128951665976879e-01 2.9120685965888049e-01
      -2.1450857830064865e-01 1.1703071830366019e-01
      -1.7261674860377907e-01 -1.6282777096624143e-01
      -2.2156876292585809e-01 -3.4765396301687157e-01
      -1.9906320389836327e-01 1.9817578331869320e-01
      5.9593215242493842e-02 -7.7756052688027599e-02
      1.4501943560945912e-01 -4.9087066140447971e-01
      -9.8638815268543793e-03 -3.7598049466190797e-01
      3.6219476629098596e-01 1.8021556180539436e-01
      5.8435128187734511e-02 -2.1135551514675568e-01
      2.9068910785210750e-01 -2.5297748720747998e-01
      9.0283928809474306e-02 -9.6194577318685692e-02
      -1.8283815897357772e-01 -3.4198099481001687e-01
      3.9195810054135222e-01 4.1116249621843945e-02
      -1.3679042599614699e-01 2.4117966542400046e-01
      -3.2657785235844872e-01 2.5059910340435193e-01
      -2.8910067452002036e-01 1.8131008992623598e-01
      -2.0895315302897993e-01 3.7087089448293326e-01
      -1.9122939634363654e-02 1.4058914971779024e-01
      4.4804133363218634e-01 -4.0855259406967132e-01
      -3.2052345977371199e-01 -6.4846135155384052e-02
      -9.6583699702397427e-02 1.6672314575314087e-01
      3.9104706181884985e-01 -1.0702145753895687e-01
      5.0013154906788093e-01 3.7271426492114512e-01
      -7.5945096078551502e-02 -1.5620298881508407e-01
      -1.3751982830982204e-01 3.8206924521999425e-01
      8.6448619286893250e-02 1.6088302140768676e-01
      3.0667777878354180e-01 -5.7006317214596391e-01
      -3.7879035783126236e-01 -3.3642595675850978e-01
      -5.3397862616097046e-02 2.8403537477213731e-01
      6.2777658500490108e-02 2.1261719396351475e-01
      -1.5193659854057265e-01 4.1559602668876860e-01
      -2.5687507555179240e-01 4.5126217063236751e-01
      2.3332963709037730e-01 2.8936261787620260e-01
      -1.9281186080644686e-01 5.0968790928755459e-01
      -1.6436439446734144e-01 4.6686747103320758e-01
      5.3906565400737294e-01 7.5468447478331299e-02
      3.6967835195039034e-01 -4.0831650054642005e-01
      -3.6326877666345059e-01 1.1755628537822074e-01
      -4.4446180984540939e-01 -5.3857227230081872e-01
      -8.8470511270232824e-02 -2.8667112591547111e-01
      5.3072035541847813e-03 2.1152372413791290e-01
      -4.1103839678190168e-01 -1.5476221471249099e-01
      -2.0606603942972843e-02 4.2229002387275361e-01
      2.8451692130945927e-01 -3.9441850961043895e-01
      1.4153466609836593e-01 -4.4724925849792224e-01
      -5.5671074061535736e-02 -1.6674567367929908e-04
      -6.1630587244543289e-02 2.1173136577383223e-01
      3.1581275946350684e-01 -2.0527959168228388e-01
      9.4167212830142594e-02 2.1765337144560820e-01
      -1.3711554772777452e-02 -4.4886744077980700e-01
      -1.7933092983283269e-01 3.5079582755426761e-02
      -1.9587896017317452e-01 -2.6817830528480741e-01
      -5.2642520765808117e-02 1.8407075312404070e-01
      -1.8922477711771346e-03 1.2491675305678891e-01
      2.0820505114085189e-01 -2.1697896193908109e-01
      -3.0181513164439888e-01 -3.3067286356966069e-01
      -2.6882924725575813e-01 -1.9279417563150653e-01
      8.3852562245246218e-02 2.7039779585038404e-01
      2.1834015930780354e-01 4.2185377279220426e-01
      1.1187554163519609e-01 1.7317116626104490e-01
      3.6969758325633800e-01 2.8323477256615981e-01
      2.1783614387487757e-01 -8.0689727116471738e-02
      2.4154086814468775e-02 2.8050615920822430e-01
      -3.8400510655987480e-01 -2.0929847424843445e-01
      1.8788309189937752e-01 -3.0201879152909183e-01
      -3.6570368961989985e-01 2.0142830205845408e-01
      5.1414802185470870e-02 -1.9002803872097476e-01
      -7.0052136236753090e-02 4.0507180712961821e-01
      1.9501272341914958e-01 -6.5434298720333045e-02
      1.6934579194390223e-01 2.6128440773914574e-01
      -2.1225061488737701e-01 2.3272432657293735e-01
      -3.6895237461641101e-01 -1.8090627927988509e-01
      2.8387708966654773e-01 1.6280997120073559e-01
      6.2587787084248114e-02 1.2255084170151660e-01
      2.7021243320753001e-02 -2.9515570897404875e-01
      1.9958527683227342e-01 7.8054283038500413e-02
      1.2997897686459869e-01 -1.0317166704564093e-01
      2.5558997144744050e-01 2.6081110088911935e-01
      -1.6664158015355696e-01 -1.6490161550627810e-01
      2.3875205594129437e-01 -3.5497514539347652e-01
      -6.1495949543667647e-02 1.9491069407863015e-01
      9.2136420563451754e-02 2.2801506435706684e-01
      2.0861527616770326e-01 -3.1762371902533076e-01
      2.2667609193855262e-01 -2.4347015656605170e-01
      -2.7373020830460276e-01 -2.1483913101633376e-01
      -1.9936007036022815e-01 -2.7803553719639967e-01
      1.9509410421179021e-01 2.2472783988113637e-01
      2.6990964390016176e-01 -1.2677686420338946e-01
      2.3174589489724837e-01 -4.2899960252621494e-01
      3.0312348616046997e-01 4.0184893437184926e-01
      3.8490530752646929e-01 2.9375395626649481e-01
      5.4335736161375180e-02 3.0306615252780428e-01
      5.1277215102548644e-02 8.6352429345391446e-02
      1.3897922330361037e-01 2.2241344575992575e-01
      1.0897541563009251e-02 -6.2704769436887742e-02
      3.6467805062775704e-01 2.1620686431729635e-01
      1.7706363235373879e-01 2.2113141906034864e-01
      1.7816934441735235e-01 -4.9709764395401923e-01
      2.2002962626155179e-01 1.3378843846435962e-01
      1.5775316818142932e-01 1.6002286054870324e-01
      5.1078006873167370e-01 3.5766492244117098e-01
      -2.3867619226459796e-01 3.1344897529262788e-01
      -1.8445889754690362e-01 3.9770346195927830e-01
      -1.1025119097775828e-01 -3.2668306021462541e-02
      -3.4286923098504521e-02 -3.6001535924619960e-01
      -2.9584204194042013e-01 -2.2454892240190524e-01
      -3.3187700668325865e-01 5.0921105058024618e-01
      2.8349127006063829e-01 8.0561818658224538e-02
      2.4894586900770588e-01 7.3314750682429472e-02
      1.0470202571003315e-01 -1.7262745252417339e-01
      1.6591545834344681e-01 2.7059149562366996e-01
      -1.0487520588184479e-01 -2.4258660925814110e-01
      -2.9094058241542786e-01 1.2292655197737128e-01
      2.2698120073376768e-01 -1.4712959765431172e-01
      -1.7722762825502225e-01 8.1951013752019811e-02
      1.6032802082413178e-01 2.1283762905629955e-01
      -1.7075569842636287e-01 4.3296886657209856e-02
      -2.8490160317270241e-01 1.7128316272934079e-02
      2.7545498314130012e-01 1.5988956066962756e-01
      2.3384495550598150e-01 2.7789659692152657e-01
      2.7081740209554334e-01 -2.8000566707411662e-01
      -2.2613841170307325e-01 2.9503386255593200e-01
      -1.3058792390647056e-01 -1.8098605255219907e-01
      8.1388319929112732e-02 -1.0486661167717191e-01
      -7.5873264940710256e-02 1.5982597603349349e-01
      1.7264333413763736e-01 1.1490905674416430e-01
      -3.7915502676754365e-01 -2.4487036097991360e-01
      1.1846837757601540e-01 5.6498923206864747e-02
      -1.1693632334389602e-01 8.6108062093781246e-02
      -2.2712898225207893e-02 -1.1450865685257593e-01
      2.7039737576660072e-01 2.8344044151639802e-01
      -6.0339472305315889e-01 -1.5143742307927766e-01
      1.0443800385625794e-01 -1.1232868006818490e-01
      -2.4021408826336557e-01 -1.3901177069805981e-01
      -1.1349964887625231e-02 -2.3910631988501868e-01
      2.9788981017159466e-01 3.8745306218868736e-01
      -1.7899448496545813e-02 2.3318885935158577e-02
      7.9641582504336186e-02 -2.2729066586008370e-01
      -1.9321428604187801e-01 4.4233788388315314e-02
      3.3732993879139012e-01 6.8511841676343943e-02
      -2.7063057682075264e-01 -5.4082782205999477e-02
      5.1948486982483322e-01 3.8064947421442459e-03
      -6.7420575244976674e-02 2.9402612556883512e-01
      1.1979961720797161e-01 -1.3126088706935227e-01
      2.0850009468403119e-01 -3.0272066718973867e-01
      -1.6098243731214137e-01 -1.1063622599260446e-01
      -2.9088149581565192e-01 -1.2521862602297820e-01
      2.4664122621495921e-02 1.7095173596955815e-01
      1.4610063924938579e-01 6.1428037287713469e-02
      -3.0653061151071809e-01 2.0249669510903165e-01
      -6.8845493643823683e-02 1.8046554383059460e-01
      -7.4089528426394768e-02 -2.3956486926766488e-01
      -8.4298909380872755e-02 1.3729849192000770e-01
      1.7772778624932514e-01 2.1740076424350743e-01
      -2.2945639765806508e-01 -1.7681225994917013e-01
      9.2082733387387886e-02 -1.5328356056913117e-01
      2.5623080386090147e-01 -2.7317572935963047e-01
      -4.0433493761824299e-02 -2.5829645564221798e-01
      2.8837417972349422e-01 1.2866157973403081e-01
      -2.7772836295365388e-01 1.6327055378821127e-02
      -3.3328128769010362e-01 -2.3825014988253468e-01
      -3.4746136053367821e-01 -3.3603993947427546e-01
      1.3480249276312301e-01 -2.6549138986237419e-01
      -2.2410633355780127e-01 -3.8237196141717938e-01
      -2.1568327555950959e-01 1.7449334970467645e-01
      -7.2007397086876701e-02 -1.9670614012340121e-01
      -2.5088079357925031e-01 -3.8938128112623172e-01
      3.8539483820084142e-01 3.3239549169139049e-01
      4.3906902377928642e-01 -2.2548120407840236e-01
      2.8266340615561270e-01 4.9405257443964623e-01
      -2.0437087851560864e-01 1.8774711232538151e-02
      -1.0835828885476306e-01 1.4274286519822660e-01
      -7.1879613701778111e-01 4.1166694989576369e-01
      1.9902028810102701e-01 2.3558374630332232e-01
      -1.1388890872357031e-01 -1.2059465353343631e-01
      5.6184479716674153e-02 -1.5868725339523951e-01
      1.0127161136562499e-01 -2.1410317297715201e-01
      -2.4167639445314723e-01 2.1812401116175503e-01
      1.2845000291359893e-01 -3.1194072608523132e-01
      4.1504529379018412e-01 -5.0492551578431688e-02
      -7.0041923940591388e-02 1.8081024395519499e-01
      -2.3703087511840371e-01 2.2208459467761479e-01
      3.3847458546449760e-01 1.8957885094510041e-01
      7.9073144630604886e-02 3.0589299493464944e-01
      2.1767454875196149e-01 1.8497709273721258e-01
      3.1251501249824692e-01 -2.9887932520246180e-01
      -3.0752013689905972e-01 -3.8124919729530665e-02
      -2.5861989434651267e-01 6.4447885400593896e-01
      2.2773371190565461e-01 -1.2285555450776932e-01
      1.4729706561495468e-01 -1.7129439188616029e-02
      -2.1969683406522211e-01 -2.4483093919290089e-01
      -4.5830682999319063e-02 3.4304973943475181e-01
      3.7121722270496676e-02 -1.9334372647730746e-01
      8.2282543901015068e-02 -5.3999708483321485e-01
      -4.5115060331185702e-01 -4.4735122072921779e-01
      -2.9532267731156470e-01 -3.8982368244570513e-02
      1.9049526804335973e-01 -1.3374141106984158e-01
      -3.4799482834218097e-02 -4.5969999219667651e-01
      -2.2463362572155510e-01 -7.4676392549873641e-02
      4.2179369478518821e-04 -1.2457215941642824e-01
      5.4707667958860684e-01 -1.6897094178624641e-02
      5.1854470633204031e-01 2.7420880600567349e-01
      -2.1588288703455502e-01 -1.5707362232993130e-01
      6.9844669524190037e-02 1.3661851215030005e-01
      -5.6721601845265679e-01 2.1876211344352084e-01
      3.7152653754347953e-01 -1.9394486263678404e-01
      1.0678402827058125e-01 -1.9488611319425123e-01
      4.1765765563459084e-01 -2.9127076706271221e-01
      3.5337343062251986e-01 2.0666089464774279e-01
      -1.4688604643158626e-01 3.5248515279153692e-01
      3.9301243709439507e-02 -1.3127582097033985e-01
      -2.0201480751131534e-01 -2.6163995821899355e-01
      9.4584519156510533e-02 2.1854043412063306e-01
      3.5758853878324326e-01 2.9589448725343620e-01
      -3.1322047837590428e-01 2.1792821788084585e-01
      -9.7609581538658521e-02 -2.5844322432191263e-01
      -2.1971159075305571e-03 1.5233368480412862e-01
      9.2907974290394463e-03 3.8774635398062440e-01
      2.8437139285488949e-01 1.7636673890198099e-01
      1.2815475634489087e-01 -2.8254137814727648e-01
      -1.7258836599737987e-01 1.7544086038326562e-01
      -3.3604776520355722e-01 -1.6999773500516649e-01
      1.1776042502099364e-02 2.1482768717169407e-01
      2.7100471761858458e-01 -2.8686620462097262e-01
      1.5387195857218629e-04 4.9364416050406168e-01
      -3.7683161435971851e-01 -9.4847729217540436e-02
      5.0602382361141351e-01 1.8812624188069411e-02
      2.8442290752414978e-01 3.2614383908028122e-01
      -9.8679919071426411e-02 3.0867431456972982e-01
      2.6088250297831156e-01 1.6627240378456551e-01
      -3.2792904662216249e-01 -3.3703820096383846e-01
      1.2504551307843356e-01 3.7412991083112759e-02
      -3.3519028202616742e-02 -3.3137369111514742e-01
      3.6580876903439091e-01 2.4497255508076107e-01
      2.9004918618081882e-01 3.1267613802716560e-01
      1.6426982708715998e-01 2.5169724412813409e-02
      -9.0160771857981298e-02 7.0729860708239667e-02
      3.4798493933981062e-01 5.4434160343968196e-01
      -1.3715693273741242e-01 4.5182112866657975e-01
      2.0751893941657251e-01 1.4760695543564126e-01
      5.6472915373762689e-01 3.0130474386770500e-01
      -2.1773656913272424e-01 -2.3002394606414081e-01
      5.1645079232228996e-01 -2.8050513634618268e-01
      2.5594514219410042e-01 1.4448102512583186e-01
      -2.4860812713155100e-01 2.5078436661039949e-01
      -1.7535061671185667e-01 5.5847194917718035e-01
      -3.9405655134270806e-01 3.7850115740338017e-02
      -5.7822037938464454e-01 -2.8891305900653552e-01
      2.2138724245123309e-01 -1.3279310061870589e-01
      -2.3933452780135869e-01 1.1725664596971527e-01
      2.5249146378632314e-01 3.7309562152738956e-01
      9.2968729646637327e-02 1.5769564789351864e-01
      -1.8762129521212145e-01 -9.5410468655600031e-02
      -2.3815805277487567e-01 -3.6821564606831347e-01
      4.3931155795649274e-01 -8.8583647260790974e-02
      -1.1649111768839285e-01 -1.1838302136768632e-01
      7.4722590554291909e-02 -1.3558167659542841e-01
      1.9261316844225765e-01 2.4576285785582011e-01
      -1.9235679624212182e-03 5.1671935030306215e-01
      -4.8740850348371872e-01 -2.8401391461704739e-01
      3.3846173935640989e-01 1.0491264134367273e-01
      2.2453883357585813e-01 1.5591374677381190e-03
      1.6429771579069832e-01 1.6261539396865193e-01
      -1.4131524274510202e-01 3.5847747916954598e-01
      -3.6531395619073215e-01 -1.0800967629951547e-01
      1.3616028081517484e-01 -1.9031087338199212e-01
      -2.2041180074565203e-01 2.8110882787589320e-01
      -2.7193316659182587e-01 -3.4869901725791720e-03
      -2.0933731680688275e-01 3.4403459129879743e-01
      -1.5843766679181615e-01 -3.0072591425083267e-01
      -4.5268494312669505e-01 1.6499500469317635e-01
      -3.3681495847105558e-01 1.5982699972251743e-01
      -3.9780325834270743e-03 1.6643551651572341e-01
      -8.4648419922379120e-02 4.5491193385602388e-03
      9.2038101252408924e-02 3.2617296504907545e-01
      -2.3499980861927017e-01 -6.3990088396313496e-02
      6.8942266744804484e-02 -4.0606811804883863e-01
      4.3889729018430540e-01 -1.0658206077812156e-01
      4.4986943050841438e-01 1.8111854771200089e-01
      -2.3656424827390865e-01 3.8171325786604771e-01
      1.2543263435214594e-01 -1.2029603659788435e-01
      1.4842566612145844e-01 -1.5424102790256669e-01
      -1.3761542466329615e-02 2.1747190313698794e-01
      3.6338416911441312e-01 -6.6689845570232692e-02
      -1.4253016475764393e-01 -1.2432390947506544e-01
      2.1230944438084204e-01 -1.0731485443792044e-01
      2.6513965121991678e-01 -4.0999618504727720e-02
      -4.0653666834411906e-02 6.1069608053093660e-01
      8.7306380221787230e-02 2.7603994069027132e-01
      -3.0478470651407730e-01 1.7115631228133792e-02
      -6.7231092345981402e-02 1.3715334080603406e-01
      -2.4418546802630017e-02 -1.4931422938822872e-01
      3.7931395819522368e-01 1.1793106997179535e-01
      9.3998445165380751e-02 5.4162031497614380e-02
      -1.5819401290749688e-01 3.6541631724691165e-01
      2.6632872473806118e-01 1.0941375896363731e-01
      -9.7793841994103611e-02 -6.6786415087301237e-02
      6.4341605719372003e-02 2.8359566441309481e-01
      5.5787691952924143e-02 -5.7600111043335900e-02
      -2.3140854397496238e-01 6.6713358852260693e-02
      -1.6290542487667395e-01 7.6138145037996846e-02
      8.7872898833000077e-02 1.3288591093151303e-01
      4.1073774772759489e-02 -1.4695771892605422e-01
      1.9203201787648730e-01 -2.7362134101469965e-01
      -1.7285737917921506e-01 -1.9432029640304854e-01
      -2.0547246381576753e-01 2.8222505669029912e-03
      2.2530671293228156e-02 -8.0121274085549060e-02
      -1.4233939465280102e-01 -1.4060017316254000e-01
      -4.5043271509277491e-02 -9.6318655126953562e-02
      7.2898406689754100e-02 1.3669306926289912e-01
      1.2427444653727679e-01 -1.6073101242868174e-01
      7.2462776953461497e-02 2.9591034194649042e-02
      -1.1097525181729814e-01 -5.6415012261604247e-03
      1.1822517287104273e-01 1.6313383786090194e-01
      -1.8097451500184727e-02 1.4342127818324946e-02
      1.2264606635647693e-01 -7.6593111761179902e-02
      -4.4528256333301514e-02 1.5306291856763798e-02
      2.3907622956409430e-01 -1.5031051571295950e-01
      1.3709649011036845e-01 7.5043442545676867e-02
      -3.2114402608158094e-02 2.1560166558945948e-01
      6.8948789611456465e-02 1.3493481341472929e-01
      -1.3229376432988879e-01 4.8962231032690755e-02
      -4.5713791296464579e-02 6.4373143633477681e-02
      2.0079956691214890e-01 1.2996978894023425e-01
      -2.0605481738173484e-01 -6.0207229639086934e-03
      4.1839709851450701e-03 -7.3104373574185130e-02
      1.0849535156713167e-02 2.1325211490846863e-01
      1.3632681288503782e-02 1.0757433010821378e-01
      1.0190775417331125e-02 -2.8852769623991362e-02
      7.6697252607682551e-02 -6.8989543766994468e-02
      -3.1573787813417624e-02 1.3707372915919500e-01
      -1.8493562173260944e-01 -1.1340991110696323e-04
      -1.1266905734784891e-01 1.5982449572677439e-02
      4.6344727042042816e-02 -6.1462298121255726e-02
      7.0066052481007460e-02 1.0814129991879937e-01
      1.2103078080772984e-02 -3.4865145795627037e-02
      1.9291272691397646e-01 -1.1052381511361949e-02
      8.5778670372812588e-02 1.5309737111617824e-01
      7.5203437890877287e-02 -2.2159831226157443e-03
      2.8532867800878370e-01 -5.1000622779560434e-03
      2.3670452369771229e-02 -2.2114575894683769e-01
      2.2889176364626455e-02 -1.1604512974297780e-01
      1.4671009387848863e-01 -2.3104383259257505e-01
      1.7447821148963688e-01 2.5621475526160002e-02
      4.8677564219632381e-02 1.6880113040295780e-01
      1.0063532050633568e-01 -4.4498417749958226e-02
      -1.8896815872877254e-01 7.3950957066255540e-02
      9.9933344791010612e-02 3.0698190414209914e-01
      -1.8373457546428967e-01 1.4671856184866344e-01
      1.0952667795170289e-01 -3.0259765691659769e-02
      3.3824702911725646e-01 2.4098683845399246e-01
      -3.7382261602653355e-01 -1.3403093974287297e-01
      3.9575537310821096e-01 -1.1282072005944818e-01
      3.9109397254592703e-03 3.0563374118207864e-01
      -7.6937434188605033e-02 -3.4012749425912467e-02
      5.7861610088214666e-02 2.4773660136542261e-01
      1.1252250647296666e-02 -7.3524268120143552e-02
      -4.9718628243452917e-01 1.5297340607058422e-02
      2.0795034265671355e-01 8.8256661336518563e-02
      -1.2148379138525980e-01 -8.1602232929552293e-02
      -2.1630682151777444e-01 3.3054810734347823e-02
      2.5891082422374551e-01 2.1141669619715325e-01
      -1.4291548208294175e-01 -3.4201911659433276e-01
      -1.2983392441528688e-01 -2.7949101277268651e-01
      3.3923768612732198e-02 -1.9132882243224422e-01
      -1.1752223023413889e-01 1.3601301276759137e-01
      2.3207701817358159e-01 1.7130713051413118e-01
      1.0818579378231169e-02 -2.7666541729722305e-01
      -1.3026433388662950e-01 5.6835172370441178e-01
      5.9711807555271161e-02 -2.2313633022345880e-01
      -8.6495212637916291e-02 3.0662731752960309e-01
      2.0795048333543176e-01 -1.7651939212768822e-01
      4.5910874448746464e-01 -1.4251687126497381e-01
      1.4238750210432286e-01 1.6839873575183786e-01
      -1.2362121314490666e-01 1.3383117216740978e-01
      -3.4501903379517157e-01 1.8669990594215666e-01
      1.3073199446323253e-01 -1.5116559101289906e-01
      1.9155636425320086e-01 5.4645760059201125e-02
      -1.7319204162491580e-01 8.2379735620879316e-02
      -4.1215462335705493e-02 -3.8272659967420802e-01</_>
    <_>
      -2.2126822030800832e-03 -1.1050230470180371e-03
      -9.1408585107929635e-03 3.7919295658612228e-03
      -6.6211720618410460e-03 6.3575619453898778e-03
      -5.3738247481792956e-03 -9.8619280632308223e-03
      2.6540163501656409e-02 -1.7040883825745548e-03
      8.2164462794088386e-03 -2.0209899796806315e-02
      4.7205870693981080e-03 1.5882519450580949e-02
      -8.9428228316106497e-03 1.0189229675629619e-02
      -6.4334229172028062e-03 -8.1279575317528985e-03
      -1.0919021956365443e-02 -1.1963737313924099e-03
      4.4374254358030283e-03 3.8843247636065299e-04
      1.4475375334645822e-02 -8.2884876821049801e-04
      -3.8240686424759482e-03 5.1676805158268023e-03
      -1.5751450198256169e-02 -6.2933614772724220e-03
      -3.9318839457312231e-03 2.1073812051946746e-02
      1.1153456921344275e-03 -4.9876800943235667e-03
      -8.8222544593980212e-03 2.9653000497573360e-02
      -3.1561196417812768e-03 -1.1039283487620929e-03
      -1.4536472301148035e-03 8.5036266382052909e-03
      4.9816471904059511e-03 1.7568095030053105e-02
      -9.3981838119009484e-03 -1.2268579934523599e-02
      -1.9236890238653571e-03 -1.9336047388689978e-02
      -1.1781950114152786e-03 -1.7552777992448032e-02
      1.6592754352784990e-03 4.5035959007134009e-02
      9.1736162929133766e-03 -1.2131576880553196e-03
      1.2991111200500319e-02 5.6886465214507945e-04
      2.8313183702836425e-03 -1.0400824133973545e-02
      2.7959586606490037e-03 -1.5722226324017503e-02
      -2.8178700382821345e-02 3.5458736596164372e-02
      -7.1645982968132115e-03 3.4269209016256748e-02
      4.2722008821781607e-03 -7.0596548399289333e-02
      2.0271451815905562e-04 6.0861162480082840e-03
      -2.1261683924011327e-03 -3.6815144949392050e-03
      9.6634212985633183e-03 -1.9302275026515395e-02
      -2.1322105183662539e-04 1.5336327544330380e-03
      -8.5871924508887417e-03 7.6718129927130629e-03
      1.7712815716955758e-03 5.2875362010329583e-03
      -4.3468996705249572e-03 1.6391146075371611e-03
      -6.9167329793395375e-03 4.4200351288302357e-03
      -5.1024672627018235e-04 9.4336528821638028e-04
      -1.6310615140505590e-02 -8.7767997340813652e-03
      -1.0507770250510253e-02 -3.4849629745973894e-02
      -2.6782627048942938e-03 8.5602933272059322e-05
      -3.5849552486363029e-03 5.8483662149338058e-03
      9.6456997142598481e-03 -2.6815761349427893e-02
      -2.1083077909241570e-02 5.4360997592786502e-03
      1.2101203816311816e-02 6.3131716207163284e-03
      -4.2310375190252733e-03 -1.1067059331953458e-02
      -4.4179958745491719e-03 2.1188554030767345e-02
      4.4230709342662645e-03 3.2215630066305097e-03
      1.3178684112225281e-02 -1.1107155079996678e-02
      -8.6809849152338775e-03 -3.6783519462162497e-03
      -4.2147811955635509e-02 2.6359340098299641e-02
      -4.9729983274594087e-03 3.4290832110530599e-03
      -3.4642495704305973e-03 5.9677038430004332e-02
      -1.2281942988970285e-02 1.3692736581356906e-02
      1.5137600143307124e-02 2.0991237101800477e-02
      1.2017836663608157e-02 1.9750387982631771e-03
      4.5042113173512748e-03 1.1129256029813865e-02
      7.3878440221874352e-03 1.7740659746624199e-02
      4.3780532199066188e-04 -1.6980958651436531e-02
      9.0739667806291700e-03 -1.2315372790177456e-02
      -7.3763455673357767e-03 -2.3375570509192454e-02
      -5.1458344643132529e-03 6.6459565847853280e-04
      1.2640474360683183e-03 -7.0404397341566251e-03
      6.3142991619670359e-03 3.4742685315373180e-03
      8.0144220632965123e-03 -2.0297637052103291e-02
      6.3550576208279445e-03 -1.0430919381845577e-04
      1.6831283619012673e-02 1.8267243632821100e-03
      -2.1694866529639371e-02 -3.4810518983636463e-02
      8.8505627106651406e-03 2.1513538670844537e-03
      -2.0565782348498738e-04 -3.6058008240147762e-04
      1.7582869472590971e-02 -1.6037869438130511e-02
      1.1211941323644012e-02 -3.7966583995087795e-02
      -2.5682023784104609e-03 3.2395345459020099e-02
      4.7679721733942262e-02 2.9412201521226158e-03
      1.4960418751404945e-02 -9.1483848562891219e-03
      -3.5673026157887213e-03 -4.9746594848866423e-03
      4.6791726301712118e-03 3.0468655021221296e-03
      -1.4163131958539726e-02 -5.9657992438195799e-03
      7.1542149106835597e-03 4.7679661629642057e-03
      -9.2838044787128416e-03 4.7328130307335492e-03
      6.8111477899612648e-03 -1.1399301037544824e-02
      -1.6000654104741087e-02 -4.3475956659567491e-03
      -8.4691399669795889e-03 -5.4594097632622263e-04
      -6.4089336455295555e-03 1.8824137730902638e-03
      2.6252133235087020e-02 -1.1920503261621078e-03
      -1.8835008736814162e-02 -8.2747688181574585e-03
      -2.4923128077765224e-02 2.7036261109575691e-02
      -4.6559228315044371e-01 -4.8520180532811968e-03
      -3.0305398183184333e-02 -2.8385043755125450e-03
      -2.5815347592471869e-02 1.1082675152323674e-03
      -9.9561194864815697e-03 1.6324713849075693e-02
      1.2750944024313303e-02 -1.1904646704759287e-02
      -5.2992980022186610e-03 -2.5203819965082847e-03
      -8.7247310456256013e-04 -2.3109735506028186e-03
      8.8611243412849237e-03 5.5518527616368399e-03
      8.1573553877205118e-03 -3.1754781771510768e-02
      -7.1390366653088441e-03 -1.2388039642138800e-02
      -1.2072047812992559e-02 -1.3379779234694885e-02
      2.3716381178139905e-03 -6.7362343615202025e-03
      -8.4649726819378719e-03 -2.1831166194395148e-02
      -6.1347517211122549e-03 9.9156300936415376e-04
      -1.6678720457967044e-02 1.3915828299261336e-02
      1.7930490073129308e-02 8.2472090627114508e-03
      -1.9843329560675456e-03 -8.1957269582579072e-04
      -9.2526400855493245e-04 -3.4967833176335495e-03
      7.1594434920094702e-03 1.1371320921756169e-02
      3.2107624446899912e-03 -1.4251400478838005e-02
      -2.4980928405125950e-02 8.2371383310270575e-04
      1.3879987985573451e-03 -1.6692584830673388e-02
      -1.9678421766510582e-02 -3.6757256435541079e-03
      6.0496367760787598e-04 -6.6396346852978108e-03
      2.5911037269757759e-02 -1.5478450619272074e-02
      1.0082939360070819e-03 -4.2006787058383377e-03
      -1.4344113948392368e-02 2.8402155230916690e-03
      9.7538502617489677e-03 -9.6490386865946513e-03
      1.4678134914425458e-02 1.2668693216366178e-02
      1.4040322820407203e-02 9.9950850261076411e-03
      4.1897304133456494e-03 1.2272285373051819e-02
      -5.6378402109703001e-03 -6.1134749910533564e-03
      -1.0105883032501586e-02 -1.3207317103237175e-02
      -9.5541605410933532e-03 2.8162475399402965e-02
      1.0061255251783347e-02 -3.3572229634314596e-03
      -9.2496179350271077e-03 9.0552679581151520e-03
      -4.6796351250914829e-03 5.4054175625538039e-03
      2.5921987865464018e-03 -5.9307024095973743e-02
      -5.5334205009545737e-03 -4.4562034524485410e-03
      7.7673279621003474e-03 4.0452967168119061e-03
      3.5923125146504843e-02 -8.1800078127491748e-03
      -2.4763072702084003e-02 4.8720698568980765e-03
      4.5160542820285917e-03 -3.5375887425627486e-03
      2.1611642731356605e-03 -1.7321137350967630e-02
      1.9327598528676607e-02 5.0312409761132642e-03
      4.4956363555819029e-02 -1.1453631634337449e-01
      -2.4229882711930686e-02 1.1609080209938607e-02
      -9.3759840251800997e-03 -4.2775663178537936e-03
      4.9226712329343073e-03 -5.3085624126610713e-03
      -8.6318594279786148e-03 2.3476860966614842e-03
      1.6903343838766580e-03 -1.0877413717285242e-02
      -3.9257092566314603e-03 -6.2353220024610840e-03
      -1.6341062956836513e-02 1.1569498705558224e-02
      1.1208039821441881e-03 -1.7543791809442671e-03
      6.3393099537027977e-03 -6.8946573978337566e-03
      5.3881234585588600e-03 1.3377049884152094e-02
      -2.4086703517708636e-03 -1.2769232980474806e-02
      9.4443011253140773e-03 -3.3557510896593729e-03
      3.0898152479424183e-02 1.7402975821563093e-03
      1.3241458603155037e-02 -2.5233995647336023e-03
      -4.3328462135225308e-03 -4.7974877848620806e-04
      1.5022826383949956e-04 4.4599424698993681e-02
      -1.5400322910744545e-03 -3.7345347803025522e-02
      -5.3654283040634076e-02 1.0674346050236832e-02
      -1.9892723997474882e-02 -3.8092090022195926e-03
      -7.8326285232460227e-02 1.8232051295505425e-02
      1.3777875252315899e-02 3.9511009797721304e-04
      -1.8314803225774917e-02 -1.2889242447496075e-02
      -3.8021392081239669e-02 7.7638108867023039e-03
      3.2978787066967170e-03 9.7612261465244293e-03
      -1.1539378224958877e-02 -5.7674473416336643e-03
      -1.0363570026341669e-02 -8.0416978118248456e-03
      -1.7962573547040839e-02 3.1596340091656510e-03
      8.1661232732345489e-04 3.4682903606274719e-02
      1.0246303642944737e-02 -9.2814482130659289e-03
      2.0438150132672086e-03 9.8718767917308752e-03
      2.1299826187727772e-02 -5.6825029200442178e-03
      8.3106469283575173e-04 -3.6740254975197650e-03
      -8.0849678969484914e-03 -1.0391375800373023e-02
      -2.5113346860078808e-03 -1.2346413559339518e-02
      -4.4516487424603991e-02 2.4005824503093562e-02
      6.1316607107166536e-03 -2.8671224374190233e-02
      1.4094949206023397e-02 2.4458482184868596e-02
      -2.3990871229092249e-02 2.0024059233547879e-02
      -1.7381921636445672e-02 -5.2892151831066573e-03
      6.4608054500432709e-03 -1.5798222027742029e-03
      -1.9472041772817198e-02 -7.9308246633388382e-03
      -3.7876901718107625e-03 1.0053660113419304e-02
      5.6445854364204122e-02 -4.3169227937670867e-03
      1.1581239549568320e-02 -1.7394344178168388e-03
      3.4008527846589996e-02 1.0915811650453713e-02
      2.0175940263538680e-03 2.0562428779931845e-02
      -4.3042358083980721e-02 1.0572470027642186e-02
      1.3572567840298855e-02 -1.1858982069873172e-02
      -5.5341828356025987e-03 1.8862803258806627e-03
      -8.8814453733132466e-03 1.6636957212669074e-02
      5.5361099340595927e-03 -4.8373122892521520e-02
      1.5211153559337274e-02 5.6093699716031169e-02
      -2.6286349846070593e-02 -7.5893356835153329e-03
      -5.0871953966821509e-02 -5.6616046174699092e-03
      1.0005600605401952e-02 -3.0653221257119796e-03
      -4.2762628360156221e-02 8.2602197648569756e-04
      -5.9844004968136189e-03 1.5217454723396199e-02
      -3.2820862743440690e-02 -1.8198345974181306e-03
      -2.8286173941259141e-02 -3.4237326986652759e-03
      1.6508270915923360e-02 2.9071519676505578e-02
      7.6999933508229172e-03 -8.8671378603591700e-03
      -5.6578880739414299e-02 1.3361625066249574e-03
      -1.4184284484554508e-02 4.0898802996521041e-03
      -3.7748919708302527e-02 1.7583242915693596e-02
      -1.5395730805270838e-02 -1.5110590175130986e-02
      -1.9583040534289626e-02 -4.3691949305029822e-02
      -1.8732583045479669e-02 -6.4046512383396301e-02
      2.5869942812276298e-02 4.3171093427384847e-03
      -1.2355626825808213e-02 1.7688386230016898e-04
      3.0601338650420955e-02 -2.2298103236059394e-02
      -2.3759239655400815e-02 2.2522057634264046e-02
      2.6556774872160790e-02 2.4645086121344870e-03
      -6.1702146715306612e-03 2.0088754406424091e-03
      1.8873947523665040e-02 4.6556683628124244e-04
      9.6258165166382970e-03 3.6842210646230479e-02
      -3.2437735758859693e-02 -1.3777824639892614e-02
      5.5775910713144264e-03 -1.9737867632353351e-03
      -2.0841277995687847e-03 -3.0378636816712620e-03
      -3.7973281802029866e-03 -1.1932696307837398e-02
      -5.9649325392069604e-03 -3.9603885389896627e-04
      -2.7155799415329151e-02 2.7254657734160751e-02
      -6.2828821085534276e-03 1.7838947485067730e-02
      5.5354566451116024e-03 -1.0422056905582466e-02
      7.9594336592342593e-03 -2.7285713209759394e-03
      7.5798950277503364e-03 9.5555999362118733e-03
      -5.2602962065461149e-04 -8.9159811812333824e-03
      2.2288582304815636e-02 -1.9832864931943420e-02
      4.1766980597659573e-03 -3.2415347555768312e-04
      2.5063261261192103e-04 -5.1807762990052401e-02
      2.4155695468000625e-03 6.0287317040835550e-02
      1.6665148565993847e-02 2.2113593178374493e-02
      4.2273350508352219e-03 -3.9792111992615065e-03
      -2.5324448220903066e-02 1.4668919365350597e-04
      5.0802275652201655e-02 -1.4051643116580324e-02
      -4.1697756617900580e-02 -5.2185192003490914e-02
      1.3133590945514065e-02 2.9464057475404037e-03
      1.1324628805912495e-03 1.0543145219319379e-02
      -6.9741717118183347e-03 -4.8666102497303661e-03
      1.5972122233021937e-02 -1.2193335004908537e-02
      5.0420182868828435e-03 -2.5791167838218700e-03
      -1.1792931013750280e-02 1.6904890252709623e-02
      3.8876050607518038e-02 -3.6883011190924041e-02
      -6.3417140846236536e-03 -8.9797580279185919e-03
      -4.2171329829181238e-03 -4.3701761479154541e-02
      -2.9183931942761667e-02 -1.9618142857825570e-03
      3.1464987735073370e-02 -6.7876590627481423e-03
      2.0401886404945842e-02 5.5793913782749749e-04
      4.9697939804316159e-02 -1.8673306403471392e-02
      -5.0829130551978262e-02 2.5284459060479953e-02
      -2.0499560401657360e-02 2.1087781370591054e-02
      1.9470259859570710e-02 3.5845526779274160e-03
      2.6229123105539591e-03 2.8827395018600571e-02
      -1.8614899017362092e-02 2.8595657302507054e-02
      -5.7615788171728639e-02 9.2895769671521126e-03
      1.1491235392194321e-01 -5.8663271549084430e-03
      -2.2975732921099862e-03 1.2705492609076068e-02
      -4.5486031424964943e-04 1.0464203866832529e-02
      -1.5114190778426203e-02 -2.0766282865195090e-02
      5.4122971183030296e-03 -8.6110985244867017e-03
      -4.9533654159403268e-03 -3.2131144344021673e-02
      -2.4747529504268583e-02 -7.9391989758725232e-03
      -1.1461423544455276e-02 -9.3241629029564687e-03
      -1.1188071870740493e-02 1.3887940795294345e-03
      -1.9721149801111746e-03 -5.7542140190117528e-03
      -2.5269960112930780e-02 -1.8381195605169844e-02
      -6.2097987539486317e-02 2.4218233721797662e-03
      4.4417769306617835e-03 -3.1130090313781385e-02
      -2.4744633385198972e-02 -1.4374883601428816e-02
      -1.6867671480294031e-02 -2.0430548232749802e-03
      9.7927040519256905e-03 -4.3325712656217610e-03
      -2.6475600653840674e-02 3.7945218615251541e-03
      -1.5633917275777481e-02 -2.2437555479094064e-02
      1.1984638398480857e-02 3.5000724947220623e-03
      1.0355045567585356e-02 -8.3637270139600480e-03
      -1.9191300933657372e-02 -2.9204214225551781e-02
      2.6183886021348756e-02 5.9524557557667146e-03
      5.5481053202815819e-03 2.9684733278061339e-02
      -3.4468849323013710e-03 1.1247426801670745e-03
      -2.8623573339436282e-03 -9.0488914159906012e-03
      1.3097973450672505e-02 -3.5782743565795055e-02
      -5.1611688335496918e-02 -2.2265090513237801e-03
      4.7511443798575670e-03 -1.6246671583630544e-02
      2.2871816578831222e-02 1.6694448495954039e-02
      -1.2952508654557843e-02 3.1594688638543700e-02
      -2.4513595378066813e-02 7.0199177099309132e-02
      -5.1783526065702712e-04 -6.8146132540883230e-03
      1.1186133061311719e-03 -7.9987413313348486e-03
      2.1194911246886139e-03 -1.0886692479210829e-02
      1.3954150188889274e-02 -3.7030555605242182e-02
      4.7992920717071889e-03 9.3686703095099515e-03
      -1.5113906107585309e-02 8.9248761104200325e-03
      2.4627100087296752e-02 1.7270685315740274e-03
      -1.1008957602801472e-02 -5.0652713383032948e-03
      3.6689531274140964e-02 8.4695096488592112e-03
      5.7725754702007304e-02 2.8989017694012614e-02
      1.0792865097812325e-02 -1.1838297164058719e-02
      -4.4129425708277221e-02 -2.0642040712765556e-04
      -8.8989732673922777e-03 -1.5983834661674974e-02
      -1.7815043001390602e-02 1.8344221363400803e-02
      -8.5817092770285313e-04 2.3378938847339929e-02
      -2.4719394621643177e-02 -2.0528564042767764e-02
      9.5521387535168565e-03 1.6437169591054856e-02
      -1.4142059580290149e-02 -3.6140070412282253e-02
      -5.5402437953119901e-03 1.3847647541218512e-02
      -2.3869382334055521e-02 2.1643352534305927e-02
      5.5306449970114045e-02 -4.8953509095575352e-02
      -7.3378471112883524e-03 -9.2008251193133259e-03
      -3.7217804640358509e-02 -1.2906758515132299e-02
      -6.5659257646170609e-03 9.4379644567441218e-03
      1.1035391944648656e-02 3.3405142855537126e-02
      2.5772564771754661e-02 -1.3488722850862890e-02
      2.1391040951033363e-02 -4.4947604900597276e-03
      -9.8067208125541452e-03 -1.8027759487419977e-02
      1.1178346259856583e-02 1.6740935484098663e-03
      -7.6617708129204072e-03 -2.6721026772980966e-02
      -1.7485314224302009e-02 5.4427663248840139e-04
      -8.3941207559210425e-03 -6.7004818629221183e-02
      3.6769071986968525e-03 -9.6825870762053089e-03
      -1.2880608896097192e-03 2.1291294992216284e-02
      1.8643352780898782e-02 2.5965607788589252e-03
      -1.7784862314416977e-02 -7.9278479809827482e-03
      -1.2025733146359656e-02 -1.1240406985046353e-02
      -1.7986221637850131e-02 -1.3770494811904741e-02
      -8.0287623823227620e-03 2.4766508284936543e-02
      -2.8678449134162183e-02 -2.8997484428946989e-02
      5.7986791365593213e-03 1.8198983572222310e-02
      -2.1441293683234766e-03 9.0512526630871799e-03
      9.3831414097195615e-03 1.0664540030640029e-02
      1.3355449077446985e-02 -1.0692910792092633e-02
      3.2347807842074118e-02 -2.2486101603957612e-03
      7.0741223842928401e-03 -1.5897318781002347e-02
      7.8506927321192518e-03 2.4251298593368383e-02
      -1.4442075529827994e-03 6.3701798392069610e-03
      4.9483425881617065e-03 -2.8113016603193659e-02
      -1.8256292203478637e-02 1.8720551404366292e-02
      2.2429724596852583e-02 -6.2486824960042422e-03
      2.4415384348980298e-02 6.1948464963999137e-03
      -3.8650571642398369e-03 -6.7878013623694057e-03
      -2.5245311841585450e-02 2.1682421539002589e-04
      -1.0668733772126883e-04 2.9696933086776189e-02
      -2.5668863762571738e-03 1.2179127736986789e-02
      -1.1086583645859521e-02 2.2142076069569815e-02
      1.2289234892124115e-02 1.1272936696574984e-02
      -8.5756810266095062e-03 3.1314422201551878e-03
      2.1325324388730034e-03 2.4287141802990402e-02
      -1.6558414891151577e-02 -3.4096621754544959e-03
      -1.8756860868940749e-02 -2.3532513322304320e-02
      3.8221648901458861e-03 -2.0830275640785066e-02
      2.8382056875418875e-03 4.8654457334170460e-02
      2.6924436544274242e-03 1.0557534400998620e-02
      1.2888598243635268e-02 -1.0902165067178879e-02
      -1.0346061816306517e-03 -4.4346683544066812e-03
      -5.8926904444687083e-03 -1.1396996821837002e-03
      -5.6169362372695826e-02 4.9774676460287978e-02
      4.1707309854953764e-03 3.4244733737294621e-02
      -2.0749451697584513e-02 -6.0738296658156242e-02
      1.1092761551059451e-02 -1.5533941281692911e-02
      6.8958732639230215e-04 3.1361783221574816e-03
      -2.8603795135212946e-03 -1.4742780721643632e-02
      9.6401278362786731e-03 2.3432509376328610e-03
      -2.6270322000945118e-02 2.1914685822285587e-02
      -9.9660303917495380e-03 6.1163803047464904e-03
      9.3981931778962767e-03 6.2685588772538360e-03
      -1.3821728976296853e-02 1.9941830615788091e-02
      -1.2785679018845114e-02 -1.4454336798594650e-02
      -1.7493164358278562e-02 -9.2353157378523513e-03
      -2.0389381837030419e-02 -6.4450154330797760e-02
      8.3268887078118863e-04 2.8338686746199062e-03
      3.6353808785312383e-03 -7.3760655368468569e-04
      9.2151994470723898e-03 -2.5239353279074044e-02
      -3.2150171648413967e-02 8.5590884801612175e-03
      8.1434600164272120e-03 9.2442551020240210e-03
      1.4480851608272307e-04 -7.5875393891074476e-03
      -4.0039795530195784e-03 2.6294829602400167e-02
      -4.2003995725301878e-03 6.0029367821001897e-03
      -4.3795383495758991e-03 -5.6057733427121587e-03
      -9.6230280094062471e-03 7.3936397024392956e-03
      -3.8127913894024472e-02 1.2757934572296726e-02
      1.2478493512674835e-03 4.1845629185184802e-03
      5.5837677789511916e-03 6.0475304876845069e-02
      -3.5811956944461903e-02 2.5971760382085575e-02
      2.0290041023600098e-03 2.0815378638243363e-02
      -2.2794747527384749e-03 -9.8043392623035613e-03
      -5.3795552328070170e-03 1.9997048825368857e-03
      -3.0654552349489222e-03 1.5122835128886656e-02
      -7.8698425773724677e-03 -1.6033658794745248e-02
      2.3115402529792287e-03 -8.2383720400496917e-03
      -7.6234797071466503e-04 -3.9664595402598084e-02
      1.6230429901392706e-03 -1.8252280507439867e-02
      1.9440037805061369e-02 2.6573271859485323e-03
      8.0129564897410341e-03 1.4696039285608026e-02
      2.6644379167084977e-03 -2.2194246500528231e-02
      1.7002477759548499e-02 1.4305117787294415e-02
      2.5465921150712584e-02 -4.3797754551804582e-03
      -3.5506047427721635e-02 -5.2751230540772728e-02
      1.0838907686599418e-02 -1.9642866085560581e-02
      7.7458117005349005e-04 3.1776279118845606e-03
      2.0433302761429434e-02 -1.3324611703577752e-02
      1.4666552607678015e-02 -2.9509649281040495e-02
      -6.6858599765516656e-03 4.6793084732100330e-02
      3.4710783531096141e-02 9.4388771538215024e-03
      2.0712503491151904e-02 -2.4134449203268946e-02
      1.6141877574211026e-03 -1.5845140421145699e-02
      -6.8359232586943175e-03 -9.3542726725648027e-03
      -1.4417359811048608e-02 -5.0306897057958971e-03
      2.5630385906543905e-02 2.8362863101970576e-03
      -6.6799710771973490e-03 1.0219418336445107e-02
      1.7491226669548429e-02 -1.4130054760172360e-02
      -3.5333820379213815e-02 1.5101601628781967e-02
      5.5330807719694043e-03 1.7961463035178985e-02
      1.7492688503829165e-02 2.0902287901491835e-02
      4.4243140441400972e-02 5.5244378764742657e-03
      -1.6348539780111155e-02 -1.7621039542167515e-03
      -3.7959848528145636e-02 3.9552927728114182e-02
      -2.7311784545717432e-01 -2.1212310348489725e-02
      -5.0257702758653419e-02 1.2163884660397034e-02
      -4.0152504120215100e-02 1.3574005850673924e-02
      6.0420207128585339e-03 -1.7881095969643887e-03
      1.9939987894264277e-02 -2.4255454839243514e-02
      3.3330200570214140e-03 1.2534789088385610e-04
      -1.0388269449016162e-03 4.6324368099436800e-03
      -1.6588951329415548e-03 -1.1241846460094844e-02
      7.1620313123865482e-03 -3.0651074846531425e-02
      -1.9707219887084818e-03 -1.8325021926101883e-02
      -5.7292675906513608e-03 -3.2504309414212784e-02
      -3.5499441696284093e-02 -4.1358992322546490e-04
      6.3008855505310938e-03 -3.0323760036812700e-02
      -2.2517044961622115e-02 -6.5904252863993682e-03
      -2.6649258070594390e-02 3.4174845395610262e-02
      1.0095792271974625e-03 9.4061587251949921e-03
      -8.3390555096684877e-03 2.1753430531020971e-02
      3.3793188470449421e-04 -9.8373734632734265e-03
      8.3863761847232411e-03 2.4186961302836391e-02
      8.1732492424258507e-03 -2.0272282890425358e-02
      -1.8209196075963782e-03 -1.2347322886138544e-02
      3.9843487887313393e-03 -1.9865943416915100e-02
      -2.3514353590768627e-02 4.5950793719167432e-03
      1.5485706823766381e-04 -7.6145644091355040e-03
      2.0706631729607208e-02 -1.6969784014184103e-02
      2.4348300191643336e-03 3.5316576173785004e-03
      -1.5754414262282548e-02 1.6487922166682220e-03
      -3.6130900565495885e-04 -1.0449493998919280e-02
      2.6805243509582723e-02 2.1557674758494624e-02
      -5.8223909577307040e-03 6.2770526974907093e-03
      4.4394379824499886e-03 4.7548189413729257e-02
      -4.1747468738256846e-03 7.2475979754975314e-03
      -7.2898347184017056e-03 -1.4786668311347095e-02
      -6.9816349015164010e-03 3.1593798479896698e-02
      1.8616758709176406e-02 -7.5619399773550313e-03
      -1.9849398684660354e-03 4.3355527763212923e-03
      -1.1479589412020107e-02 -2.4253155375883505e-03
      1.4107124873255321e-02 -5.6548176609571718e-02
      1.0760913540377219e-02 -1.0220327221438927e-02
      9.4288571788812975e-03 -8.0889525216530939e-03
      5.6441238971284564e-02 -1.1527113068436517e-03
      -2.2398965328308568e-02 1.1838661377937792e-02
      -1.8691399346531273e-02 1.3586706737551340e-02
      4.3992361846492429e-03 -1.3339530584839440e-02
      1.6631366104069463e-02 2.3406643806722412e-03
      5.7804639365701654e-02 -8.2461356849590828e-02
      -3.1546592800326331e-02 -2.3791516425929055e-03
      -1.6731607977088669e-02 1.5914569788181922e-02
      6.3738086847798386e-03 -1.3160947911660930e-03
      -1.5077814998617342e-02 -2.6132815640211291e-03
      -1.6005849837354758e-02 -1.9912743156456601e-03
      1.7595700508758181e-03 -2.6202870964677948e-02
      -3.0079000973934854e-02 -3.2394481317775314e-03
      4.7538274644096526e-03 -9.8006989876558183e-03
      1.3330086008230943e-03 -6.5675586355438739e-03
      4.3321301646921627e-03 5.1066523148916697e-03
      8.3597909865577528e-03 -8.8168659530490669e-03
      1.1954756699716070e-02 -4.5210159762399376e-03
      2.9236333541188635e-02 -1.2508126486695781e-03
      2.5764355949080969e-02 8.2070981132808547e-03
      1.5551957179728041e-03 -9.5943926488219599e-03
      7.9319336340564189e-03 5.6186524479191688e-02
      9.6194192252446707e-03 -5.3980796257553670e-02
      -4.8288389075734274e-02 1.0844010543240516e-02
      -2.2295880050278761e-02 2.2425703413046444e-03
      -5.1588801095386071e-02 2.2260409247851384e-02
      1.2775929362598670e-02 -3.3981392974492533e-03
      -2.0397742876892173e-02 5.9890709682729271e-03
      -4.1577180144990525e-02 3.2198519986778211e-03
      2.0407851090222789e-02 1.6136940534161145e-02
      -1.7298246070409924e-02 -2.0402512738539332e-04
      3.1723061698205528e-03 -2.1543844068858372e-03
      -5.3748230710403593e-03 1.3151627705458024e-02
      -3.1767976543817245e-03 8.3432006212904777e-03
      -3.4631109325612697e-03 -5.1884034056336997e-03
      2.0284653344916484e-02 4.4304508442625295e-03
      1.8271010529023135e-02 -1.6941230680273523e-02
      7.5597352327319000e-05 1.2525079926413919e-02
      -3.7205147248659171e-03 2.6557669530651385e-03
      5.5985600342727147e-03 -1.1290888877197074e-02
      -3.4504584294868024e-02 7.2655021023245291e-03
      7.9084966886177385e-03 -1.0283011317393264e-02
      1.7599568439324399e-02 -2.9562866625500793e-03
      -2.1874681541389066e-03 5.8241695156019306e-03
      -2.1039134211658910e-02 4.4929684107321019e-03
      4.0756336126633618e-04 3.7826553250823922e-03
      3.4527369846301462e-03 -1.1193321631705229e-03
      1.0294485603652105e-03 1.9822079031203324e-02
      1.1251840181163627e-02 5.1949624409649295e-03
      6.2771108703794541e-03 -9.2644844848621449e-04
      1.4580397006076977e-03 9.0508799401387580e-03
      -1.5807155867741010e-03 6.2439556444078984e-03
      -1.9315497076407572e-02 -1.1126539625110352e-02
      1.9317847764563169e-02 -1.4634516063966293e-02
      3.0586299557940409e-03 2.4632652721749242e-02
      1.1911679241095778e-03 1.6478740006868445e-02
      5.4835517137884343e-03 -1.4785376757017873e-02
      -3.5582190213734864e-03 1.2140984503899634e-02
      -2.1395225393594144e-03 1.6132770541041890e-03
      -6.6338471528063908e-02 1.4083065887375198e-02
      -2.4442390700098295e-03 1.8787347452806465e-02
      -1.4484207446642436e-02 -3.5172944905647339e-02
      6.0067043560207830e-03 6.1232463069031719e-03
      -1.4626591666802824e-02 1.1254029962595079e-02
      -1.8307572616490196e-03 -6.1934028561067686e-03
      4.6789851701666404e-03 6.3568405467323841e-03
      8.4596127771563827e-03 -1.4347343437311120e-05
      -1.9211304404976762e-02 5.6600955542274092e-03
      3.3356306165831270e-03 1.1686620431781557e-02
      -1.6426547821012449e-02 -2.6800810369851727e-03
      -1.9048928417928223e-02 -8.5926510722659291e-03
      -5.5753483338735641e-03 -2.5187898828660217e-02
      -1.3763746846867391e-02 -5.5195813398911497e-02
      2.8852006144453476e-03 1.0208723474242344e-02
      2.2700451151155625e-03 -1.5711364459116714e-03
      1.7844239780383461e-02 -3.2893840457596468e-02
      -2.9213800426083153e-02 9.0258632993487362e-04
      2.2653542655601870e-02 9.4547365611179802e-03
      -4.2008279596827914e-03 -7.4997757362427744e-03
      1.0686939251344441e-02 7.2928646229761243e-03
      1.1318505597481744e-02 2.1645102080689222e-02
      -1.3938129078820955e-02 -1.2427184363437496e-02
      -2.5760956299616901e-03 8.0524859987661061e-03
      -1.3693785947250191e-02 8.1311258678131073e-03
      8.3348840232209140e-04 -6.6862965959497960e-03
      5.6693070681947816e-03 2.6942201681413730e-02
      -2.4068225853152086e-02 2.9999435205255585e-02
      -4.8092035572870747e-04 1.7259499983339997e-02
      -5.8553972935077451e-03 -1.2703355098247760e-02
      -8.2706287000120816e-03 -9.1145935928186577e-03
      5.3392775902000467e-03 1.6543441828201336e-02
      -7.7324258718800285e-03 -3.7513266786317664e-03
      1.2915469899646361e-03 -2.5193103886644662e-02
      2.5282304548509501e-03 -1.5883298714776454e-02
      7.7396644575240413e-04 -1.3081355421142301e-02
      1.3057264841789731e-02 1.5474911908673054e-02
      6.5759868312316476e-03 1.0795109305337695e-02
      4.5181812111045672e-04 -1.3601836273507167e-02
      -4.5197173138376324e-03 9.4669924147953964e-03
      2.1728561562642464e-02 -6.0335774951403593e-03
      -3.3308916331241660e-02 -5.6751817237014272e-02
      2.2079473633428632e-03 -4.8716795210665088e-03
      -2.3728380097232838e-03 -1.8388661259432881e-03
      -2.5704631879841684e-03 -6.3779931404260009e-03
      1.9157499340914402e-02 -2.1707244095961337e-02
      -3.8430580640026269e-04 1.3049742435781624e-02
      5.9155615203780191e-03 1.0459330575011328e-02
      1.2245592766350958e-02 -2.1889872563795702e-02
      7.8249814729894600e-04 1.0869651126196411e-03
      4.6989829789391563e-03 -1.7606575282293913e-02
      -1.0102791985366984e-02 1.0913775013752028e-02
      2.3193987071299476e-02 3.0918193340490185e-03
      4.7369559248637144e-03 6.8865268971311086e-03
      1.0979099667509660e-02 6.0467111863500231e-04
      -3.5713259519157700e-02 2.1384263022975601e-02
      6.0838184905637055e-03 6.3295469210923362e-03
      5.1073055292011685e-03 1.9666861046441202e-02
      2.2029440050568925e-02 1.7825172201048779e-02
      -1.7019923698037689e-02 7.5797206277334866e-03
      -3.5013129629561920e-02 1.8651064935584605e-02
      1.2049187856894855e-01 -1.2582188261381071e-04
      -2.1498832839166069e-02 5.7881476819463895e-03
      -2.0135999129518172e-02 4.4894100656555115e-03
      -9.5486727406704896e-03 -8.6103406179597747e-03
      1.3782558845817021e-02 -1.8231836773848153e-02
      -5.8017606976762861e-03 5.3168761720843473e-04
      -8.5299796878264174e-03 -1.1544385573474714e-03
      -6.3283671502076854e-03 -4.1885267988088885e-03
      8.4715593683766365e-03 -2.4089963717114477e-03
      -1.0169030099567400e-02 -2.1854198229140507e-02
      -1.7149438137150835e-02 -1.5479539887135931e-02
      -3.2587111154606205e-02 1.3674874313069343e-03
      6.2658790681988149e-03 -1.5395557122312747e-02
      -1.6756849767950655e-02 -1.4463786835139653e-02
      -2.1050915921997194e-02 2.2573285138285968e-02
      1.1228078272125229e-02 -3.4394974278377996e-03
      -9.0216850441762371e-03 -3.5447109185198825e-03
      -1.3044638561497707e-03 -7.3335007906118119e-03
      1.5854239214258332e-02 8.5639353951888226e-03
      1.1473292007462711e-02 -6.6634251647240579e-03
      -7.3970168844229509e-04 -9.5489569403468515e-03
      1.4256084690982397e-02 -3.8513117662119464e-03
      -1.7004859573889086e-02 9.3153012756644858e-03
      -2.5925284392473132e-03 -3.3422775530949594e-03
      1.7900430912800198e-02 -8.4056414573857770e-03
      1.1162086964824640e-02 -7.8361396230415582e-03
      -2.8688082292612434e-02 1.5276590666528127e-02
      -5.8521566553154250e-03 -2.0866413544813629e-02
      1.0252269806116232e-02 1.4113131619400556e-02
      1.8704885873052108e-03 1.5392476508367212e-02
      -1.1487614753389736e-02 5.6583949814735190e-02
      7.4607173136477661e-03 8.8675662964180163e-05
      -2.4249716373160174e-03 3.5321500641990263e-05
      2.9148157212923148e-03 1.3851284973223463e-03
      1.5673686011255614e-02 -1.1974318590847960e-02
      -1.1698237781882193e-02 -4.5903352451439235e-03
      -9.3427385121452686e-03 -5.5858011989467771e-03
      2.6341629312322226e-03 -2.5959089777868847e-02
      5.4487114809620906e-03 -2.1737110243631778e-03
      2.3024319885009234e-02 9.1935020045459739e-03
      5.0986385953817444e-02 1.2824495136438418e-02
      -9.0186069454140511e-03 5.0016319992385351e-03
      -2.1537917334640583e-02 3.1970349128452261e-03
      7.5009872428691213e-03 -8.6747269067745120e-03
      -9.9804492930941828e-04 1.1769546077072462e-02
      2.8925459851416428e-02 -5.2826454706326180e-02
      -1.9740645732176956e-02 -4.6553103515234529e-03
      1.4372972148450458e-03 1.3025672171553850e-02
      1.9848341292002911e-03 -2.0062282889301297e-02
      -9.1258122340222614e-05 9.4043329873198730e-03
      -9.9104929121512676e-03 1.4671392906568159e-02
      2.6937258779634814e-02 -1.1152922069500396e-02
      -1.6988642973953194e-02 2.5637902087411873e-03
      -6.5256497481140877e-03 -2.0802158573521015e-03
      -2.9236281682359926e-03 3.1411120541110600e-03
      1.2267427183065361e-02 -4.5607667597923522e-03
      1.2586996455527182e-02 -2.3334197951601566e-02
      2.0441759394609873e-02 2.2060435906532594e-03
      1.0272337814725280e-02 -3.1719839332898605e-03
      1.5640358633823362e-02 6.4630222222529675e-03
      -2.2367727681228623e-03 -1.0729024809271358e-02
      -3.2191704986163873e-03 2.2108357522216088e-02
      -7.9381304522832324e-04 -6.0733775484802681e-02
      -2.5285395411042463e-02 9.2753917395660586e-03
      -1.5766689546557557e-02 1.4188242123416335e-02
      -1.1014560181559314e-01 1.2592277787979800e-02
      8.4321674467758637e-03 -7.3777105569958383e-03
      -1.9074971797065826e-02 -1.5735414768931883e-03
      -2.5257186982838180e-02 -5.9659327516889266e-03
      9.0709662859053495e-03 1.4853073318196226e-02
      -1.6517592355333770e-02 8.7780482221438733e-04
      8.0341039059457619e-03 4.4760724839205028e-03
      -4.0059614108972554e-04 8.1122250013466301e-03
      5.6204677808387656e-05 3.6438085750557176e-03
      6.3020737509629369e-03 -2.8497004562641009e-03
      1.0165019525494751e-02 -2.8154033756094140e-03
      -6.8365695797254150e-03 -7.4226258599583194e-03
      -1.5388159416745008e-03 -4.0993396689648239e-04
      -5.5299539548830916e-03 6.9506113892465098e-03
      1.4384205867747987e-02 -7.9702352529287680e-04
      -8.6251957644804412e-03 5.5524823601379230e-03
      1.3361551324929477e-02 -8.9545350562356373e-03
      8.3124955225946911e-03 -2.4577080829331809e-02
      1.2487871898260299e-02 -1.5280441369347418e-02
      -6.5151109049068779e-03 -2.4317744790552931e-03
      4.2015096566050333e-03 -1.2726192981429418e-03
      2.5241865172592384e-03 5.4995223762548751e-03
      5.4313865665322749e-03 3.2315215834824045e-03
      -1.6941632411572521e-02 1.5023577698692701e-02
      1.8007284168475550e-05 -1.8221729620059707e-03
      -6.3493370673192188e-03 -1.3907774736000883e-03
      -2.4831894758505766e-03 -2.6228932185495268e-03
      3.0395898064051901e-03 -8.3021670056516734e-04
      7.7676402321812284e-03 -6.1447914956902182e-03
      -3.9029655494360210e-03 -7.5862621869687268e-03
      3.1543810499534012e-03 -1.5238320912600713e-03
      -1.4115372797820205e-02 8.7349483521777429e-03
      -7.7573961002120493e-03 -3.4367735172023788e-02
      -4.1603054571988686e-03 1.0150097891006200e-02
      -1.6470443156433274e-02 -5.1106206489334189e-03
      -1.9432447267823559e-03 -2.8818067392934058e-03
      3.9474820301697595e-03 1.3241218297544179e-02
      -4.3265766179511028e-04 -5.6690657915743200e-03
      -1.0012477143374937e-02 -5.8522647797071541e-03
      5.0785190660051277e-03 -4.6807623745568467e-04
      1.5548637478421928e-03 -4.1751538236473838e-03
      -2.1061316602137381e-03 1.7054425255560140e-03
      6.6339182550245032e-03 1.0361729368098809e-03
      4.6628161569488838e-03 4.3856767836011864e-03
      -1.0185780002421641e-02 -8.8071339468488094e-03
      -1.4802036944070718e-02 8.7329501349114637e-03
      -3.3469173182456243e-03 5.8128570140473304e-03
      -1.1563949718887965e-02 -3.3520535173151539e-02
      -5.2814513187788709e-03 -1.4701845217746335e-03
      1.6247281547176699e-03 6.1232880589898800e-03
      -5.2173502220252662e-03 -2.0811072933024288e-03
      -2.5675684119340000e-03 7.3379951531760490e-03
      -4.7675820163882660e-03 5.4409097438431276e-03
      -2.1362044029150304e-03 2.1522006491314846e-03
      5.7429682735095841e-03 7.3518541727232850e-03
      -1.0707031882632946e-02 -9.5130112318068429e-03
      1.1835362925029817e-02 2.9225972116701899e-03
      4.3270789820991368e-04 3.3958678619653141e-03
      7.3680830102937052e-03 4.4565567213513636e-03
      -3.1155280919481112e-03 2.9219245767110147e-03
      3.8196295632655852e-05 -1.5285150557172120e-02
      -5.7015565985300458e-03 -7.9716617268069286e-04
      -1.7440142737078654e-02 7.5628704197489658e-03
      -3.3959269688306096e-03 -9.9877446159141268e-03
      -1.7676197182458237e-02 8.1400513774309343e-04
      -5.5092674146735689e-03 -4.1814972012521566e-03
      -1.4968502767350809e-02 -9.1946319171456892e-03
      -1.8556231803015110e-03 -1.8509374478654123e-03
      3.3871744527576679e-03 9.4457776555187528e-03
      -7.3916038172731988e-04 2.9855046731871878e-03
      1.3007662964959822e-02 -2.0258085013935858e-02
      -7.2367202667687237e-03 -6.0039525580602073e-03
      -5.8791988175771774e-03 4.8168931873643101e-04
      -3.7179576276933095e-04 1.1104091178914574e-02
      8.8917573149414758e-03 -3.2063338818168487e-03
      -6.2697271370924686e-03 -1.4483141365847860e-02
      3.7299205770471777e-03 -1.5916651950071567e-02
      -1.7461326506031726e-02 4.2340269081228054e-03
      6.5710281817828566e-03 -4.3667133740883778e-03
      5.6159810794298628e-03 1.8105919105192831e-03
      2.3827832406738887e-03 -6.1052959911395413e-03
      -1.4534765660619883e-02 -2.9008816941867877e-04
      -6.6917252302543763e-03 1.8405196630022940e-03
      1.0815411772843314e-02 7.9119191022968011e-03
      7.8739083877008616e-03 -4.2385321269295421e-03
      2.0353800436615558e-02 2.4342618028346977e-03
      -1.4231008949556316e-03 -4.1096196925216920e-03
      2.0317624884646887e-03 5.2677074362378765e-03
      -1.0022182676418150e-02 1.5989279528857614e-03
      -1.2254691451500311e-02 1.0989326153102748e-02
      9.3353003971121239e-03 -9.8752260001463248e-03
      1.4646405993074268e-02 -2.7469732220481175e-03
      -3.2652914532817619e-04 3.9778594509813072e-03
      -9.3237331626417198e-04 -1.0324794619378569e-02
      -5.7452349722390429e-03 1.0420546603049904e-02
      7.7159957546929531e-02 3.2198958011842292e-03
      -7.1784531040075261e-03 -9.8842955169956286e-04
      3.3803971757801056e-03 5.5308513663503466e-03
      7.0871734376575157e-03 -8.7027354785646632e-03
      9.0016124840455371e-03 -3.4440908055669885e-03
      1.1064105542904771e-02 -4.9731738373581845e-04
      6.1237735447568775e-03 -1.8870296361566193e-03
      6.7758807734309865e-03 8.4526064807191245e-04
      5.6795124588951314e-03 9.3168940189995598e-03
      2.7998917807839064e-03 -6.4221337690998368e-03
      -9.5570032257194393e-03 -1.1627437407732720e-02
      2.4050663820558947e-03 9.2677340454094363e-03
      -5.2355615690316238e-05 -5.1538436648811822e-03
      4.8669373718614764e-04 -5.8951619579206528e-03
      -1.7836095665537662e-03 6.9666880643280710e-03
      -2.9583782457089061e-03 9.4296018917051118e-03
      -3.4053601511692534e-03 -2.6777535757086710e-03
      6.4916950788906974e-03 1.3335242656983175e-03
      1.4116786813393976e-03 9.9115541685050775e-03
      8.6840322507848854e-03 -5.2310638101678159e-03
      3.4781558198505202e-02 8.4825485870559947e-04
      5.6854346572491419e-03 3.0430689098472031e-03
      -1.5702105192662272e-02 -9.7723593245586070e-03
      1.0343134460930971e-02 -1.0595508123293818e-02
      2.4408881110981091e-04 -9.9850980007839558e-03
      3.9070059633343548e-03 1.2900677163838905e-02
      6.5844235386749769e-03 1.7966503418972490e-02
      -1.6719830543288877e-02 9.9134288342265261e-04
      2.1653926340012994e-04 8.8796423150735190e-04
      -8.7145934734111606e-03 -1.4915489095252407e-02
      -4.3953339114984587e-03 -3.9374176002313389e-03
      1.0778144023333158e-02 1.0808497995537236e-02
      7.5864486788227944e-04 -3.2039653661520813e-03
      -5.5238026192881012e-03 6.8572679523677925e-03
      7.5337760018983129e-03 4.9497189028901286e-03
      -9.4296887926180722e-03 3.0756481890019637e-03
      -1.7261894388266710e-02 -4.8648960375027072e-03
      -1.0546526073928324e-02 5.5387212589388200e-03
      -2.0046257344238311e-03 2.8398084474817655e-04
      9.7276843048671013e-04 -6.9734491236317911e-03
      2.9215826124472863e-03 -4.7192191411436681e-03
      8.0727812976795835e-03 1.5407599458520377e-02
      -7.9016210071288159e-03 5.0677429670019994e-03
      8.5843121051050377e-04 3.8177777508360262e-03
      -9.1966259951603343e-03 -9.2927427861822891e-03
      -4.1856575232771540e-03 -9.1833705937379795e-04
      -1.1563449335659193e-02 1.2393022103307434e-02
      -1.3013624378296200e-02 3.5958326490433960e-03
      8.2492921779342602e-05 1.4291826415989537e-02
      -8.2114539738316530e-03 -1.3580806481800744e-02
      1.6885803194929567e-03 -3.4390921489318204e-03
      -1.7603648233341491e-03 3.1980342028300795e-04
      5.6643671647882421e-03 -7.5576730703178522e-03
      1.9391302971405650e-02 1.7924966799295460e-03
      1.2878745569312983e-02 1.5611021768909261e-03
      9.6607895689099655e-03 -8.4865883007676137e-03
      7.1159471427313130e-03 -2.7171665857301029e-03
      5.3069786171690697e-03 -5.2283116439293120e-03
      -3.5248699561855187e-03 -1.6109620237135900e-03
      7.8784458991465484e-03 8.0207975604334742e-04
      1.7024372018574287e-02 -6.0954569989710066e-03
      9.8540100740152452e-03 -1.1353464036193630e-02
      6.6702986512121162e-03 -1.6979452586261969e-02
      -1.0493587204732236e-03 5.3867532191365555e-03
      -6.2315223589328034e-03 -1.1757619470522732e-04
      -3.6031349767397303e-02 1.3546577511406746e-03
      1.6052303410666709e-02 2.6036293967958432e-03
      7.4430226710965489e-04 1.3637855597185772e-02
      4.8012051144422248e-04 -2.2497907884230549e-03
      -3.9041429463658461e-03 1.2601443294161531e-02
      7.4225787550329259e-03 2.0642697382631053e-02
      -7.4901781889636851e-03 -2.0604462901642820e-02
      -1.7006632241443970e-02 8.6787992030204573e-03
      9.2371661530650621e-03 2.4903633546320973e-02
      -2.1980880117136838e-03 -8.0238391500456405e-03
      -2.4531601500112758e-03 1.5758510806539269e-02
      8.2983922970139585e-03 -4.9276652882319534e-03
      -2.6642069435593100e-04 -4.9628211145458685e-03
      9.9693463258045123e-04 8.1201125075600847e-04
      -1.4920921047528827e-02 -3.4035661866505459e-03
      -1.2653964802022955e-02 1.5377844074724355e-02
      -7.2702687921528536e-03 -2.0931646826282319e-02
      5.6957615433793629e-03 2.1241945572477879e-02
      -1.8371898500861569e-02 6.4846017361261795e-03
      -3.5713323283453386e-04 -8.3096615391406430e-03
      1.2390322576414545e-02 -6.2347855513289830e-03
      -1.8282038970338477e-02 9.7650035085348065e-04
      4.6448235325102115e-03 2.3436412792709974e-03
      3.6702026411992009e-02 -1.3193326594649403e-02
      1.9182020965002478e-02 -9.6332902111029104e-03
      1.2428625625156219e-02 1.9474197857677233e-02
      1.0489688111083166e-02 2.8309092741829276e-02
      -2.4528143162135144e-02 1.0944487527240125e-03
      5.5473518991922223e-03 -7.8387479829526395e-03
      -1.0439436613369438e-02 6.2678816403127779e-03
      -1.1898951466993884e-02 3.6227854647616704e-03
      6.5700489744969651e-03 -3.6363551126903725e-02
      -4.5858881353080973e-04 3.7537597169898261e-02
      -1.2192715855565823e-02 -2.4042624987290627e-03
      -3.3684913269382465e-02 6.8963942763344424e-03
      1.2945951445281649e-02 4.0071250670200582e-03
      -3.3851993878853716e-02 -1.1140974180668818e-02
      -9.8005085992593308e-03 1.1439518259447126e-02
      -2.2232708891943009e-02 -9.2856942204471264e-03
      -2.8985520531686692e-02 -1.4039387392075079e-03
      7.7385657777500269e-03 1.2728607663014759e-02
      1.3741462887148325e-02 -4.7510431138679454e-03
      -2.3378698040671064e-02 1.1410132982927236e-02
      -1.2038689105364772e-02 -7.7550238922238161e-04
      -9.4034756857546437e-03 4.7456235702793463e-03
      -1.1293437452907184e-02 -1.0391426481510108e-03
      7.6198568396036552e-04 -2.3102149139461355e-02
      -2.5185007431666800e-03 -2.3012046971462551e-02
      2.6404789458427801e-02 -7.4135299125245851e-04
      -6.8753557185378773e-03 2.6251875391946006e-03
      2.5067930232802026e-02 -1.4353066050770238e-02
      -1.2388258462380591e-02 1.0552245986815660e-02
      6.7716789138047070e-03 1.1454680928053669e-02
      -1.8243739063690503e-02 -5.0132324567475723e-03
      1.2568930055568252e-02 6.4657797075401337e-03
      -1.4338768863814947e-05 2.3274472813267551e-02
      -1.4154414974506990e-02 -1.1711802754742302e-02
      4.2348724010099681e-03 2.0733041953369547e-03
      -3.8927207620976351e-03 -1.0862337473671076e-02
      -4.4129089096156147e-03 1.0501332561184675e-03
      -1.9285538562030444e-02 7.0507728037939041e-03
      -7.8701112254966725e-03 2.4082880886652794e-02
      1.7652178780772527e-02 5.3341271702244276e-03
      1.4377121791571053e-02 3.8488548261338541e-03
      1.8086787043373694e-02 -5.6988002261290681e-03
      -1.1468330150431456e-02 1.5904397344952866e-02
      4.8060894057907972e-03 -4.7477631616120921e-03
      1.7062823382171546e-02 -1.9164722083041867e-02
      -1.7494318017096341e-03 4.3675509601625350e-03
      1.3731431905105311e-02 -2.5630777347379712e-02
      -7.5956374960528626e-03 4.0449428617517658e-02
      1.3247790723011996e-02 1.3636534986158418e-02
      -2.3849547365617668e-03 -1.2495176128334998e-03
      -2.2357507499959368e-02 -2.5649527041706551e-03
      2.5099151831607418e-02 -1.4548385921423557e-03
      -3.1112109371252434e-02 -1.7880393876156329e-02
      9.2134623645507962e-03 2.2872824730913274e-02
      6.0664809539035371e-04 7.4147482291962987e-03
      -1.7638022338474436e-02 -1.4190949960424498e-03
      8.7080773939561904e-03 -4.8133876553756484e-03
      1.0765615084136053e-02 -8.5443788955525731e-03
      -2.4446868278967387e-03 7.7632894882857829e-03
      2.0400019299401224e-02 -2.4128548196654016e-02
      -1.3008115134494127e-02 -3.9853469447479568e-03
      3.3347123253251085e-03 -1.7417921177118833e-02
      -1.7407287267097171e-02 -6.6914135738873527e-05
      1.5119212434576704e-02 -5.3876394418056594e-03
      8.4561404319539873e-03 -8.3174122223615282e-03
      2.3109644554983353e-02 -1.6232438558551679e-02
      -1.9114222988677196e-02 7.7501662653801807e-03
      -1.5895863640342844e-02 1.4202829658039498e-02
      1.8355250658578666e-03 1.6952235898958269e-03
      -8.7817929275168828e-03 1.5115396416834889e-02
      -1.2864394455266773e-02 2.9604950218371756e-02
      -3.6656690924287062e-02 2.6201091724685072e-03
      5.9658552671168964e-02 -8.6587644985310439e-03
      4.3377065520626232e-03 -1.0794794781002056e-03
      -2.6730642148218155e-03 1.0223502773992289e-02
      -1.8454492513075019e-02 -3.1973239155816927e-03
      -6.9578997386828666e-03 -5.9842084396155614e-03
      -1.4377115031873370e-02 -2.1511847949067079e-02
      -2.8970295321681779e-02 -6.5360451750180112e-03
      -7.4154331957074979e-03 -1.5558175222823132e-03
      -1.1453370739586341e-02 1.1681209599668046e-02
      6.1424078255071539e-03 -5.0472908811605276e-03
      -5.3799258525945312e-03 -3.4182064131597434e-04
      -4.0881769144573699e-02 -5.8904984680524537e-03
      1.5227565278940320e-03 -5.8587293628559901e-03
      -1.9310205369122587e-02 7.6286574632598043e-03
      -1.8593848209716213e-02 4.1167140307638269e-03
      -8.3573395889028929e-04 -1.1469069571686426e-02
      -1.5004545257975972e-02 -4.6198989619948179e-03
      -1.9715721372633919e-02 -1.1843133819730645e-02
      5.5336899247332158e-03 5.1438883551327792e-03
      6.3132379043657778e-03 4.0547579980098414e-03
      -2.6612075822373456e-02 -1.4713538578433693e-02
      2.2296844146195354e-02 9.1516838234682839e-03
      8.3354210360499503e-03 1.5224482026349696e-02
      -6.7249790896661606e-03 1.3857309822169008e-02
      -8.7457527705264715e-03 -1.0301298722320270e-02
      7.2794381561727822e-03 -2.5665753194389976e-02
      -4.2398103188025907e-02 5.6121613366248604e-04
      -1.5216461451914942e-04 -1.5681891672312299e-02
      1.7358220532175464e-02 1.1857458122866770e-02
      -5.5383890022610432e-03 2.3269012155003602e-02
      -1.4002851393988481e-02 4.4013400964341448e-02
      2.2309860182151506e-03 -2.2422817437651884e-03
      8.6059029736269468e-03 -7.9467618542429595e-03
      1.2889960979649386e-03 -7.7402511479637377e-03
      1.0077060954746546e-02 -3.1930680441593806e-02
      -1.3381994377225351e-03 1.1089959809958057e-02
      -1.3563292802943116e-02 7.9231749131288213e-05
      1.9946376603385642e-02 -5.7436625009957241e-03
      -4.2243771563944005e-03 -5.8754794830128982e-03
      2.1962185010005977e-02 8.2819634509329904e-03
      3.8374620835697412e-02 2.8782700574367333e-02
      1.7340608535433226e-02 -2.3289143198191212e-02
      -2.2996762185297576e-02 -9.4121123644035458e-03
      -5.2747676297394686e-03 -1.7120664716503631e-02
      -1.1573263422028622e-02 1.0795338488240195e-02
      -7.9674404516944762e-03 -1.5175954527160652e-02
      -1.1411414899387313e-02 -1.8831286834836158e-02
      1.0908194930668014e-02 3.1331833076622363e-03
      -7.2018245711819931e-03 -2.5583326185487660e-02
      3.9012308960017241e-03 1.3928504322692848e-02
      -1.0897672124221403e-02 1.2028900073763452e-02
      3.8763131108785910e-02 -2.0743967252219241e-02
      2.4421902308065153e-03 -9.2271925818361838e-03
      -4.2039070901756334e-02 -8.7920995597084856e-03
      -1.4383010552122833e-02 -7.7391307669180077e-03
      5.6045632403018773e-03 2.5480502441543002e-02
      1.8155018006085155e-02 -1.1487415646917834e-02
      8.2972489528996738e-04 -6.2780743001677390e-04
      -7.1128972521655592e-03 -9.9148225551655977e-03
      7.7442992350949527e-03 9.9537344202435818e-03
      -3.9276639879306848e-03 -1.3528697815579874e-02
      -1.1032063444606480e-02 5.8648590392018831e-03
      -2.0645523989515056e-02 -3.5935918559812631e-02
      6.5980367363891101e-03 3.7364727387102655e-05
      1.1158558619247519e-04 8.3649078032233936e-03
      -2.7994967980887075e-02 -1.4917935472479842e-02
      -7.2756822042289336e-03 1.1945132449982392e-04
      -1.2330019735783966e-02 -1.1698683782642412e-02
      -1.3396218181994756e-02 -1.2615961581513643e-02
      -9.3503399869967110e-03 1.3772274465161560e-02
      -2.1979734609362891e-02 -3.3580947545766474e-02
      2.3877049105456041e-02 3.0072679078499413e-02
      -1.5800068952553325e-02 1.3858551752771455e-02
      -1.6283612502612334e-03 7.3484123411062642e-03
      1.5757253030537082e-02 -1.4688730751818414e-02
      1.8134687404880626e-02 -1.3144926377915181e-02
      1.7325208957051225e-02 -6.4433001603695934e-03
      1.6880888536386161e-02 1.9791989429154652e-02
      3.3588377522862263e-03 1.4065059016949356e-02
      1.2603654628156522e-02 -2.6886452854414912e-02
      -2.2034534206034344e-02 1.5991469332959224e-02
      5.4409157727214668e-03 -2.1183583392111884e-02
      1.2711755125266996e-02 -4.5725509852160553e-03
      2.0019954071242006e-03 -4.2223014673003845e-03
      -3.3651867585639066e-03 4.6751755821001217e-03
      4.8138792486935728e-03 1.9519315642643264e-02
      -1.5037437517726449e-02 6.5983980889964709e-03
      1.0026278690429101e-02 5.0698930113253580e-03
      1.0791506928581912e-02 8.6832469184799296e-03
      3.1891671389539960e-03 2.3490168541488818e-02
      1.8062721542080136e-03 2.2978604406838359e-03
      -8.7001398317680754e-03 -3.7282954622406533e-03
      -1.6616991847950159e-02 -4.7393769296515962e-03
      7.3987744088651330e-03 -1.3285666934170512e-02
      -3.4945577611582507e-03 1.6486592961812402e-02
      1.5459164542837845e-02 2.5427644700220839e-02
      -4.9409795041110574e-03 -7.5585795161814025e-03
      1.3215651302743931e-02 -1.1172062898470171e-02
      -1.4241054765976646e-02 1.3216831761354082e-02
      -2.1433180703827354e-02 1.7558144349742390e-03
      9.8667393970546385e-03 1.3604023182115838e-02
      -1.3030957699150181e-02 -1.4936110960625464e-02
      2.0219707426056693e-02 -1.5378223786594666e-02
      -1.6943154122533981e-02 2.2330618720666391e-02
      -4.2708491469159509e-03 -1.4264049058719558e-02
      9.2869962512918056e-03 1.5044020505438000e-03
      -1.4725264184680330e-02 1.0198093361779960e-02
      -2.4620256480076343e-02 -4.9890892933716824e-03
      -5.6739576584637714e-04 1.7207940515711066e-02
      -2.6036503475414165e-02 1.9515102015219422e-02
      5.0484656627900401e-03 -5.3101476201649683e-03
      2.1963369110604322e-04 -1.9968403585948664e-02
      -1.5991170742317786e-02 -3.3698137205871448e-02
      1.3150535630957383e-02 2.9184566314713743e-02
      8.0857056967998941e-03 7.0585128870736709e-03
      1.8780077740641016e-02 -1.2430839100747543e-02
      -1.1698265454335364e-02 5.4673656618747027e-03
      1.6432857515793813e-02 1.0934615665863352e-02
      -5.0279419040724091e-03 -7.1214486077606862e-03
      8.5362908180682592e-03 1.5238908295869885e-02
      -2.9535165447501202e-03 7.2911061546678075e-03
      -8.8250942032680260e-03 -1.5418558296482690e-02
      6.8504534411207197e-04 -2.4656483512385534e-03
      -5.3101567828966077e-03 1.3086454536983875e-02
      1.9411465723024298e-03 -1.1849795535569802e-02
      1.9119467436339691e-02 -1.0656138704779742e-03
      -1.6682046487703907e-02 1.7386616036260696e-02
      -1.2971117505999961e-02 1.9349323804235877e-02
      -4.3571411327875866e-03 -9.7056119825817255e-03
      -1.2449479816323657e-02 2.3968615203506290e-03
      1.5174978443972115e-02 -7.6644814716327128e-03
      -2.4285661432218400e-02 -2.2765556815871973e-02
      1.6447375995169697e-02 -1.9380909025710762e-02
      2.7085837232128044e-03 -2.2258879098948608e-02
      -9.7443273454604143e-03 -8.8285415370853316e-03
      1.1306151306561164e-02 9.6845641028521969e-03
      7.8064106947583487e-03 1.0416641570852057e-02
      9.3019987903223528e-04 -1.6884356524564770e-02
      1.5770822335740262e-02 1.8593503766432748e-02
      1.3898393589488375e-02 -1.6491160663871490e-02
      -1.8293219542711424e-02 -2.1215227556260815e-02
      7.6452328589233639e-03 -2.7802697433783306e-02
      -2.6387968905821318e-02 4.0040292242981234e-04
      2.6700352047113574e-02 -7.5560774077524798e-03
      1.2355884219993349e-02 -1.6126231579460026e-02
      -1.6493444069573298e-02 2.2716243692091714e-02
      3.0970064697623434e-03 -2.2960695019776031e-03
      4.4933785012157765e-03 -2.1350118147380973e-02
      1.9207705302764482e-02 1.3130081112083110e-02
      7.4454843040732386e-04 -1.6469988992952333e-02
      1.5499572494830399e-02 1.8498707643278815e-02
      1.9461856999959861e-02 1.0389486391491180e-03
      -1.6651416865856198e-02 9.3163939242614686e-03
      1.2959805170102180e-02 -6.8478172948756907e-03
      -3.0592883042485502e-02 1.5429700398118525e-02
      9.2471412381456494e-03 1.7735116472279988e-02
      3.0371156514246878e-02 2.3855785493855721e-02
      1.8333617162663317e-02 2.7487921659390426e-02
      -1.1649251241935886e-02 -9.7210806760189162e-03
      -2.1256198555060019e-02 7.4091373745013228e-03
      2.4646974971498987e-02 -1.6315969242836358e-02
      -1.0241163575825742e-02 -5.0569052487762093e-03
      -2.0063378775799365e-02 2.1647659361217389e-02
      2.1797588186205859e-02 -8.6083058579161618e-03
      2.1170843967984368e-02 -2.0699697962061423e-02
      8.5213403000889490e-03 -1.7579612917582227e-02
      -2.3352499696122943e-03 -2.8231227324739577e-03
      6.4649604526918428e-03 -3.3321569455343845e-03
      1.3928531977200124e-02 -1.6299531734248644e-02
      -3.7955133288515011e-03 -1.1347114520254933e-02
      -1.9193365949876588e-02 -7.2481109164250690e-03
      -2.4981153619928500e-02 5.9634813332297316e-03
      4.0830201283417597e-03 -1.8532418543147151e-02
      -1.1309107416250888e-02 -2.3860942241038154e-02
      -1.8493796399830911e-02 1.1502951555706463e-02
      -2.1099707795455953e-03 7.8316167807421563e-03
      -1.0777350406384350e-02 1.3026939256551040e-02
      -1.5877040140054140e-02 5.2655598323167047e-03
      1.7276893825815556e-02 1.2452065720003503e-02
      7.0103894955525492e-03 -1.6390735707052847e-02
      3.8338516200271525e-02 -1.8182549344034769e-02
      2.2449737209540369e-02 -8.8504597668020591e-03
      -6.5350746824422564e-03 -4.9698845873668313e-03
      5.0188730967393423e-03 -1.9060073335592776e-02
      1.3157245674019166e-03 -4.3617480860982071e-03
      -1.4910257177865212e-03 9.8821437376796564e-03
      -2.0287046711974854e-02 -1.7732971511091218e-03
      -1.1222357335627566e-02 -1.7201079670585824e-02
      1.7958826714829887e-02 3.7563089078959692e-03
      -1.7780478499391277e-02 -1.0846168884820892e-03
      3.2404543719656035e-03 1.8760250168062719e-02
      2.2139543372716973e-03 1.0157262286278139e-02
      -7.9254392257380093e-03 -2.4764900682166173e-03
      -1.2961385992959842e-02 1.9560826884117852e-02
      9.1579213319691408e-03 -7.0918832665456261e-03
      -7.8430919855872906e-03 1.0643983906123382e-02
      -1.9557628204438890e-02 9.4598973134901836e-03
      9.1296879954073148e-03 -2.2160295902522144e-02
      7.6328438270160141e-03 -2.2936005093581961e-03
      7.4684616774679108e-03 -2.1988655275746939e-03
      2.2460777578399926e-02 -1.6397177635233294e-03
      -5.1631522978644326e-03 2.6499789492105089e-02
      -1.2019484615141783e-02 1.8067803991053694e-02
      7.2844754089503010e-03 -9.0730773306674857e-04
      -1.4912347818414416e-03 1.3883006852773098e-02
